3120 100
</s> 0.004003 0.004419 -0.003830 -0.003278 0.001367 0.003021 0.000941 0.000211 -0.003604 0.002218 -0.004356 0.001250 -0.000751 -0.000957 -0.003316 -0.001882 0.002579 0.003025 0.002969 0.001597 0.001545 -0.003803 -0.004096 0.004970 0.003801 0.003090 -0.000604 0.004016 -0.000495 0.000735 -0.000149 -0.002983 0.001312 -0.001337 -0.003825 0.004754 0.004379 -0.001095 -0.000226 0.000509 -0.003638 -0.004007 0.004555 0.000063 -0.002582 -0.003042 -0.003076 0.001697 0.000201 0.001331 -0.004214 -0.003808 -0.000130 0.001144 0.002550 -0.003170 0.004080 0.000927 0.001120 -0.000608 0.002986 -0.002288 -0.002097 0.002158 -0.000753 0.001031 0.001805 -0.004089 -0.001983 0.002914 0.004232 0.003932 -0.003047 -0.002108 -0.000909 0.002001 -0.003788 0.002998 0.002788 -0.001599 -0.001552 -0.002238 0.004229 0.003912 -0.001180 0.004215 0.004820 0.001815 0.004983 -0.003111 -0.001532 -0.002107 -0.002907 0.002815 0.001579 0.000425 -0.002194 0.001524 0.003059 0.000194 
2721 0.377535 0.594143 0.685837 0.428238 0.009610 0.009329 -0.067483 -0.446234 -0.458159 0.746163 0.237199 0.065193 -0.174593 -0.597869 -0.612519 -0.570332 0.595073 -0.400748 -0.709254 -0.722607 -0.661259 0.012825 0.329029 -0.029189 0.769447 -0.780714 -0.612425 0.059694 -0.784153 0.552143 0.215460 0.217017 -1.102598 1.065036 0.544717 -0.365470 -0.380356 0.151413 0.587354 0.100954 0.208827 -0.081021 0.058867 0.056326 -0.268693 -0.071067 -0.044663 -0.268371 -0.249535 -0.060237 -0.950523 0.207462 1.031106 0.030180 0.914573 0.010512 0.345066 0.253817 -0.100602 -0.195594 1.346626 -0.067160 0.527938 -0.010904 0.828512 0.521849 -0.369668 -0.818191 0.040158 0.092367 -0.610128 0.797241 -0.010206 0.044590 -0.125331 0.035295 0.322378 0.158751 0.356442 0.007716 0.544111 0.693434 0.136521 0.316668 0.045971 0.015968 -0.500265 0.751954 -0.294304 0.255011 1.096693 -0.023772 -0.379903 -0.983329 -0.147182 0.222136 0.025960 -0.213277 0.890453 0.719001 
2166 -1.207683 0.599707 -0.206721 -0.470640 -0.362040 0.738553 0.261039 -0.321002 0.487007 0.760868 0.272223 0.256120 -0.496641 -0.333277 0.120346 0.035347 0.312215 0.421413 -0.385654 -0.015836 -0.283788 -1.106587 0.238946 -0.136919 -0.106630 -0.905755 0.160440 -0.284892 -0.143891 0.102516 -0.268748 -0.373770 -0.148850 -0.257973 -0.680751 -0.995499 -0.303018 0.188542 -0.447726 0.388659 1.225051 0.824387 -0.052412 -0.283035 -0.168778 0.207405 -0.495522 0.051958 -0.085229 -0.706384 -0.117352 0.401240 0.157923 0.501388 0.126775 -0.381154 -0.269706 0.025303 -0.118653 -1.058379 0.347474 -0.374626 -0.123126 -0.227919 0.238495 -0.281231 -1.098558 -0.003186 -0.337347 0.408081 -0.890444 0.926567 0.162034 -0.234078 -0.253114 0.726861 -0.484658 0.436161 0.045627 -0.697506 -0.732035 0.192056 -0.005284 -0.027806 0.113057 -0.850005 0.145427 0.171617 0.463542 -0.968244 0.513300 0.523908 0.608205 -0.533597 0.054840 0.621162 -0.348134 -0.002110 0.449108 0.366238 
2738 0.515658 0.563683 0.820932 0.605989 -0.175702 -0.103479 -0.098798 -0.342188 -0.682131 0.793450 0.354872 0.546694 -0.330681 -0.941122 -0.521417 -0.282476 0.765068 -0.463831 -0.868310 -0.765801 -0.936606 -0.106874 0.481995 0.193222 0.891620 -0.634794 -0.669555 -0.084154 -0.925679 0.286083 0.195291 0.290148 -1.445057 1.350323 0.922441 -0.403729 -0.670121 0.105561 0.570018 0.081736 0.124199 -0.418068 0.067694 0.090084 -0.121624 0.007325 -0.180987 -0.480752 -0.559144 0.021072 -0.943841 0.247891 0.997213 0.126670 0.703141 -0.082355 0.108162 0.056064 -0.050379 -0.226550 1.679981 -0.028034 0.655137 0.009730 1.004136 0.522629 -0.511365 -1.161124 0.053789 0.167744 -0.675377 0.844130 -0.014020 -0.097240 -0.060922 -0.115219 0.002104 0.237387 0.276842 0.077196 0.853160 0.646809 0.406050 0.470487 0.114065 0.130633 -0.546177 0.674221 -0.390356 0.262006 1.126272 -0.063387 -0.529210 -0.926986 -0.007157 0.437504 -0.078660 -0.018139 1.282543 0.602273 
1847 -0.333629 -0.434791 0.338653 0.028559 0.211761 0.551255 0.482372 0.705718 -0.592025 -0.902724 -0.235983 -0.257752 0.560060 -0.019924 0.452410 0.821807 0.046524 0.913322 0.168819 -0.582354 -0.978499 0.355138 0.852032 0.243107 1.078780 0.815989 -0.419515 0.403776 -0.277850 0.625995 0.541483 0.993001 0.345710 0.085436 -0.942877 -0.066983 0.294963 0.295365 0.523660 -0.364679 -0.907140 -0.439084 0.018323 -0.075700 0.509425 0.585535 0.438135 1.014794 -1.239836 -0.366790 -0.253389 0.422050 0.261393 0.422770 -0.098007 -0.648164 -0.461917 0.211222 1.312022 0.423228 -0.513565 -0.826063 0.738260 -0.389924 -0.159070 0.313276 -0.215900 -0.084973 0.092020 -0.599073 -0.128359 -0.196214 0.662814 -0.094874 -0.399016 -0.307732 0.624245 0.764850 -0.109752 0.288657 0.518275 -0.271484 -0.291128 0.367587 -0.970870 0.391601 0.858457 0.590864 -0.481827 0.936189 0.327241 -0.126800 -0.650600 0.035724 0.383143 -0.851751 0.701844 0.129901 -0.280312 -0.630830 
955 0.810559 -0.690811 0.095192 -0.071992 0.008650 -0.252619 0.467048 0.488426 -0.205142 -0.726608 -0.280787 0.337274 1.210875 0.290744 -0.102300 0.076358 1.194231 0.178999 0.066684 -0.506127 -1.030877 0.411409 0.416885 0.776232 2.103108 0.318765 -0.232210 0.227926 -0.155323 0.130080 -0.012644 0.630968 0.087902 0.642984 -0.645423 0.119184 0.148842 0.717764 0.518861 -0.660687 0.296361 -0.028964 0.169311 -0.192465 1.376161 0.561128 0.602709 0.212490 -1.159904 0.004203 -0.229409 -0.396629 -0.125763 0.281844 0.344110 -0.903074 0.170927 -0.569667 0.959107 0.349966 -0.099077 0.088265 0.305367 0.702722 -0.023374 -0.141292 0.489431 -0.255531 0.217900 -0.555956 -0.530673 -0.866183 0.988156 0.049365 -0.545828 -0.675207 0.428502 0.908166 -0.376049 -0.250193 0.189979 -0.587401 -0.353035 1.695147 0.388975 0.260009 0.061474 0.379722 -0.169941 0.470367 0.385422 -1.139685 -0.143196 -0.619775 0.452473 -0.456353 0.799300 0.145702 -0.154683 0.709230 
1784 0.268454 -0.809536 0.289254 -0.490448 0.157924 0.179635 -0.125418 0.700910 0.837133 0.030424 -0.775896 0.220199 -0.062086 0.631613 0.619715 -0.310457 0.309980 0.497085 -0.058318 -1.062771 -0.799126 -1.296901 0.239370 -0.945702 1.359044 0.674992 -0.303510 0.135640 0.031969 0.819184 -0.319659 0.563514 -0.229143 -0.317398 0.028308 -0.098884 1.178406 0.526250 -0.000702 -0.523537 -0.104701 0.147905 0.160294 1.178211 0.533000 0.326468 0.914803 0.625744 -0.235595 0.229369 1.306811 0.141730 0.009678 1.221830 1.158697 -0.285641 -0.423053 -0.146018 0.454764 0.735059 0.163644 -0.420998 0.254248 -0.052690 0.508410 0.766553 -0.206951 -0.490213 0.583148 -0.288557 -0.890512 0.681856 -0.189629 -0.707249 -0.454665 -0.613064 0.045863 1.020494 0.245622 0.318677 0.972058 0.653988 -1.112166 1.296742 -0.254945 0.229545 -1.043890 -0.445447 0.086840 1.268927 0.634802 -0.546037 0.004283 -0.350795 -0.075727 -1.296192 1.076906 1.369452 -0.377278 1.150816 
1584 -0.042420 0.230118 0.434377 0.115516 0.096719 0.165147 0.526806 -0.371244 0.134686 0.562399 0.475261 0.378485 0.289136 -0.033018 0.014677 -0.415200 0.893004 0.250433 -0.795836 -0.206307 -0.396528 -0.690362 0.466990 -0.478247 0.691002 -0.706478 -0.058460 0.146844 -0.269116 0.800229 -0.195444 0.480871 -0.446925 0.614447 0.163934 -0.814340 -0.472307 0.575718 0.273053 0.459060 1.166647 0.262000 -0.006888 0.050752 0.059568 0.149283 0.151325 0.039121 0.044461 -0.191624 -0.453135 0.307539 0.550070 0.272099 0.628923 -0.614012 -0.071474 0.251040 0.035703 -0.235964 0.695911 -0.194227 0.302018 0.234229 0.051528 0.613257 -0.684032 -0.137592 -0.117303 0.067236 -0.824025 0.832881 -0.151609 0.011101 -0.027752 0.121379 -0.073478 0.244334 0.332414 0.008207 0.013880 0.422248 -0.080494 0.640027 0.328961 -0.387532 -0.574421 0.554276 0.368736 -0.261010 0.776688 -0.245851 0.219163 -0.600840 -0.158656 0.290966 -0.063770 0.197237 0.418500 0.442815 
2059 0.491351 -0.458065 0.031245 -0.685254 0.047742 -0.522473 0.434517 -0.199537 0.425957 -0.001939 -0.470366 0.213629 0.670955 0.779167 0.197174 -0.772599 0.356161 0.606787 -0.220098 -0.971444 -0.674860 -1.229226 -0.742918 -0.637145 0.831856 0.230446 -0.383633 0.531465 0.590101 -0.509087 -0.618130 0.229137 -0.273360 0.087851 -0.015000 0.039578 0.729118 1.217858 0.586515 -0.535460 0.475415 0.736375 -0.858627 0.007661 0.958279 0.392204 0.980142 -0.701226 0.233692 -0.643258 0.742853 -0.743026 -0.446908 0.915104 1.108189 0.031473 0.009084 0.138908 1.031312 0.686818 -0.008747 -0.617538 0.152837 0.387207 0.592989 0.392019 -0.350587 -1.294424 0.621147 -0.106808 -0.925067 1.334806 -0.541937 -0.787610 0.594646 -0.606379 0.421574 0.430741 0.398907 -0.426328 1.050531 0.101373 -0.633216 0.858740 0.409861 0.069363 -0.138011 -0.099190 0.627453 0.209331 -0.142142 -0.903478 -0.644689 -1.100038 -0.735399 -0.366204 0.126554 0.747322 -0.684012 0.981188 
678 0.546275 0.143174 0.580526 0.345749 -0.401244 -0.462156 0.056673 -0.475375 -0.422856 0.909553 0.370635 0.748410 -0.692112 -0.833005 -0.502351 -0.269541 0.727154 -0.746846 -0.892577 -0.774688 -0.944103 -0.314650 0.505876 0.074942 1.196865 -0.866857 -0.519454 -0.064845 -0.867337 0.225411 0.075690 0.334977 -1.026625 1.090343 0.753017 -0.457233 -0.700592 0.153990 0.283549 0.052850 0.446638 -0.275364 0.455632 0.100466 0.005529 0.046141 -0.128254 -0.505612 -0.825034 -0.003234 -0.729322 0.302299 0.910519 0.292309 0.507679 -0.043771 0.100728 -0.067226 -0.092693 -0.260540 1.673078 -0.076206 0.534200 0.068898 0.965719 0.540340 -0.780655 -0.869046 0.156360 0.235305 -0.867793 1.042925 -0.065586 -0.071842 -0.035019 -0.147037 -0.267760 0.415414 -0.085369 0.063715 0.690056 0.688473 0.222669 0.727561 0.096904 -0.061665 -0.758570 0.548044 -0.339512 -0.089080 1.243654 -0.124096 -0.400105 -0.907115 -0.124318 0.651838 -0.033013 -0.022189 1.367800 0.760410 
2736 0.435297 0.244966 0.443326 -0.078596 -0.113599 -0.293237 0.676567 -0.461710 0.256006 0.529902 0.871411 0.686680 0.098345 -0.271183 -0.195219 -0.542096 1.120103 -0.300512 -1.140218 -0.342431 -0.842228 -0.776810 0.377994 -0.444119 1.006484 -1.126076 -0.136487 0.352598 -0.354720 0.578101 -0.367895 0.466292 -0.919039 0.929637 0.259458 -0.525387 -0.601418 0.962357 0.447646 0.370679 1.479999 0.265468 0.045837 -0.107580 0.305134 0.242570 0.350167 -0.519856 0.002140 -0.180272 -0.316892 0.009265 0.456620 0.432729 0.766475 -0.589634 -0.128378 0.102129 0.199196 0.014495 1.121115 -0.144792 0.511265 0.391567 0.592527 0.826621 -1.009627 -0.545632 -0.021534 0.036023 -1.047865 1.478790 -0.230907 -0.197342 0.274432 0.030533 -0.291284 0.362604 0.389187 0.083931 0.125034 0.569558 -0.027810 0.866168 0.472122 -0.308844 -0.922387 0.641869 0.534473 -0.642258 1.039879 -0.389469 0.116304 -0.981414 -0.370510 0.760667 -0.159902 0.110469 0.745866 0.947922 
1780 -0.290097 0.547458 -0.545269 0.357559 -0.006339 0.260838 -0.086379 -0.465668 -0.157712 0.511620 0.310057 0.720845 0.055803 -0.093908 -0.130834 -0.270788 0.260902 0.519980 -0.233934 0.159453 0.307012 -0.122150 0.442621 -0.328300 0.405731 -0.912479 -0.100491 0.209212 -0.064662 0.953683 -0.023600 0.562973 -0.644156 0.797318 -0.474933 -0.521924 -0.495318 0.170659 -0.066279 0.751329 0.678578 0.960896 -0.014384 0.295333 -0.481029 0.138143 -0.319515 0.375342 -1.068414 -0.203926 -0.851406 -0.019846 1.239722 0.062923 0.211898 -0.265567 -0.055711 0.342758 0.004295 -1.461193 0.437444 -0.220789 -0.173254 -0.030026 -0.168020 0.081040 -0.539595 -0.511118 -0.271411 0.144777 -0.403370 0.304749 -0.106091 -0.041521 -0.227792 0.984874 -0.527000 0.154192 0.468791 0.381179 -0.125827 0.468306 -0.033587 0.237118 -0.222968 -0.708475 -0.129718 0.666750 0.395923 -0.156328 0.829815 0.488418 0.001542 -0.335751 0.558803 0.360086 0.204519 -0.022478 0.318066 -0.086646 
2209 0.786186 -0.429479 -0.319401 -0.403631 -0.477848 -0.168390 0.681560 0.483900 -0.049393 -0.829081 -0.424785 0.112830 1.124833 0.537570 0.230887 -0.006399 0.660907 0.609355 0.263425 -0.828960 -0.809166 0.009383 -0.171141 0.611854 1.355213 0.672548 -0.612124 0.109797 0.111192 0.098453 0.228953 0.506356 0.029874 0.379777 -1.050808 0.272548 0.335996 0.838234 0.547335 -1.017139 0.153092 0.389755 -0.638538 0.056320 1.415286 0.446435 0.755091 0.342190 -1.002896 -0.140929 0.671818 -0.680707 -0.241286 0.174179 0.007895 -1.115044 0.102712 0.056910 0.976423 0.358773 -0.926199 -0.717041 -0.162246 0.701801 0.071242 0.001398 0.224089 -1.123706 0.499564 -0.238561 -0.621182 -0.058946 0.966968 -0.425242 0.000300 -0.740539 0.633528 0.307188 0.277649 -0.734013 0.454283 -0.138923 -0.618291 1.435384 0.088025 -0.010267 0.649992 0.239733 0.075388 0.375795 -0.247987 -1.482448 0.032642 -0.506148 0.577019 -0.628339 0.734839 0.188133 -0.647606 0.809025 
2388 -0.563502 0.632339 -0.435751 -0.164312 0.105793 0.522560 0.082047 -0.400688 0.066322 0.817014 0.145451 0.655149 -0.369766 -0.133100 -0.162494 -0.265124 0.336172 0.667809 -0.156213 0.056501 0.001600 -0.672502 0.527051 -0.420185 0.527321 -1.159593 -0.367027 -0.075215 -0.043590 1.259683 0.031805 0.414703 -0.386101 0.776745 -0.505177 -0.986373 -0.423128 0.321482 -0.138625 0.604760 0.780959 0.869512 0.005024 0.045561 -0.357560 0.186493 -0.453808 0.584604 -0.942829 -0.474316 -0.923277 0.347021 1.526768 0.257763 0.282793 -0.207596 -0.113522 0.481298 -0.156592 -1.504047 0.514810 -0.417717 -0.371120 -0.174544 0.232264 -0.008593 -1.060425 -0.344068 -0.522913 0.402632 -0.450407 0.728596 0.027850 0.057306 -0.276280 1.098312 -0.582972 0.111039 0.255995 0.000350 -0.304540 0.475544 -0.060377 0.230377 -0.317279 -0.493227 -0.352779 0.523746 0.691809 -0.496524 0.725633 0.458603 0.348657 -0.475694 0.213039 0.370157 0.036261 -0.007568 0.383126 0.098651 
1803 0.621983 0.321375 0.534682 0.321690 -0.164528 -0.498551 -0.110641 -0.429455 -0.648476 0.624665 0.242226 0.376083 -0.457030 -0.831959 -0.771181 -0.346275 0.463507 -0.547333 -0.645707 -0.772808 -0.877910 0.126248 0.260947 0.377536 0.977537 -0.665502 -0.668921 0.010938 -0.834470 0.147175 0.171123 0.248144 -1.053488 1.211810 0.627174 -0.178919 -0.443683 0.080962 0.489227 -0.184711 -0.012733 -0.258821 0.113964 -0.148113 0.064150 -0.009816 -0.056592 -0.348697 -0.670197 -0.090375 -0.777936 -0.045984 0.716284 -0.026113 0.484683 0.141718 0.233480 0.056440 -0.156401 -0.111328 1.514586 -0.017094 0.411659 0.099819 0.953200 0.393445 -0.324390 -1.021948 0.089481 0.081415 -0.509892 0.629251 0.064070 0.007961 0.005787 -0.192578 0.088045 0.298849 0.029774 -0.049266 0.687698 0.440975 0.333797 0.572298 -0.015161 0.252697 -0.453838 0.635672 -0.454330 0.100159 0.932094 -0.089302 -0.365945 -1.085658 -0.121901 0.340983 -0.081820 -0.298951 1.065683 0.823953 
2325 0.196026 -0.356339 0.040629 -0.635943 0.538838 -0.400594 -0.022967 0.183209 0.080219 -0.426052 -0.190687 -0.010181 0.574327 0.572769 0.308962 -0.185864 0.633495 0.267242 0.010926 -0.628271 -0.545252 -0.265281 0.184012 -0.172318 1.221326 0.206408 -0.484802 -0.420769 0.028225 0.749466 -0.160086 0.437706 -0.017607 0.214429 -0.242691 0.113941 0.366978 -0.034109 0.253438 -0.331139 0.784373 0.327357 0.477758 0.552908 0.815892 0.304998 1.278460 1.313187 -0.913163 -0.168191 0.755448 -0.445046 0.324665 0.254994 0.393689 -1.316000 0.225251 -0.236309 0.565254 0.187069 -0.365967 0.099446 -0.444294 0.586731 -0.301999 0.255803 0.415895 -0.253502 0.179716 -0.525861 -0.801919 -0.262529 0.546391 -0.390637 -0.495316 -0.725698 0.274192 0.655021 0.236495 0.045176 0.626667 0.394700 -0.622847 1.614517 0.278921 -0.484338 -0.343999 0.277742 0.467242 0.804269 0.549100 -0.649078 0.491342 -0.402986 0.120392 -0.890363 0.818053 0.574720 -0.365808 0.759910 
1787 0.714344 -0.251521 0.014294 -0.128372 0.352380 -0.085341 0.257123 0.332037 -0.145097 -0.466732 -0.252464 0.137404 1.175318 0.632155 -0.158749 -0.283378 0.863182 0.165211 0.106209 -0.319494 -0.406777 0.313698 0.115465 0.177791 1.543152 -0.032726 -0.271526 0.156904 -0.049155 0.373479 0.034211 0.401204 0.126193 0.260130 -0.295498 0.169525 0.139133 0.648791 0.429705 -0.387318 0.144065 0.260727 0.048527 -0.088082 0.628561 0.025501 0.617232 0.197623 -0.908394 0.143683 -0.250644 -0.381885 -0.090851 0.330502 0.366663 -0.616095 0.467404 -0.377985 0.386267 -0.066616 -0.036671 0.097899 -0.048872 0.548768 -0.009660 0.014175 0.833762 -0.142970 0.291650 -0.375638 -0.558840 -0.588484 0.415386 0.100160 -0.631517 -0.410599 0.420287 0.679263 0.046972 -0.476093 0.424866 -0.339819 -0.539483 1.107252 0.505816 -0.046423 -0.175952 0.210774 -0.184011 0.366871 0.319557 -1.058108 0.007180 -0.300774 0.191804 -0.286192 0.726496 0.057518 -0.365952 0.838847 
1396 -0.401431 0.902255 -0.457127 0.110359 0.082670 0.569710 -0.343749 -0.196423 -0.131705 0.760956 -0.037923 0.708183 -0.443991 -0.485161 -0.308428 -0.295349 0.086285 0.686785 -0.108546 -0.092751 0.086037 -0.400286 0.452140 -0.161248 0.456251 -1.144393 -0.497436 -0.097350 -0.166854 1.113975 0.161341 0.187939 -0.749855 1.068628 -0.448462 -0.576603 -0.251575 0.087085 -0.078895 0.595941 0.177412 0.769488 -0.258024 -0.016257 -0.521481 0.267285 -0.626057 0.610323 -1.179143 -0.391813 -1.161268 0.180440 1.703724 0.246359 0.307392 -0.034081 -0.059206 0.542249 -0.198388 -1.636266 0.818204 -0.301801 -0.224231 -0.215459 0.491480 -0.156907 -0.775967 -0.618098 -0.563411 0.334623 -0.152344 0.522667 0.022177 0.021171 -0.390456 1.259105 -0.365895 0.028457 0.395677 0.081804 -0.171607 0.549347 0.160684 -0.145391 -0.449470 -0.389549 -0.069067 0.558505 0.422508 -0.184626 0.825166 0.676905 0.083827 -0.445766 0.462580 0.365825 -0.003170 -0.105883 0.539593 -0.031377 
998 -0.592989 0.029920 0.141314 -0.436417 -0.146996 0.256962 0.600545 -0.365348 0.598716 0.583848 0.177517 0.197290 -0.218961 0.054128 0.117264 -0.233698 0.603763 0.097525 -0.611268 -0.116307 -0.330206 -1.064274 0.144946 -0.250739 0.245483 -0.654209 0.338068 -0.043534 -0.115178 0.117178 -0.474080 -0.075686 0.023257 -0.111391 -0.228560 -0.919219 -0.217027 0.479172 -0.130591 0.288473 1.488578 0.506675 0.050282 -0.064085 0.188198 0.183942 -0.033684 -0.222430 0.353435 -0.389460 0.009715 0.325946 -0.106779 0.279578 0.427243 -0.460171 -0.057916 -0.076445 -0.061180 -0.378449 0.349886 -0.195229 0.103465 0.135847 0.058598 0.113573 -0.878369 -0.036328 -0.283519 0.165132 -0.914626 0.906683 0.057492 -0.141698 0.123955 0.050266 -0.215373 0.325292 -0.075063 -0.369330 -0.366780 0.358116 -0.264127 0.478767 0.491690 -0.618731 -0.488821 0.146034 0.590197 -0.665235 0.456403 -0.040291 0.489897 -0.465881 -0.247483 0.478588 -0.135478 0.163007 0.410026 0.467093 
334 -0.198458 0.375738 -0.059586 -0.784887 -0.219786 0.582343 0.417445 -0.141406 -0.220935 -0.069925 -0.243142 0.399732 0.919148 0.227850 -0.182296 -0.300776 0.686869 1.175774 0.362172 0.354348 -0.915825 -0.469518 -0.262987 0.112594 0.332674 0.446161 -0.019003 -0.769059 0.229256 -0.394103 -0.691481 0.333140 -0.256891 -0.043487 -0.886213 -1.414358 -0.077831 0.938358 -0.590750 -0.645270 0.969016 1.118266 -0.360535 -0.329577 0.807413 0.563592 -0.052466 0.325853 -0.486598 -0.435768 0.605398 -0.685533 -0.427141 0.605928 -0.294704 -0.900776 -0.123959 -0.757469 0.251742 -0.217970 -1.124576 0.079974 -0.969367 -0.189595 -0.052489 -0.149686 -0.443064 -0.673725 0.104113 0.123921 -1.157489 -0.381512 0.574662 -0.342823 -0.403755 0.160041 -0.367520 0.678709 -0.027484 -1.242315 -0.487955 -0.878131 0.139550 1.610565 1.288702 -0.442490 0.101408 -0.121507 0.739990 -0.237422 -0.560284 -0.729108 0.735529 -0.502719 0.076359 -1.017214 0.248289 0.272018 -0.521326 1.022161 
117 -0.859637 0.451783 -0.076897 -0.099668 0.344716 0.226583 0.122510 -0.383871 0.201843 0.494724 0.222198 0.299935 -0.739032 -0.578027 -0.357111 0.421459 0.177775 0.555170 0.100384 -0.381819 -0.782625 -0.616982 0.667147 -0.007216 0.581222 -0.918738 -0.496611 0.126764 -0.301042 1.482459 0.667165 0.389513 0.056356 0.638458 -0.212031 -1.217423 -0.676015 -0.237223 -0.128444 0.134090 0.476288 0.790046 0.612197 -0.283590 -0.600854 -0.118758 -0.283658 0.938969 -0.426729 -0.863508 -0.885675 1.262092 1.560712 0.155161 -0.233498 -0.212097 -0.163531 0.867970 0.044274 -0.861155 0.342215 -0.502880 -0.469676 -0.404242 0.149247 0.104289 -0.843907 -0.259260 -0.190074 0.517774 -0.287338 0.723736 -0.074409 0.270042 -0.476668 0.605635 -0.173689 0.330432 -0.237542 -0.159312 -0.150506 0.022104 0.119984 0.106407 -0.601730 -0.281353 -0.263565 0.371249 0.119161 -0.855035 0.590157 0.289250 0.546379 -0.555003 -0.056887 -0.083923 -0.541832 -0.159480 0.713588 0.321098 
1609 -0.310323 0.583043 -0.376510 0.012779 0.112477 0.449993 -0.030576 -0.233682 -0.177660 0.782856 0.163953 0.636029 -0.381865 -0.204526 -0.274057 -0.379014 0.243578 0.497749 -0.109496 0.104597 0.167312 -0.353734 0.451293 -0.311156 0.428344 -1.043623 -0.374454 -0.048506 -0.088633 1.077178 0.061589 0.396957 -0.470086 0.843249 -0.362166 -0.727260 -0.311935 0.286849 -0.072313 0.585693 0.437044 0.580908 -0.031060 0.070268 -0.335318 0.143047 -0.425502 0.415040 -1.012388 -0.151227 -1.078875 0.179157 1.593294 0.182201 0.404771 -0.023943 -0.003134 0.362873 -0.181818 -1.435448 0.596870 -0.270648 -0.169760 -0.156136 0.269036 -0.018411 -0.927022 -0.460788 -0.590972 0.260580 -0.203202 0.574548 0.056847 0.053499 -0.240561 1.072414 -0.552638 -0.074869 0.299890 0.208835 -0.233031 0.579268 -0.025575 0.122341 -0.328058 -0.311472 -0.451281 0.590842 0.564880 -0.184440 0.686590 0.510989 0.109258 -0.325222 0.293581 0.413601 0.169667 -0.136043 0.394267 -0.169301 
799 -0.298527 -0.174166 -0.325980 -0.297092 -0.533840 0.094355 0.385966 -0.788893 0.508647 0.923950 0.123921 1.013622 -0.716008 -0.034681 0.266787 -0.137044 0.667575 0.192580 -0.819458 -0.118631 -0.132353 -1.480750 0.381164 -0.655133 0.910345 -1.071183 0.293152 -0.149319 -0.302494 0.518125 -0.718736 0.447561 -0.004362 0.064576 -0.460301 -0.892253 -0.522295 0.484578 -0.520117 0.416311 1.736435 0.805165 0.335720 0.277538 0.167519 0.292224 -0.156317 -0.086487 -0.980500 -0.402542 -0.012607 0.255242 0.420377 0.564189 0.270003 -0.435415 -0.290580 -0.141868 -0.068989 -1.159058 0.752414 -0.550887 0.033218 0.142818 0.150702 0.264172 -1.366531 -0.073885 -0.176134 0.314329 -1.259544 1.101304 -0.110082 -0.197706 0.005442 0.494286 -0.872761 0.689704 -0.314947 -0.094171 -0.361368 0.700366 -0.481894 0.989403 0.124080 -0.913502 -0.643044 0.219453 0.582151 -0.660982 1.030551 0.124913 0.276808 -0.538300 0.063382 0.939913 0.373320 0.403346 0.505421 0.480968 
1262 -0.349616 1.302242 -0.693126 0.019477 0.289961 0.458610 -1.112062 0.126101 0.032749 0.227600 -0.338007 0.377015 -0.312805 -0.853602 -0.593959 -0.283587 -0.684704 1.119573 0.110835 -0.152973 0.105689 -0.149363 0.051208 0.399321 0.171265 -1.305269 -0.570180 -0.149784 -0.117603 0.864995 0.237956 -0.520985 -0.863352 0.900004 -0.983991 0.188745 0.607763 -0.237599 0.215715 0.160824 -0.700624 1.118501 -0.862091 -0.372545 -0.582835 0.422728 -0.633690 0.880077 -0.973624 -0.840376 -1.082797 -0.393131 1.449109 0.516804 0.315664 0.228321 0.252899 0.509020 -0.100662 -1.207678 0.966508 -0.000954 -0.471758 -0.073925 0.805415 -0.414545 0.120880 -0.374004 -0.731099 0.059892 0.339014 0.101816 0.161868 -0.061105 -0.616547 1.571849 0.361137 0.058651 0.710639 -0.179456 -0.357324 0.234104 0.501168 -0.796837 -0.562062 -0.353348 0.761629 0.557292 0.134472 0.074969 0.654617 0.801639 0.113081 -0.503693 0.519648 0.064843 -0.298468 -0.527210 0.128023 0.652609 
2910 -0.336014 0.657704 -0.445216 0.089436 0.346427 0.449688 -0.058205 -0.237866 -0.139760 0.534093 0.115568 0.559705 -0.089823 -0.081129 -0.395463 -0.404299 0.198340 0.719489 0.023968 0.209049 0.237888 -0.151014 0.438639 -0.289242 0.440744 -1.000195 -0.341733 0.038138 -0.034324 1.199452 0.062909 0.534891 -0.477888 0.883601 -0.498779 -0.748189 -0.215174 0.254906 -0.095489 0.579810 0.453288 0.851182 -0.042232 0.036622 -0.353416 0.166469 -0.374552 0.584183 -1.011721 -0.244375 -1.025090 0.050891 1.599728 0.101107 0.411866 -0.166827 0.049840 0.422651 -0.129035 -1.502372 0.317954 -0.223582 -0.311410 -0.182993 0.070507 0.025436 -0.663946 -0.468652 -0.524964 0.137329 -0.153704 0.294437 -0.052778 0.039830 -0.339844 1.178874 -0.454128 0.014928 0.456054 0.270054 -0.299602 0.488785 -0.085031 0.199994 -0.243531 -0.433618 -0.411000 0.676498 0.607011 -0.132991 0.653504 0.459838 0.125144 -0.248866 0.408858 0.088540 0.222130 -0.186851 0.178911 -0.114698 
1718 0.082689 0.950153 -0.148157 0.555570 0.340984 0.026465 -0.697796 -0.157533 -0.173387 0.328013 0.086708 0.451898 -0.262209 -0.903894 -0.713641 -0.389162 -0.081792 0.332373 -0.362108 -0.459129 -0.165076 0.042898 0.205483 0.276674 0.227711 -1.055595 -0.429667 0.013013 -0.460946 0.810302 0.211344 -0.143632 -1.186499 1.233801 -0.012622 0.111310 -0.204612 -0.093103 0.396339 0.300852 -0.158451 0.496214 -0.409516 -0.122282 -0.843386 0.207849 -0.321897 0.342769 -0.508173 -0.284345 -1.019934 0.094166 1.443981 0.175053 0.410519 -0.069613 0.181934 0.715814 -0.036323 -0.689765 1.029770 0.178531 0.268440 -0.203243 0.817530 0.012447 -0.081130 -0.864376 -0.096138 0.068538 0.042341 0.604803 -0.247678 -0.149345 -0.105583 0.865476 0.189656 -0.024226 0.605751 0.464745 0.234528 0.605183 0.512783 -0.329280 -0.130986 -0.383155 0.021867 0.500039 -0.066404 0.194982 1.014707 0.547991 -0.300769 -0.510856 0.431380 0.306731 -0.292564 -0.252020 0.728676 0.285060 
2766 -1.080971 0.687241 0.641671 0.922002 -0.495290 1.038144 -0.075935 0.245735 -0.411389 0.403834 0.170201 0.745240 -0.062068 -0.576252 0.667198 0.363024 0.747734 0.256049 -0.728737 -1.031186 -1.078738 -0.532757 0.749683 0.383213 0.338177 0.433489 -0.665863 0.211323 -0.603107 -0.097154 0.803389 0.136790 -1.582495 1.172794 0.397578 -0.597315 -0.966659 -0.122199 0.260245 0.584424 0.042470 -0.273879 0.042085 0.292934 -0.715309 0.564550 -0.687260 -0.219485 -0.840064 -0.145376 -1.114659 0.873841 0.645596 0.229622 -0.061465 -0.693971 -1.017680 0.461698 0.680920 -0.910647 0.521996 -0.766089 0.783559 -0.835060 0.527626 -0.179213 -0.959296 -1.878336 0.471077 0.342776 -1.015185 0.804844 0.084727 -0.600130 -0.291396 0.173175 0.148494 0.554626 0.450727 0.162214 1.084503 -0.000819 0.151743 -0.242094 -0.211589 -0.480714 0.860663 -0.022408 -0.576389 0.188015 1.231507 0.485821 -0.971463 -0.370458 1.106650 0.084805 -0.380340 0.388150 1.277258 -0.993885 
3081 0.714309 0.602717 0.454422 0.365456 -0.172672 -0.453960 -0.153379 -0.437332 -0.539417 0.718302 0.429471 0.643258 -0.437963 -1.031002 -0.756867 -0.372622 0.628063 -0.499932 -0.776609 -0.595863 -0.818206 -0.085929 0.353306 0.272355 1.012231 -1.083326 -0.600474 -0.039932 -0.890231 0.401865 0.089172 0.206383 -1.308876 1.432714 0.653516 -0.260510 -0.569865 0.118800 0.448064 0.005450 0.336779 -0.048801 -0.015297 -0.142120 -0.061833 -0.017929 -0.124025 -0.378676 -0.611281 -0.071576 -0.813728 -0.007898 1.008404 0.142336 0.571278 0.030095 0.225509 0.054832 -0.226865 -0.304643 1.718348 0.112054 0.369275 0.176515 1.117416 0.459295 -0.423447 -0.952453 -0.009225 0.209998 -0.491600 0.819136 -0.010237 -0.004241 -0.048696 0.071702 -0.099626 0.206585 0.229373 -0.020449 0.531301 0.624880 0.489537 0.567729 0.071511 0.130641 -0.565631 0.717101 -0.205160 -0.027805 1.015692 -0.082001 -0.203093 -1.096076 -0.082950 0.582776 -0.138288 -0.176725 1.214831 1.034060 
1819 0.742884 0.599758 0.481892 0.287773 -0.307877 -0.509695 -0.296492 -0.523249 -0.685578 0.982809 0.350265 0.560215 -0.827924 -1.197485 -0.895015 -0.510328 0.460678 -0.728870 -0.720760 -0.746347 -0.809667 -0.134862 0.248218 0.303928 0.960000 -1.132332 -0.707493 -0.095905 -0.992852 0.249808 0.076900 0.136013 -1.379689 1.364735 0.729142 -0.232457 -0.466243 0.005461 0.413423 -0.062882 0.092005 -0.184469 0.122877 -0.071609 -0.066284 -0.058016 -0.114428 -0.492143 -0.785549 -0.017878 -0.875103 -0.027640 1.113480 0.128626 0.700468 0.335931 0.292980 0.017465 -0.325821 -0.319563 1.965816 0.057037 0.378568 0.025422 1.260339 0.438009 -0.571682 -1.121602 -0.008065 0.240135 -0.592369 0.954968 0.052064 0.059850 0.029774 0.082835 -0.191035 0.150324 0.122645 0.012399 0.640747 0.809139 0.424141 0.429500 -0.046157 0.233277 -0.636917 0.630643 -0.335616 0.078273 1.110264 0.032971 -0.291355 -1.211161 -0.152121 0.651193 -0.078607 -0.323791 1.304572 1.027502 
1988 0.603905 -1.059271 0.084017 -0.955506 -0.506655 -0.242472 0.328579 1.086627 -0.080077 -0.486606 0.026672 0.060116 -0.098632 -1.092296 0.522272 0.393300 0.150068 -0.256921 0.224158 -0.109857 -0.848884 -0.897673 0.368050 0.724833 1.440446 0.438387 -1.003724 0.533557 -0.527639 0.330747 0.915760 0.380174 0.344594 -0.167563 -0.750525 0.304186 1.040738 -0.276987 0.433414 -0.599125 -0.948964 -1.230427 0.054204 -0.203880 1.646020 0.644477 0.458530 0.735504 -1.430851 -1.267438 -0.487470 0.361536 0.537644 0.901183 0.308614 0.090669 -0.238416 -0.594999 0.932476 0.521924 0.637923 -1.065284 0.660193 -0.471193 1.045417 -0.034152 -0.741202 0.489086 -0.639383 -0.333301 -0.037768 0.341478 1.888342 0.144807 -1.400494 -0.600243 0.318305 0.772648 -0.549640 -0.259829 0.421431 -0.459603 -0.443200 0.472024 -2.234646 0.543869 0.772545 0.500590 -0.593358 0.288754 0.439623 -0.462820 -0.634126 0.030627 0.468257 -0.512752 0.414605 0.066434 -0.018143 -0.185746 
2693 -1.028239 0.155546 -0.092727 -0.665639 -0.070806 0.397396 0.681644 -0.456027 0.672196 0.477802 -0.062769 0.105274 -0.266597 0.026844 0.215490 0.169675 0.498261 0.526824 -0.350555 0.054871 -0.518623 -1.149695 0.282901 -0.318594 0.371311 -0.661422 0.318214 -0.141368 0.039791 0.599357 -0.330303 0.118752 0.399772 -0.264216 -0.581345 -1.306123 -0.349080 0.366450 -0.411351 0.146760 1.438029 0.828131 0.134967 -0.222510 0.034818 0.271191 -0.253573 0.272558 0.254126 -0.815431 0.168911 0.634786 0.213328 0.461187 -0.006219 -0.450986 -0.200254 0.261191 -0.043251 -0.574476 -0.051276 -0.466056 -0.347249 -0.083739 -0.078503 0.042752 -1.079204 0.159433 -0.197857 0.347309 -0.866033 0.827971 0.041993 0.054026 -0.081878 0.425136 -0.334861 0.537147 -0.224014 -0.692080 -0.700405 0.173865 -0.356255 0.561254 0.242646 -0.629179 -0.346185 0.103715 0.572232 -0.924523 0.344496 -0.005395 0.729868 -0.547162 -0.277585 0.238879 -0.308524 0.219215 0.260839 0.615367 
2444 0.643382 0.531378 0.638796 0.434683 -0.227296 -0.349506 -0.119787 -0.383752 -0.656049 0.779932 0.399146 0.674813 -0.428274 -1.065009 -0.651306 -0.327234 0.767447 -0.511459 -0.845123 -0.850101 -1.090657 -0.112459 0.486281 0.336475 1.109652 -0.860654 -0.781449 -0.113609 -1.000224 0.334545 0.168917 0.249009 -1.463123 1.477532 0.775807 -0.312549 -0.653473 0.100809 0.544499 -0.036237 0.191339 -0.292190 0.106656 -0.069413 0.008277 0.052112 -0.095393 -0.426228 -0.762586 -0.051323 -0.831238 0.065770 0.997495 0.163770 0.580042 -0.089828 0.143910 0.004918 -0.011587 -0.233657 1.779524 0.013861 0.512477 0.121723 1.175846 0.485384 -0.508995 -1.180139 0.106425 0.202072 -0.735444 0.906758 0.042526 -0.059885 -0.010747 -0.084437 -0.090220 0.316849 0.208099 -0.008563 0.774885 0.618030 0.485875 0.614938 0.089463 0.182387 -0.506987 0.661209 -0.349617 0.130872 1.132999 -0.138320 -0.334628 -1.173423 -0.072622 0.496068 -0.182693 -0.122404 1.325338 0.945715 
1064 -1.187315 0.569948 -0.502816 -0.784186 -0.220227 0.615820 0.106816 -0.261619 0.595684 0.673659 0.121770 0.289781 -0.774269 -0.423240 0.038937 -0.049879 0.008291 0.590767 -0.225175 0.051934 -0.247417 -1.256950 0.151874 0.044928 -0.000616 -1.324957 0.104787 -0.282602 -0.047441 0.257537 -0.240558 -0.408956 -0.104332 -0.132227 -0.942187 -0.970755 0.064416 0.195221 -0.435424 0.325415 1.099042 1.146070 -0.125726 -0.346210 -0.163916 0.310256 -0.495399 0.091504 -0.294771 -0.958186 -0.274435 0.293469 0.569973 0.615264 0.347357 -0.164567 -0.080829 0.003476 -0.066580 -1.332563 0.479195 -0.330593 -0.321967 -0.152541 0.363964 -0.442090 -1.097033 -0.049092 -0.651885 0.347004 -0.700669 0.987099 0.342549 -0.361183 -0.269973 1.043956 -0.493431 0.330440 -0.001992 -0.655367 -0.824868 0.467503 -0.042922 -0.103350 -0.049618 -0.905590 0.053357 0.300102 0.687163 -1.020234 0.493839 0.712622 0.632754 -0.440987 0.034107 0.757890 -0.293525 -0.272519 0.420890 0.501917 
2971 -0.065636 0.791503 -0.113137 0.006332 0.596456 0.546806 -0.759923 0.214809 0.155457 -0.089383 -0.362189 -0.300613 0.218649 -0.184898 -0.502689 -0.212415 -0.271891 1.194653 0.052919 -0.668992 -0.137971 0.221686 0.248275 0.084563 0.555752 -0.463291 -0.910224 0.151481 -0.293876 1.137676 0.460348 0.024756 -0.443024 0.844035 -0.708270 0.397272 0.811239 -0.213282 0.672888 -0.188943 -0.991234 0.617764 -0.575205 -0.208590 0.192917 0.262485 -0.076091 1.319357 -0.708845 -0.727945 -0.877256 -0.277368 0.823283 0.019845 0.731568 -0.169093 0.342495 0.691715 0.071017 -0.352739 0.737182 -0.428524 -0.207971 0.318139 0.264032 0.321390 0.504741 -0.139699 -0.582816 -0.153859 0.348418 -0.352339 0.049142 0.261566 -0.552615 0.694280 0.928254 0.349144 0.683482 -0.153661 0.039353 -0.038031 0.136871 -0.310446 -0.961760 0.364977 0.696918 0.737236 -0.172178 0.558678 0.619716 0.200020 0.229746 -0.696245 0.189325 -0.842397 0.128317 -0.429378 -0.311417 0.821015 
315 -0.673708 1.047583 -1.036943 -0.471560 -0.337376 0.789125 -0.741909 0.110808 -0.228591 0.490302 0.184725 0.345665 -0.590665 -0.760305 -0.178060 -0.482268 -0.348600 0.589013 0.457498 0.348075 0.023425 -0.610761 -0.087516 0.194302 -0.193353 -1.421487 -0.250582 -0.218461 0.104398 0.222936 0.166818 -0.405969 -0.645914 0.287225 -0.936061 -0.188994 0.518287 0.092245 -0.204968 0.041393 0.028720 1.147154 -0.383091 -0.374308 -0.191301 0.078770 -0.594200 0.061014 -0.958243 -0.574172 -0.787300 -0.329088 1.422633 0.493287 0.692853 0.354195 0.057941 -0.172399 0.152322 -1.475723 0.554562 -0.063004 -0.471399 -0.256597 0.702656 -0.717129 -0.520707 -0.630818 -0.840020 -0.054833 -0.065829 0.537163 0.570020 -0.267168 -0.612208 1.740028 -0.695014 -0.379630 0.530243 -0.441378 -0.592848 0.533741 0.132903 -0.842239 -0.429785 -0.597891 0.628685 0.499981 0.567069 -0.298143 0.188282 0.882513 0.137472 -0.402937 0.507409 0.544520 -0.038665 -0.842201 -0.141174 0.315309 
1673 -1.103055 0.440553 -0.141232 -0.127540 0.456062 0.614938 0.080716 -0.269970 0.428838 0.317885 0.016553 0.100928 -0.407394 -0.141744 -0.160140 0.253526 0.240664 0.920637 -0.107308 -0.472413 -0.592655 -0.617406 0.607761 -0.049847 0.439202 -0.704097 -0.369174 0.057922 -0.234236 1.311290 0.457729 0.254633 0.054885 0.499787 -0.454984 -1.060866 -0.410998 -0.060704 -0.059996 0.249120 0.637632 0.917277 0.252665 -0.244397 -0.448071 0.090649 -0.332386 1.114947 -0.308383 -0.836890 -0.738891 0.890565 1.088023 0.078773 0.044220 -0.589359 -0.177374 0.804659 0.058264 -0.923055 0.081457 -0.569389 -0.400407 -0.250225 0.018601 -0.011013 -0.683732 -0.274169 -0.319898 0.306898 -0.303089 0.465847 -0.050739 0.160484 -0.427725 0.557904 0.189860 0.487015 0.038800 -0.170554 -0.199898 -0.043416 0.034732 0.125161 -0.519017 -0.329025 0.000331 0.345411 0.249033 -0.548989 0.611756 0.394640 0.582430 -0.535044 0.122758 -0.293988 -0.414598 -0.057253 0.416884 0.217351 
2923 -1.017909 0.161420 -0.128931 -0.305916 0.611157 0.381904 0.157159 -0.442446 0.572944 0.267772 -0.167109 -0.231766 -0.294119 0.215767 -0.178282 0.078853 0.196171 0.859092 -0.042947 -0.502797 -0.489244 -0.693679 0.362496 -0.275442 0.310293 -0.535551 -0.372707 0.017618 -0.082826 1.197557 0.244692 0.253756 0.351763 0.102514 -0.207529 -0.972228 -0.275086 0.166270 -0.017113 0.011299 0.820626 0.938477 0.261834 -0.195193 -0.361095 -0.059447 -0.090247 0.995233 0.100630 -0.759157 -0.340337 0.838187 0.722379 0.149791 0.176411 -0.522368 0.046698 0.739394 -0.028249 -0.484939 -0.134993 -0.485583 -0.570620 -0.026416 -0.044780 0.110849 -0.480784 -0.106305 -0.103750 0.338589 -0.352673 0.437774 -0.283529 0.176379 -0.284380 0.246853 0.298150 0.487484 0.075888 -0.168940 -0.035176 0.047556 -0.151900 0.325269 -0.293112 -0.276338 -0.298970 0.126836 0.327957 -0.475441 0.434363 0.186389 0.660729 -0.568275 -0.283791 -0.610255 -0.375252 0.085067 0.050384 0.620397 
2 -0.065176 0.809707 -0.013008 0.240980 0.258899 -0.088239 -0.327768 -0.630791 -0.225488 0.915151 -0.307618 -0.306147 -0.502697 -0.374266 -1.177191 -0.717482 -0.239020 0.035882 -0.166773 -0.718907 -0.149820 0.418967 0.114316 0.117816 0.324848 -0.990054 -0.719453 0.005121 -0.538458 0.653251 0.045390 -0.129718 -0.626688 1.002168 -0.171273 -0.054186 0.004199 -0.200088 0.136707 0.188179 -0.346636 0.558473 -0.205188 -0.149707 -0.349418 -0.134684 -0.288139 0.267940 -0.481326 -0.180670 -0.813934 -0.440013 1.085485 -0.231726 0.567902 0.597230 0.526994 0.715396 -0.649577 -0.660041 1.163969 -0.121151 -0.294497 0.095095 0.644828 -0.010774 -0.196513 -0.499421 -0.166837 0.208833 0.056403 0.328102 -0.249289 0.419262 -0.033209 0.495637 0.453017 0.168788 0.371310 -0.109443 -0.037228 0.459765 0.239745 0.075358 -0.499069 0.232674 -0.260216 0.662423 -0.207486 0.298207 0.846022 0.441841 0.245093 -1.188829 -0.217720 -0.076025 -0.218700 -0.439730 0.533937 0.815923 
2552 -0.594794 -0.008438 -0.195533 -0.179499 1.065705 0.302652 -0.481689 -0.219059 0.609366 -0.007551 -0.292395 -0.628571 -0.294024 0.241312 -0.610816 -0.469974 -0.102156 1.149128 -0.018925 -1.145881 -0.374522 -0.232831 0.299883 0.137524 0.384561 -0.640932 -0.817217 0.209510 -0.322605 1.317232 0.403974 0.096483 0.176648 0.605539 -0.227012 0.013139 0.434925 -0.054230 0.566793 -0.224622 -0.016619 0.792438 -0.031888 -0.232685 -0.113127 -0.006209 0.283050 1.418053 -0.181927 -0.696134 -0.756467 0.295153 0.848422 -0.218400 0.916554 -0.628882 0.389567 0.831269 0.064700 -0.113680 0.419735 -0.429785 -0.225869 0.372520 0.178686 0.118474 0.203634 -0.282952 -0.389179 -0.241126 0.201002 0.031056 -0.281182 0.228492 -0.234462 0.130716 0.997886 0.473321 0.410076 0.447962 0.429003 0.264271 0.076047 0.092474 -0.965276 0.313780 -0.060813 0.322341 0.178110 0.427034 0.750241 0.364006 0.599891 -0.770796 -0.263116 -1.111240 -0.245818 -0.300480 -0.134955 0.671201 
2343 -0.233117 0.787793 -0.161344 0.090439 0.166150 0.176954 -0.743213 -0.365881 -0.001465 0.494808 -0.346127 -0.330536 -0.630786 -0.560912 -0.893410 -0.397007 -0.478440 0.508855 -0.032660 -1.135408 -0.224328 0.284723 0.069852 0.340500 0.362552 -0.782450 -0.852291 0.086846 -0.506145 0.534537 0.370869 -0.486320 -0.396976 0.838321 -0.308544 0.395109 0.387865 -0.360211 0.257111 -0.126561 -0.809563 0.830526 -0.469586 -0.445333 -0.111316 -0.061109 -0.249920 0.812722 -0.508607 -0.597396 -0.721093 -0.362565 0.776253 -0.109299 0.352958 0.249617 0.375092 0.609488 -0.409033 -0.630209 1.030819 -0.283641 -0.381116 0.385697 0.588917 -0.174276 0.193761 -0.223182 -0.266761 0.245649 0.382535 -0.127879 -0.105510 0.286413 -0.391087 0.348657 0.884387 0.293579 0.268301 -0.338600 -0.019481 0.073274 0.677994 -0.486157 -0.924393 0.466396 0.528592 0.577267 -0.203810 0.100800 0.471806 0.456010 0.484149 -1.128292 -0.129468 -0.436356 -0.403352 -0.309055 0.508240 0.959381 
1021 0.509396 0.654962 0.562688 0.503391 -0.261324 -0.318279 -0.170124 -0.552336 -0.718782 0.966583 0.411848 0.590192 -0.577362 -1.118902 -0.732731 -0.355751 0.603328 -0.595467 -0.824013 -0.584247 -0.818588 -0.014761 0.386244 0.270957 0.800486 -0.998919 -0.598826 -0.120216 -0.940808 0.297764 0.122653 0.213483 -1.390151 1.331487 0.824393 -0.393633 -0.738403 0.023479 0.429432 0.109001 0.214964 -0.208181 0.084506 -0.088484 -0.260601 -0.085564 -0.277694 -0.486227 -0.583643 0.009857 -0.937966 0.150635 1.091427 0.081740 0.516406 0.153692 0.199510 0.063269 -0.272219 -0.419661 1.780923 0.083486 0.448326 0.037758 1.076293 0.418474 -0.551183 -1.056671 -0.006613 0.279775 -0.579719 0.871836 -0.021150 0.021906 0.024187 0.125356 -0.190573 0.134265 0.147462 -0.009987 0.588293 0.699600 0.512378 0.331251 0.106065 0.124668 -0.584823 0.657826 -0.286541 0.008199 1.046980 0.073918 -0.346254 -1.051746 -0.120855 0.732964 -0.193658 -0.210654 1.344709 0.771898 
2545 0.928303 0.368278 0.713662 0.278044 -0.308382 -0.524024 -0.134744 -0.416730 -0.620165 0.837520 0.314616 0.597803 -0.544323 -1.017007 -0.687579 -0.385455 0.648417 -0.768141 -0.806828 -0.652857 -0.902110 -0.179275 0.316430 0.286947 1.116804 -0.872559 -0.698211 -0.133396 -0.941935 0.272224 0.100195 0.255645 -1.267197 1.285846 0.893067 -0.283186 -0.513244 0.110644 0.518350 -0.082287 0.163334 -0.394134 0.185372 0.011459 0.094383 -0.038486 -0.045484 -0.557449 -0.725396 -0.006095 -0.815478 0.091325 0.948070 0.169887 0.621122 0.191055 0.313480 -0.185554 -0.266273 -0.153921 1.899383 0.072552 0.455767 0.184029 1.196093 0.532709 -0.471211 -0.909077 -0.009999 0.243830 -0.655209 0.846432 0.142455 -0.009243 -0.081123 -0.228856 -0.108293 0.206746 0.075750 -0.062898 0.753645 0.690724 0.344184 0.662227 0.088308 0.228942 -0.780400 0.615936 -0.326256 0.035111 1.035149 -0.239359 -0.325674 -0.984912 -0.251895 0.602687 -0.006229 -0.154380 1.301852 1.050192 
2407 0.003099 0.094306 0.231578 0.069267 0.738707 0.677248 0.090628 0.331425 0.212529 -0.604990 -0.068610 0.003010 0.951878 0.584594 0.091899 0.079587 0.611103 1.269832 -0.022629 -0.463868 -0.568632 0.240484 0.748974 -0.064695 1.055586 0.175271 -0.508196 0.444719 -0.199823 1.430896 0.346727 0.886685 -0.127317 0.951364 -0.789356 -0.048473 0.442287 0.362608 0.852542 -0.107616 -0.116575 0.581298 0.027001 0.096789 0.508951 0.380544 0.179279 1.168925 -0.885971 -0.544991 -0.992816 0.111652 0.906035 -0.106841 0.595907 -1.055046 0.169926 0.611385 0.857798 0.065690 -0.125424 -0.623703 0.181441 0.304871 -0.608527 0.574136 0.111502 0.013523 -0.377590 -0.405302 -0.085590 -0.213230 0.043602 0.071210 -0.354030 0.342307 0.703873 0.473154 0.774827 0.531663 0.025696 -0.050122 -0.344060 0.778734 -0.458605 0.047973 0.324554 1.100258 0.040376 0.550502 0.957239 -0.418768 0.061968 -0.286395 0.352787 -1.253100 0.655747 -0.137219 -0.349817 0.350466 
2911 -0.583794 0.597295 -0.484817 -0.221551 0.272170 0.615826 -0.037951 -0.104356 0.001037 0.533260 0.154066 0.515592 -0.277907 -0.134007 -0.156481 -0.212895 0.219808 0.738631 0.024291 0.183947 0.068963 -0.584235 0.489441 -0.224706 0.476155 -1.081339 -0.372279 -0.050370 -0.028130 1.229752 0.094385 0.383876 -0.296114 0.672275 -0.649232 -0.806831 -0.091036 0.284160 -0.057349 0.443541 0.533479 0.817049 -0.000550 -0.045216 -0.195470 0.215319 -0.409426 0.651611 -0.977940 -0.461449 -0.976851 0.258809 1.489759 0.231441 0.440142 -0.222061 -0.000347 0.356894 -0.040965 -1.433058 0.417710 -0.389188 -0.308377 -0.175905 0.191060 -0.063831 -0.824570 -0.314590 -0.712755 0.161986 -0.251042 0.499873 0.154482 0.009717 -0.402117 1.194857 -0.532196 0.066757 0.351207 0.086297 -0.355240 0.499682 -0.144352 0.116789 -0.394343 -0.444193 -0.218375 0.609967 0.628399 -0.319072 0.667238 0.523014 0.304437 -0.299550 0.314838 0.207500 0.137314 -0.272613 0.161696 0.017468 
2151 0.652105 0.452489 0.663271 0.330830 -0.327668 -0.488372 -0.106652 -0.354133 -0.635761 0.837430 0.320289 0.686949 -0.683811 -1.047996 -0.655937 -0.263779 0.608670 -0.657367 -0.741282 -0.817462 -1.067979 -0.218831 0.364962 0.372109 1.082521 -0.757142 -0.805326 -0.101250 -0.926145 0.136403 0.208495 0.218116 -1.349905 1.386756 0.841281 -0.355113 -0.594115 0.081845 0.472607 -0.108930 0.085690 -0.383266 0.149382 -0.048710 -0.009639 0.037990 -0.161141 -0.536949 -0.779827 -0.078307 -0.788351 0.154875 0.957973 0.219935 0.456608 0.140909 0.059680 0.023399 -0.118625 -0.202900 1.770414 -0.056685 0.458618 -0.019120 1.252235 0.439490 -0.648268 -1.204237 0.150737 0.288193 -0.692021 0.947106 0.027096 -0.136448 -0.020284 -0.106660 -0.165967 0.296663 0.062127 -0.072557 0.838742 0.595179 0.380664 0.583566 0.029220 0.247307 -0.594777 0.523703 -0.389003 0.000198 1.042849 -0.103159 -0.409931 -1.065044 -0.139133 0.500745 -0.148965 -0.122138 1.359750 0.917784 
564 0.019034 0.087573 0.438782 -0.135084 0.818030 0.619459 0.290833 0.133099 0.517958 -0.260715 -0.029379 -0.296680 0.711573 0.718168 0.158514 -0.236343 0.579347 1.040902 -0.290810 -0.567810 -0.494171 -0.388077 0.583920 -0.629956 0.916490 -0.078700 -0.596494 0.542977 -0.177176 1.552583 0.133081 0.801552 -0.088978 0.663893 -0.378611 -0.189316 0.602701 0.525822 0.964354 0.016758 0.168136 0.498943 0.001769 0.233341 0.453650 0.207227 0.446410 0.925967 -0.197783 -0.578980 -0.768700 0.326023 0.814757 0.077778 1.130598 -0.755068 0.287058 0.755293 0.658924 0.363018 0.255880 -0.744429 0.232316 0.303745 -0.386395 0.956224 -0.112783 0.166996 -0.409055 -0.352525 -0.329073 0.466862 -0.221976 0.095724 -0.077109 0.118935 0.815415 0.455589 0.906647 0.501694 0.170131 0.356300 -0.598545 0.599349 -0.486465 0.105734 -0.099273 1.057209 0.310129 0.482331 1.038993 -0.440004 0.166554 -0.492477 -0.153862 -1.155634 0.503319 -0.010189 -0.450306 0.615466 
371 -0.206586 0.441984 -0.564174 0.179391 0.123675 0.184843 -0.230535 -0.380123 -0.001369 0.477071 0.004154 0.554449 -0.120980 -0.108983 -0.250912 -0.317782 -0.014875 0.565003 -0.035927 0.135997 0.360278 -0.184329 0.271934 -0.263713 0.384496 -0.991937 -0.157917 0.009505 0.003056 0.933651 -0.058196 0.271650 -0.377205 0.462814 -0.562609 -0.414909 -0.105365 0.115177 -0.037237 0.509667 0.332351 0.913770 -0.050244 0.226977 -0.397161 0.127701 -0.280684 0.412286 -0.874742 -0.236501 -0.750640 -0.076386 1.244676 0.260539 0.335127 -0.007942 0.116325 0.254605 -0.060584 -1.158484 0.485098 -0.094090 -0.334857 -0.012929 0.034288 -0.090574 -0.379139 -0.185817 -0.394907 0.095778 -0.237291 0.264087 -0.024543 -0.021274 -0.295031 1.022614 -0.305089 0.008043 0.347377 0.282466 -0.241226 0.473392 -0.062341 0.061828 -0.216583 -0.593830 -0.152160 0.529811 0.445512 -0.037643 0.612331 0.400314 0.041348 -0.182972 0.379061 0.280146 0.226080 -0.083356 0.051326 0.113613 
1975 1.044886 -0.963278 0.699177 -0.547310 -0.338496 0.255029 -0.169965 0.594742 -0.159679 -0.918852 -0.339603 -0.032073 0.339716 0.007787 0.509179 0.279560 0.405790 0.239190 0.416493 -0.828436 -0.901092 -0.951031 0.086738 0.673308 1.411675 0.809320 -0.870629 0.115943 -0.019212 0.233262 0.660162 0.244173 0.322835 0.300321 0.211483 0.285071 0.799388 0.513738 0.765522 -1.109492 -0.752347 -0.757746 0.181070 0.279938 1.538852 0.359699 0.688867 -0.014756 -0.761658 -0.455003 -0.655206 0.301880 0.035979 0.076617 0.598882 -0.327210 0.013175 -0.634229 0.712668 0.703917 0.470146 -0.638869 0.152538 0.267009 0.802696 0.146079 -0.015104 -0.190988 -0.566940 -0.261738 -0.464556 -0.187766 1.534740 -0.213716 -1.410396 -0.931054 0.539879 -0.210979 -0.072968 -0.242328 1.173626 -0.522432 -0.539410 1.134177 -0.755510 0.252257 0.028561 -0.012831 -0.341779 0.113847 0.160619 -0.977328 -0.277843 -0.028454 0.003476 -0.702784 0.876788 -0.111943 -0.108926 0.423023 
2532 -0.538795 0.826838 -0.365229 -0.165953 0.179095 0.478813 -0.763071 -0.378284 0.306898 0.588301 -0.324859 -0.503735 -0.859478 -0.424249 -0.924333 -0.410775 -0.492939 0.666108 0.119833 -0.985294 -0.300158 -0.020291 0.155624 0.266634 0.306275 -1.111947 -0.825765 0.050330 -0.399143 0.724931 0.344697 -0.471373 -0.188443 0.635457 -0.452637 0.113771 0.415801 -0.342064 0.098632 -0.031137 -0.460888 1.141697 -0.363908 -0.468011 -0.186021 -0.165649 -0.365481 1.053373 -0.557566 -0.854310 -0.840481 -0.040380 0.881324 -0.041944 0.483102 0.140997 0.382727 0.598127 -0.448635 -0.978780 1.080097 -0.389972 -0.525325 0.395374 0.686146 -0.357731 -0.104001 -0.136743 -0.624777 0.244450 0.481524 0.095729 0.040221 0.334190 -0.622898 0.552683 0.731447 0.407164 0.199032 -0.422689 -0.262862 0.170214 0.615944 -0.528107 -1.084856 0.360013 0.452372 0.581184 0.037696 -0.273655 0.652186 0.777994 0.712784 -1.128229 -0.231633 -0.380279 -0.452731 -0.344519 0.473082 0.961013 
1855 -0.196610 0.925600 -0.397866 0.177352 0.337023 0.138535 -0.559288 -0.257257 -0.012060 0.445983 0.080746 0.519273 -0.460630 -0.754139 -0.596802 -0.302459 -0.175052 0.520312 -0.151986 -0.107675 -0.042582 -0.301385 0.218356 0.135503 0.253439 -1.369422 -0.376954 -0.019657 -0.244025 1.048721 0.180025 -0.124461 -0.784455 0.951585 -0.359878 -0.226734 -0.100886 -0.030008 0.140182 0.361151 0.089369 0.819909 -0.256124 -0.206604 -0.740618 0.178695 -0.433913 0.538563 -0.656393 -0.528745 -1.067261 0.174666 1.582328 0.270617 0.327996 0.068849 0.170510 0.569608 -0.163446 -1.084870 0.900737 0.040340 -0.169128 -0.187180 0.681542 -0.135332 -0.316548 -0.477959 -0.454491 0.172723 0.041778 0.587246 -0.055821 -0.068584 -0.332650 1.119066 -0.052788 -0.035326 0.426071 0.199792 -0.149701 0.529661 0.365207 -0.307769 -0.327647 -0.476421 -0.045278 0.549806 0.283381 -0.210980 0.817713 0.631732 0.067437 -0.419538 0.269758 0.385354 -0.279385 -0.328899 0.523242 0.388384 
2005 -0.879399 0.282764 -0.178815 -0.547971 -0.031772 0.442800 0.604782 -0.529663 0.377978 0.657556 -0.374055 -0.135853 -0.078954 0.280598 0.411469 -0.161146 0.460335 0.438052 -0.382244 0.343007 -0.282369 -0.979653 0.084766 -0.565137 0.335822 -0.393256 0.320667 -0.352009 0.099728 0.310256 -0.705302 0.141062 0.199483 -0.410847 -0.552404 -1.169496 -0.267296 0.539630 -0.539069 0.139704 1.401839 0.750648 -0.253863 0.044604 0.018180 0.381403 -0.264686 -0.066065 0.304007 -0.633774 0.537258 -0.040840 -0.016568 0.584864 0.155811 -0.004961 -0.228014 0.050854 -0.199044 -0.675205 -0.057476 -0.533498 -0.458410 -0.230810 0.360231 -0.139406 -0.898757 0.030996 -0.069716 0.333391 -0.935998 0.629797 0.048657 0.016900 -0.182130 0.510994 -0.447282 0.563815 -0.098007 -0.936801 -0.532997 0.135491 -0.554042 0.716350 0.232187 -0.537308 -0.345821 0.016394 0.492929 -0.449197 0.316241 -0.057044 0.333455 -0.549776 -0.248673 0.330660 -0.010619 0.411622 -0.118207 0.619690 
2940 -0.936421 0.143339 -0.152412 -0.763767 -0.241451 0.388693 0.612918 -0.528432 0.520580 0.813995 -0.047624 0.268670 -0.449223 -0.025816 0.202519 -0.074931 0.493885 0.337352 -0.598521 0.176920 -0.403530 -1.275466 0.188027 -0.289341 0.377117 -0.820575 0.349545 -0.320180 -0.012003 0.189740 -0.658956 -0.035874 0.149504 -0.276444 -0.600137 -1.252021 -0.302356 0.484929 -0.495090 0.288503 1.554090 0.786036 -0.057581 -0.124356 0.087755 0.365089 -0.367514 -0.105264 -0.015899 -0.774787 0.199491 0.210491 0.081019 0.588234 0.090172 -0.206544 -0.157271 -0.066751 -0.187760 -0.923836 0.282127 -0.474079 -0.252196 -0.066527 0.256062 -0.120020 -1.236635 0.044234 -0.282743 0.401145 -1.015424 0.950505 0.116615 -0.141458 -0.010762 0.496958 -0.615885 0.600458 -0.234595 -0.778414 -0.650761 0.313131 -0.309444 0.618020 0.305979 -0.684513 -0.424111 0.123498 0.626806 -0.863171 0.512131 0.157728 0.546803 -0.614019 -0.266661 0.642434 -0.163804 0.254448 0.399758 0.629986 
2691 -0.371444 0.957528 -0.436982 -0.125390 0.066126 0.503311 -0.860199 -0.194454 0.118669 0.575351 -0.409625 -0.386231 -0.701676 -0.514079 -0.897189 -0.476655 -0.575613 0.697953 0.213705 -0.845703 -0.123334 0.114681 0.052392 0.310176 0.275479 -1.026307 -0.878063 -0.031523 -0.289680 0.538856 0.335073 -0.513213 -0.389055 0.717431 -0.564792 0.264619 0.573835 -0.323730 0.071127 -0.015552 -0.739244 1.043219 -0.554224 -0.428495 -0.133596 -0.033977 -0.425561 0.896697 -0.800773 -0.740087 -0.886359 -0.323332 0.996758 0.052483 0.523292 0.329811 0.375178 0.461337 -0.415833 -1.086444 1.098910 -0.314379 -0.529421 0.330868 0.755359 -0.425025 0.000697 -0.242928 -0.626337 0.194897 0.527440 -0.042097 0.170039 0.275879 -0.684039 0.753879 0.662600 0.267838 0.349406 -0.485575 -0.289293 0.166107 0.588849 -0.632905 -1.019260 0.357604 0.605181 0.596983 0.000417 -0.059071 0.568654 0.759624 0.472558 -1.003342 -0.029546 -0.308859 -0.316057 -0.393005 0.338558 0.859554 
2215 -0.481382 0.924523 -0.467108 -0.005969 0.517184 0.697018 -0.805118 0.124121 0.044323 0.048304 -0.323359 -0.190230 -0.060964 -0.304194 -0.501159 -0.176719 -0.435051 1.257904 0.208547 -0.354051 0.013453 0.136452 0.238135 0.183042 0.346683 -0.781389 -0.674020 -0.004240 -0.159659 1.157896 0.461597 -0.096761 -0.327458 0.636064 -0.961333 0.107868 0.688179 -0.206279 0.392829 -0.027212 -0.742139 0.902401 -0.564354 -0.311409 -0.151086 0.231137 -0.363800 1.289171 -0.784915 -0.798207 -0.978522 -0.212753 1.181823 0.118196 0.536804 -0.082007 0.333800 0.646584 0.049000 -0.874887 0.512285 -0.318306 -0.442346 0.108579 0.299627 -0.118338 0.268516 -0.194529 -0.744415 -0.090964 0.401735 -0.340191 0.207830 0.243050 -0.657953 1.144312 0.637096 0.201165 0.638713 -0.191738 -0.267154 0.034412 0.212646 -0.571404 -0.870180 0.025824 0.756732 0.686982 0.028277 0.318571 0.519964 0.511805 0.269430 -0.536690 0.369341 -0.534514 -0.022608 -0.563672 -0.302630 0.598090 
2941 -0.595533 0.644724 -0.655596 -0.049450 -0.024978 0.447223 -0.358625 -0.415693 0.071745 0.658581 0.092941 0.289245 -0.461926 -0.353593 -0.314773 -0.386191 -0.131029 0.612453 -0.015650 -0.010070 0.196473 -0.448558 0.180665 -0.104711 0.101863 -1.256353 -0.203544 -0.036323 -0.103585 0.738965 0.030359 -0.029934 -0.355250 0.340973 -0.629087 -0.510394 0.017434 0.013808 -0.103294 0.389290 0.416019 1.144364 -0.115132 0.006369 -0.398721 0.043087 -0.395203 0.392319 -0.703166 -0.493752 -0.810416 0.003017 1.225322 0.277436 0.518531 0.020148 0.138148 0.230630 -0.109187 -1.282038 0.684930 -0.154937 -0.365425 -0.020226 0.155481 -0.286239 -0.544754 -0.236519 -0.559756 0.137740 -0.248032 0.466794 0.125608 -0.020719 -0.360744 1.151455 -0.251338 0.023320 0.318042 -0.018331 -0.422429 0.572829 0.100224 -0.226002 -0.368731 -0.623696 0.067724 0.583722 0.431312 -0.261835 0.615602 0.704751 0.279291 -0.437980 0.302519 0.364012 -0.045224 -0.382216 0.191155 0.285494 
2245 -1.188723 0.398904 -0.164715 -0.588232 -0.321261 0.599314 0.408789 -0.368990 0.568969 0.752391 0.353436 0.591043 -0.759980 -0.430050 0.170625 0.176443 0.509105 0.385533 -0.521900 -0.208455 -0.634695 -1.496974 0.448865 -0.108230 0.396883 -1.134702 0.076859 -0.162496 -0.240492 0.406523 -0.158301 -0.062207 -0.228039 0.108555 -0.603572 -1.306664 -0.487281 0.279387 -0.449131 0.419330 1.521759 0.897763 0.222715 -0.232552 -0.160990 0.294252 -0.468853 -0.013633 -0.357408 -0.893346 -0.337142 0.764167 0.587491 0.580655 0.217433 -0.486100 -0.350472 0.102345 0.106959 -1.286941 0.537405 -0.543719 -0.034350 -0.312029 0.362792 -0.144259 -1.470319 -0.308167 -0.355984 0.470701 -1.093966 1.297372 0.171916 -0.376470 -0.210340 0.695382 -0.655645 0.556806 -0.146659 -0.529820 -0.538737 0.376537 -0.149347 0.305790 0.011349 -0.979408 -0.195336 0.256672 0.570378 -1.212094 0.802460 0.529467 0.504774 -0.581413 0.086335 0.802390 -0.302719 -0.005403 0.817554 0.370119 
2304 -0.455168 0.588714 -0.421859 -0.137186 0.170852 0.508850 0.126429 -0.269784 -0.067980 0.797641 0.006409 0.720165 -0.282018 -0.025822 -0.141838 -0.250928 0.325540 0.651563 -0.064247 0.251499 0.126485 -0.534779 0.458842 -0.430363 0.501455 -0.930858 -0.334746 -0.109028 0.124867 1.182478 -0.052177 0.498696 -0.378809 0.752920 -0.445534 -1.002191 -0.372252 0.377801 -0.233472 0.649599 0.638667 0.707774 -0.021618 0.097182 -0.297017 0.270152 -0.493994 0.491500 -0.992482 -0.267871 -0.820009 0.229157 1.546796 0.316516 0.205572 -0.054708 -0.114094 0.404115 -0.186985 -1.573481 0.352635 -0.353016 -0.363820 -0.208151 0.199232 -0.075888 -1.064095 -0.437222 -0.519932 0.410408 -0.325223 0.544408 -0.013965 0.016204 -0.225148 1.120649 -0.702166 0.034710 0.251552 0.036893 -0.316223 0.499184 -0.180058 0.299262 -0.194763 -0.361717 -0.529585 0.439637 0.721720 -0.349890 0.580838 0.410441 0.227494 -0.276989 0.231327 0.347156 0.167561 0.122564 0.315480 -0.082787 
2896 0.473504 0.615987 0.426390 0.392527 -0.180268 -0.343857 -0.097001 -0.575031 -0.603891 0.938092 0.378221 0.641141 -0.540432 -0.905387 -0.667749 -0.382067 0.581145 -0.476717 -0.707441 -0.402318 -0.650109 -0.140407 0.371868 0.100401 0.807057 -1.073873 -0.552286 -0.096668 -0.764975 0.481483 0.062172 0.352248 -1.257833 1.275520 0.698820 -0.554887 -0.720796 0.110141 0.311433 0.205049 0.394302 -0.053977 0.110269 -0.033472 -0.291987 -0.034105 -0.251745 -0.393048 -0.637293 -0.006462 -0.862502 0.161638 1.207358 0.141335 0.487685 0.149420 0.157408 0.118727 -0.267815 -0.550208 1.571025 0.023337 0.311265 -0.011490 0.975763 0.411302 -0.642173 -0.964325 -0.033644 0.316055 -0.578763 0.873740 -0.097374 -0.004989 0.033961 0.259711 -0.313983 0.146027 0.158659 0.075679 0.501182 0.751173 0.393523 0.388467 0.104366 0.044007 -0.698827 0.604461 -0.075624 -0.065113 0.966746 0.065123 -0.253469 -0.940867 -0.133266 0.659740 -0.144852 -0.107833 1.191884 0.711360 
2401 -0.122336 -0.589893 0.096743 -0.225199 0.564864 -0.214866 -0.229548 0.075483 1.084796 0.292539 -0.189257 0.194563 -0.502886 0.185927 -0.494285 -0.981122 0.304135 0.904816 -0.169938 -1.830787 -0.725816 -1.246123 0.026603 -0.081749 0.562807 0.001495 -0.630695 0.477336 -0.163969 0.355190 -0.457902 0.283565 -0.693998 0.718066 0.186035 0.053790 0.512192 0.295075 0.245629 -0.149333 0.360848 0.689968 0.010572 0.599601 0.241472 0.564349 1.026182 0.297000 -0.466285 -0.054469 0.305511 0.026071 0.538351 0.630911 1.385440 -0.751953 -0.391234 0.607364 0.668480 0.516276 0.537993 -0.475099 0.613418 -0.083280 0.315536 0.520523 -0.659851 -1.417289 0.890030 -0.314524 -0.831686 1.240885 -1.090792 -0.742247 0.604181 -0.061676 0.151828 0.923331 0.613576 1.294889 1.211270 1.059881 -0.563628 0.944258 -0.241758 0.160851 -1.073364 -0.511688 0.278910 1.132000 1.316636 -0.083506 0.083627 -0.908344 -0.114670 -1.139015 0.147651 0.699634 0.236009 0.513242 
695 0.443850 0.031785 0.450907 -0.027349 0.190835 -0.439614 0.000533 -0.358629 -0.277148 0.439586 0.099672 -0.553548 -0.486634 -0.614570 -1.057899 -0.551714 0.038997 -0.533939 -0.398868 -0.931705 -0.533166 0.348470 0.166873 0.352294 0.811660 -0.623562 -0.590028 0.391199 -0.797839 0.505093 0.249744 0.104256 -0.194781 0.728221 0.102619 0.124763 0.148428 -0.090611 0.530801 -0.156655 -0.296374 -0.101762 0.220583 -0.256923 0.289643 -0.078163 0.319368 0.318166 -0.361906 -0.339942 -0.818624 -0.064273 0.637197 -0.327924 0.767794 0.210722 0.607960 0.381385 -0.240363 0.187779 1.187659 -0.206325 0.358903 0.076878 0.626068 0.414501 -0.160868 -0.230372 -0.161699 -0.114120 -0.187752 0.328672 0.348663 0.508829 -0.265826 -0.370700 0.711219 0.312959 -0.041291 0.115730 0.215383 0.362294 0.056155 0.376330 -0.675574 0.389603 -0.393470 0.888394 -0.595668 0.208547 1.058158 -0.019958 -0.050426 -1.099777 -0.274549 -0.178345 0.079709 -0.570222 0.636167 0.721043 
471 0.561709 0.671150 0.502121 0.317121 -0.453736 -0.231539 -0.284060 -0.444250 -0.736582 0.952127 0.403937 0.636081 -0.739362 -1.194360 -0.505244 -0.313526 0.569065 -0.645868 -0.675667 -0.623675 -0.871681 -0.269243 0.365228 0.236665 0.839744 -1.029850 -0.693283 -0.179132 -0.951981 0.259065 0.227524 0.140580 -1.403691 1.274257 0.789534 -0.325302 -0.644260 -0.005415 0.378320 -0.065472 0.150808 -0.280082 0.084357 -0.098034 -0.183789 -0.097466 -0.294217 -0.506402 -0.690942 -0.033098 -0.839241 0.231239 1.137635 0.211043 0.581898 0.196913 0.094164 0.000156 -0.158663 -0.360391 1.808207 -0.050215 0.436285 -0.062590 1.247717 0.414661 -0.639190 -1.070442 0.001271 0.312588 -0.663274 0.965307 0.089173 -0.039872 -0.099571 0.188374 -0.301714 0.070370 0.074051 -0.158404 0.654717 0.733836 0.471385 0.245717 -0.076837 0.141421 -0.416225 0.561498 -0.333998 -0.019027 0.953963 0.087266 -0.323834 -1.042135 -0.080240 0.760666 -0.130010 -0.238469 1.262027 0.846163 
2751 0.626421 -0.434784 0.018176 0.274676 0.044293 -0.209168 0.274860 0.036670 -0.343086 -0.441561 0.067743 0.345783 0.977002 0.160742 -0.118241 -0.105685 0.907339 0.179910 -0.181042 -0.198559 -0.587066 0.547569 0.224240 0.476372 1.265308 0.072223 0.105727 0.339789 -0.260780 0.230947 0.003578 0.744096 -0.065242 0.783440 -0.271556 0.025775 -0.223569 0.364990 0.382341 -0.332323 0.431540 0.259239 0.124593 -0.158494 0.578704 0.137653 0.306940 0.211102 -0.819481 0.033164 -0.463060 -0.410651 -0.049277 -0.155831 0.176370 -0.664289 0.075546 -0.317829 0.437889 0.003097 0.005855 0.061157 0.289580 0.598737 -0.197325 0.012864 0.446041 -0.323360 0.089904 -0.452465 -0.273295 -0.632471 0.452748 0.027463 -0.411658 -0.317257 0.363725 0.564841 -0.173215 -0.052975 0.178087 -0.437875 -0.164200 1.294670 0.295302 -0.023462 -0.035608 0.460361 -0.289256 0.330004 0.418566 -0.648650 -0.165056 -0.456650 0.407841 -0.193858 0.518185 -0.021071 0.062518 0.317160 
244 0.311638 -0.310180 -0.385446 0.362991 -0.419282 -0.790572 0.387917 -0.061094 -0.245166 -0.756172 0.243824 0.867944 0.596507 -0.047224 0.070068 0.362913 0.918795 -0.041319 -0.519437 -0.090369 -0.738050 0.364341 0.171421 0.842720 1.373752 0.073231 0.293176 0.478070 -0.247184 -0.289966 -0.303437 0.767640 -0.617385 1.056592 -0.346625 0.244359 -0.686683 0.509202 0.017335 -0.593942 0.945630 0.496698 -0.139676 -0.319411 0.818269 0.348180 0.432734 -0.354203 -1.140937 0.061185 0.391928 -0.898840 -0.523351 -0.269708 -0.272908 -0.764732 -0.438615 -0.234612 0.416186 -0.164201 -0.114264 -0.223282 0.303986 0.342086 -0.041382 -0.172266 0.194401 -0.947574 0.464130 -0.428641 -0.838504 -0.183214 0.503830 -0.214928 0.142521 -0.264177 -0.216920 0.800015 -0.165856 -0.015806 0.321529 -0.392244 -0.279616 1.419356 0.270402 -0.029872 0.084806 0.347229 -0.120968 -0.035101 0.459644 -0.660558 -0.263365 -0.789850 0.870754 0.299829 0.358872 0.074373 0.490950 0.170158 
1896 -0.289365 0.173905 0.002372 -0.123694 -0.428452 0.125202 0.298402 -0.713998 0.159804 1.011185 0.218540 0.708287 -0.768283 -0.471240 0.037659 -0.134817 0.595138 -0.183861 -0.811934 -0.089694 -0.303770 -1.069128 0.331754 -0.369016 0.517205 -0.983002 0.206321 -0.209525 -0.478451 0.297451 -0.459983 0.174573 -0.262766 0.161438 -0.038839 -0.836080 -0.633939 0.192268 -0.335712 0.309799 1.303740 0.384015 0.309646 0.020373 -0.065329 0.090559 -0.351004 -0.270527 -0.506533 -0.349903 -0.218641 0.406199 0.428386 0.344515 0.239667 -0.129996 -0.158594 -0.057154 -0.294298 -0.875318 0.899386 -0.364776 0.204692 -0.052402 0.359281 0.211980 -1.217321 -0.213764 -0.145719 0.377719 -1.008770 1.098609 -0.098636 -0.061136 0.048220 0.360602 -0.667867 0.442084 -0.344798 -0.290285 -0.285663 0.617182 -0.117139 0.531665 0.148921 -0.623758 -0.526851 0.262004 0.246323 -0.622453 0.864949 0.182259 0.177161 -0.583555 -0.081503 0.993100 0.047430 0.116672 0.776761 0.439966 
2017 -0.249661 0.286487 -0.250222 0.104289 -0.164798 0.297000 0.111850 -0.515383 -0.054185 0.944407 0.137760 0.982388 -0.388989 -0.127249 0.062466 -0.263600 0.535249 0.324439 -0.403867 -0.027107 0.056560 -0.807282 0.541242 -0.525319 0.694758 -0.938165 -0.241674 -0.039851 -0.160816 1.007772 -0.123609 0.587319 -0.545094 0.760465 -0.150922 -0.927468 -0.643145 0.285429 -0.224120 0.745598 0.942060 0.558141 0.228518 0.347709 -0.305045 0.234890 -0.367274 0.218743 -1.142988 -0.103848 -0.797402 0.347946 1.326859 0.334267 0.241088 -0.204953 -0.237373 0.233830 -0.126048 -1.433272 0.749051 -0.416065 -0.098581 -0.140264 0.195999 0.120542 -1.195476 -0.474442 -0.276129 0.407278 -0.745435 0.784049 -0.093142 -0.073343 -0.194674 0.811370 -0.750422 0.200868 0.113305 0.278294 0.027620 0.651665 -0.196369 0.525374 -0.123629 -0.602409 -0.596432 0.368631 0.567054 -0.314455 0.924991 0.321025 0.047793 -0.327879 0.296368 0.596259 0.251342 0.293087 0.602825 -0.091148 
3046 0.782946 -0.149542 0.551910 -0.445913 -0.482537 0.222544 1.009454 -0.014943 1.016623 -0.129973 -0.015144 0.446782 0.915147 0.940709 0.713841 -0.031178 0.806203 0.177988 -0.209570 -0.473153 -0.829429 -0.970522 -0.104195 -0.382189 1.064819 0.049068 -0.527466 0.462070 0.516813 0.047559 -0.060168 0.044562 -0.746177 0.768319 -0.402141 0.165866 0.301243 1.307094 1.265702 -0.171865 0.699470 0.279809 -0.322086 0.724679 1.213991 0.907039 0.264674 -0.804818 0.218114 -0.333747 -0.220119 -0.210447 -0.130741 -0.006987 0.625851 -0.636368 -0.160692 0.002667 1.405851 1.018850 0.358130 -0.769917 -0.215013 0.726692 0.222395 0.523297 -0.569305 -0.381026 -0.046356 0.099090 -0.470357 1.132981 0.475802 -0.451156 0.536997 -0.477158 0.668003 -0.015671 0.556830 -0.367231 0.379814 -0.401882 -0.360198 0.812226 -0.072112 0.534814 0.542830 0.514225 1.124229 -0.194654 0.591943 -1.392580 -0.276106 -0.830656 -0.513082 -0.531697 0.326382 1.007783 -0.276283 0.879321 
2330 -0.167289 1.030601 -0.266574 0.042889 0.519278 0.524314 -1.075146 0.285731 0.071802 -0.135733 -0.527979 -0.100321 0.122770 -0.457712 -0.543739 -0.013126 -0.515513 1.419518 0.138170 -0.615789 -0.103403 0.203105 0.243796 0.312385 0.548569 -0.540960 -0.997147 0.006602 -0.330094 1.086245 0.547879 -0.116130 -0.617046 0.927385 -0.898778 0.389894 0.885707 -0.427259 0.590231 -0.309460 -1.389721 0.713891 -0.824303 -0.299750 0.057555 0.432039 -0.331420 1.449052 -0.949526 -0.867887 -0.845605 -0.402840 0.877539 0.210611 0.459616 -0.045811 0.190262 0.741995 0.036000 -0.483415 0.792256 -0.406881 -0.402158 0.157462 0.462615 0.138513 0.567294 -0.259516 -0.626988 -0.082653 0.391462 -0.465409 0.081486 0.255346 -0.604676 1.042783 0.884327 0.414016 0.669260 -0.365001 0.050001 -0.195266 0.252194 -0.545440 -1.055958 0.361603 0.989231 0.566757 -0.374145 0.640004 0.498406 0.297972 0.233803 -0.741651 0.379962 -0.791161 0.022119 -0.479043 -0.290175 0.917404 
2293 -0.229313 1.033404 -0.396496 -0.080584 0.438377 0.537534 -1.063502 0.201838 0.125385 0.023875 -0.469289 -0.076892 -0.128571 -0.576797 -0.579244 -0.135813 -0.641079 1.249968 0.193597 -0.459022 0.026926 0.022731 0.111329 0.343984 0.345412 -0.822899 -0.824722 -0.072679 -0.217741 0.950431 0.450290 -0.319476 -0.548886 0.816244 -0.893762 0.300360 0.826103 -0.362759 0.406062 -0.088978 -1.161907 0.827080 -0.767254 -0.304224 -0.127698 0.374391 -0.455882 1.217937 -0.859853 -0.876974 -0.989719 -0.350190 1.039898 0.258105 0.445720 0.122319 0.228939 0.612438 -0.107116 -0.754908 0.881962 -0.313879 -0.477855 0.077131 0.572486 -0.094995 0.358919 -0.195485 -0.761973 0.019793 0.438475 -0.343120 0.173209 0.202298 -0.650306 1.207086 0.670523 0.243893 0.604364 -0.323960 -0.180714 -0.032378 0.289625 -0.689873 -0.961062 0.143686 0.838060 0.507372 -0.185768 0.320711 0.513820 0.514812 0.288527 -0.594233 0.348131 -0.473524 -0.096555 -0.547651 -0.157025 0.760639 
2830 0.161636 -0.357708 0.084734 0.236413 0.625426 0.000659 -0.241018 0.033123 0.109533 -0.498073 -0.105687 -0.384021 0.352871 0.413824 -0.697084 -0.374808 0.474965 0.714233 -0.027336 -1.145414 -0.461708 0.400463 0.205170 0.303169 0.896628 0.276572 -0.377711 0.339962 -0.281778 0.575363 0.159159 0.651199 -0.004248 0.759643 -0.283996 0.215393 0.316021 0.303189 0.579850 -0.337658 0.092625 0.647701 0.049872 -0.056401 0.386609 0.149561 0.726398 0.484830 -0.413299 -0.220964 -0.197865 -0.257591 0.470635 -0.011654 0.811928 -0.827903 0.393731 0.749499 0.583532 0.391761 -0.195715 -0.240225 0.459822 0.428000 -0.056823 0.206844 0.193817 -0.584945 0.292572 -0.324577 -0.022532 -0.080604 -0.226636 -0.025177 -0.046588 -0.094870 0.749317 0.465230 0.557376 0.626427 0.484125 0.283031 -0.060426 0.808905 -0.097624 0.128408 -0.113834 0.421912 -0.132089 0.707697 0.760300 -0.421038 -0.148150 -0.639430 0.260230 -0.956852 0.474217 -0.044603 -0.058161 0.420174 
1 -0.772064 0.540899 -0.669685 -0.097833 0.058328 0.457249 -0.059793 -0.369975 0.119866 0.652616 0.197255 0.683817 -0.572806 -0.394273 -0.134203 -0.019016 0.106290 0.738349 0.025506 0.154020 -0.059010 -0.792572 0.497625 -0.263207 0.477475 -1.265237 -0.231064 -0.028123 -0.066230 1.207444 0.150677 0.346335 -0.212527 0.417231 -0.675404 -1.064222 -0.351686 0.126725 -0.290565 0.445836 0.708121 1.107188 0.157095 0.023116 -0.462419 0.135288 -0.418377 0.522310 -0.904957 -0.591662 -0.824153 0.451368 1.596518 0.470710 0.184849 -0.076765 -0.170437 0.427474 0.011905 -1.519117 0.459555 -0.398598 -0.496012 -0.358248 0.192393 -0.218032 -1.050825 -0.320436 -0.497674 0.282792 -0.468844 0.738716 0.103142 0.014223 -0.440836 1.287397 -0.696502 0.136343 0.124102 0.018019 -0.416800 0.412118 -0.106713 0.077327 -0.413744 -0.738835 -0.236971 0.475222 0.560171 -0.584896 0.627018 0.519628 0.275368 -0.288434 0.385386 0.437093 -0.023404 -0.248670 0.271883 0.105898 
2860 0.919791 -0.534932 0.553267 -0.278105 -0.146332 0.488490 0.012390 1.007786 0.378896 -0.407395 -0.122056 -0.100598 0.444851 0.571987 0.341431 -0.216136 0.732986 -0.080730 -0.138500 -0.578109 -0.680913 -0.244483 0.396971 -0.255303 1.692083 0.304481 -0.849936 0.361443 -0.407213 1.469947 0.781208 0.475426 0.096103 -0.096494 -0.080535 -0.162086 0.632083 0.183025 0.759981 -0.558438 -0.542107 -0.052252 0.263188 0.776310 0.281841 -0.235784 0.814449 0.826535 -0.900048 0.291084 -0.483838 0.725126 0.848913 0.809266 0.634951 -0.307033 0.207485 -0.247604 0.224345 0.217004 0.212517 -0.644560 0.283668 -0.015285 0.581448 0.553150 -0.043840 0.089267 -0.103180 -0.213228 -0.520246 0.493769 0.505411 0.115846 -1.247302 -0.715666 0.968125 0.627305 0.067304 -0.177359 0.743387 0.278192 -1.094248 0.624360 -0.763954 0.173815 -0.328569 0.202273 -0.398897 0.777495 0.533421 -1.108897 -0.046460 0.358131 0.184868 -0.712424 0.931618 0.099909 -0.036241 0.693311 
1862 -0.543111 0.703856 -0.540463 -0.052404 0.165976 0.528939 -0.214746 -0.163727 -0.121613 0.705315 0.093886 0.657752 -0.475961 -0.275565 -0.313547 -0.332920 0.105957 0.716144 0.053272 0.097576 0.060442 -0.468472 0.399828 -0.138898 0.408626 -1.109467 -0.448289 -0.034312 0.029381 1.145320 0.230908 0.324710 -0.490191 0.894333 -0.461086 -0.799067 -0.185387 0.209414 -0.145859 0.535285 0.359352 0.865216 -0.069049 -0.048799 -0.431390 0.189794 -0.543614 0.559904 -1.107555 -0.359478 -1.137041 0.217466 1.804266 0.241749 0.328548 0.006552 -0.062594 0.410268 -0.136705 -1.614787 0.513744 -0.312998 -0.405165 -0.230423 0.343281 -0.245473 -0.845515 -0.627771 -0.679296 0.312059 -0.118666 0.480660 0.117132 0.019719 -0.405616 1.280016 -0.509923 -0.067995 0.404814 0.104824 -0.241172 0.524078 0.000566 -0.049609 -0.451003 -0.332867 -0.254076 0.517978 0.616670 -0.240824 0.619080 0.598119 0.171347 -0.332676 0.383725 0.235111 0.018439 -0.144365 0.362277 -0.085730 
1144 0.472203 -0.299830 -0.443944 0.378186 -0.523153 -0.673655 0.124901 -0.701559 -0.239183 0.219578 0.577514 1.139813 0.271501 0.199731 0.003689 -0.105187 0.725342 -0.040488 -0.423877 -0.023293 -0.013639 -0.235215 0.412531 -0.165945 1.198674 -0.779452 0.037002 0.392829 -0.199331 0.698258 -0.291693 1.093496 -0.551803 0.993108 -0.149623 -0.320516 -0.942991 0.304297 -0.248707 0.432216 1.315152 0.788673 0.296172 0.615830 -0.221114 0.080540 0.158698 -0.117132 -1.522497 0.146425 -0.175484 -0.195992 0.545375 0.001572 -0.167288 -0.595154 -0.288485 -0.106642 0.147993 -1.039911 0.499666 -0.215403 -0.021566 0.300154 -0.062889 0.447309 -0.270094 -0.575652 0.416880 0.209638 -0.905702 0.186977 -0.094221 -0.269222 -0.128349 0.279087 -0.940547 0.594044 0.073864 0.585908 0.421302 0.506080 -0.316891 1.268836 -0.016175 -0.943056 -0.506189 0.289095 0.210209 -0.221101 1.116799 -0.156141 -0.044204 -0.461490 0.480881 0.608176 0.471645 0.323089 0.516164 0.243248 
481 1.022081 -0.184322 0.287394 -0.548276 -0.010838 0.805107 0.012774 0.545937 -0.486767 -0.789806 0.345562 0.811188 1.108673 -0.011824 -0.352205 -0.218022 0.873185 1.277017 0.578161 -0.194683 -1.639102 -0.152472 0.159042 0.515506 1.000100 0.984839 -0.304744 -0.332992 -0.156817 -0.152527 0.023317 0.774711 -0.790331 0.753017 -0.895628 -0.463106 0.415715 0.656303 -0.085745 -0.595508 -0.047829 0.412057 -0.003595 -0.350849 1.399141 0.548523 0.306341 0.774478 -1.387419 -0.254618 0.176184 -0.689776 -0.221340 0.408701 -0.212936 -1.399386 -0.366653 -0.750091 1.123014 0.254906 -0.987651 -0.094216 -0.218300 -0.147666 0.228443 0.302813 -0.324863 -1.063871 0.037648 -0.378830 -0.518785 -0.670914 0.496550 -0.489110 -0.856914 -0.073830 -0.036598 0.784807 0.445864 -0.370397 0.199262 -1.338167 0.431996 1.948710 0.516127 0.183204 0.615984 0.107618 0.156839 0.546374 -0.256909 -0.861578 0.574248 -0.310434 0.478456 -1.605100 0.764620 0.406519 -0.453922 0.759223 
68 -0.170210 1.201648 -0.483975 0.092722 0.273982 0.396140 -1.043918 0.076890 -0.027654 0.179263 -0.348281 0.135483 -0.265430 -0.753494 -0.624391 -0.232775 -0.598977 0.979291 0.106783 -0.353297 -0.066795 0.057414 0.090754 0.378221 0.303223 -1.042774 -0.704818 -0.107145 -0.189547 0.858065 0.322094 -0.404549 -0.819383 0.891093 -0.733398 0.284670 0.531450 -0.267522 0.301510 0.009376 -0.883458 0.870933 -0.758980 -0.306521 -0.397618 0.340416 -0.515143 0.925198 -0.877639 -0.742911 -0.958041 -0.292691 1.230958 0.340386 0.268112 0.209426 0.231643 0.605422 -0.112161 -0.947333 0.945404 -0.092194 -0.409606 -0.012089 0.807036 -0.254323 0.183829 -0.431839 -0.567452 0.089557 0.363609 -0.012817 0.165126 0.059032 -0.565573 1.250446 0.444406 0.131087 0.546846 -0.226142 -0.171794 0.121480 0.466544 -0.677986 -0.682738 -0.092734 0.717706 0.496922 -0.032777 0.156206 0.639350 0.605807 0.119572 -0.638612 0.361055 -0.096153 -0.258747 -0.457767 0.135084 0.726185 
256 0.623548 -0.747224 0.655961 -0.809791 0.038397 0.723869 -0.050639 0.695708 0.419498 -0.242966 -0.334969 -0.388656 0.212956 0.409943 0.577281 -0.182712 0.338826 0.411923 0.333413 -0.634600 -0.641205 -1.371727 0.046505 0.062664 1.264941 0.367138 -0.703056 0.306787 -0.188197 0.873040 0.595530 0.100703 0.535322 0.036295 0.087582 -0.147576 0.952543 0.538758 0.842323 -0.561822 -0.301339 -0.347606 0.150193 0.561934 1.034367 0.075521 0.600417 0.401293 -0.319182 -0.545094 -0.896054 0.721894 0.447735 0.421860 1.025236 -0.178540 0.197118 -0.531154 0.331979 0.309261 0.785982 -0.654139 -0.043893 0.154975 0.594678 0.306690 -0.137727 0.383663 -0.947841 -0.070576 -0.611310 0.176763 1.159108 0.065483 -1.523132 -0.613359 0.744828 -0.065574 0.049193 -0.349323 0.785975 -0.201817 -0.835515 0.722797 -0.806758 0.123119 -0.316165 0.153481 -0.058476 0.157940 0.486517 -0.757565 0.200044 0.210993 -0.263259 -0.753081 0.873802 -0.048649 -0.230035 0.535428 
90 -0.600359 0.704753 -0.434390 -0.154568 0.135393 0.513314 -0.095463 -0.199567 -0.047921 0.720135 -0.002532 0.465972 -0.540738 -0.325619 -0.337198 -0.204972 0.069304 0.633818 0.030935 -0.036449 -0.066515 -0.443195 0.422277 -0.118885 0.471484 -1.053133 -0.483299 -0.061434 -0.053460 1.076679 0.210642 0.239605 -0.347264 0.811720 -0.514819 -0.794192 -0.192876 0.157636 -0.163083 0.476575 0.290141 0.779548 -0.084710 -0.142123 -0.362431 0.183412 -0.527054 0.603129 -0.989671 -0.488090 -1.012960 0.288244 1.566502 0.233788 0.213223 0.052754 -0.055006 0.484994 -0.197616 -1.536438 0.526855 -0.384375 -0.395228 -0.218419 0.415112 -0.242161 -0.891357 -0.468708 -0.601595 0.394436 -0.105288 0.497218 0.146824 0.081433 -0.405255 1.081484 -0.388294 0.061274 0.214342 -0.103246 -0.305470 0.406566 0.048718 -0.039420 -0.511185 -0.240070 -0.175077 0.486436 0.511691 -0.412195 0.589961 0.581225 0.272059 -0.446015 0.247855 0.260878 -0.055951 -0.133851 0.451726 0.035097 
1189 0.377945 -0.187017 -0.480758 0.302132 -0.310280 -0.519127 0.118187 -0.780553 -0.196762 0.362182 0.451943 1.062890 0.352294 0.294468 -0.119233 -0.290430 0.704419 0.198930 -0.362512 -0.000341 0.019429 -0.180136 0.513248 -0.330592 1.221105 -0.936021 -0.059911 0.283764 -0.101573 0.943460 -0.375441 1.089695 -0.539925 1.009907 -0.314060 -0.403435 -0.883711 0.377545 -0.242817 0.606178 1.258435 0.892737 0.318425 0.628703 -0.234383 0.209873 0.059046 0.125922 -1.579805 0.069069 -0.377256 -0.217588 0.813787 0.094405 -0.040686 -0.640749 -0.193930 -0.009063 0.183967 -1.169508 0.559719 -0.183001 -0.162968 0.345324 -0.113711 0.479359 -0.346172 -0.448920 0.247982 0.179484 -0.857478 0.148824 -0.221592 -0.235853 -0.150317 0.554318 -0.924670 0.613023 0.162474 0.697706 0.260443 0.551865 -0.274727 1.268970 0.040965 -0.986943 -0.564209 0.410651 0.364530 -0.178879 1.211140 0.012776 0.017191 -0.528446 0.406596 0.458806 0.463304 0.306325 0.372366 0.332308 
2654 0.256334 -0.440829 -0.312707 -0.439936 0.300318 -0.520032 0.010180 0.094516 -0.000323 -0.611485 -0.254421 0.409916 0.762560 0.707240 0.503581 -0.090093 0.633918 0.366192 -0.018784 -0.582460 -0.622490 -0.146600 0.328119 -0.131139 1.392080 -0.026953 -0.373177 -0.374318 0.225067 0.473503 -0.314771 0.539778 -0.218975 0.330504 -0.364751 0.273021 0.248593 0.128546 0.061565 -0.448106 0.826257 0.512859 0.290146 0.399216 0.738744 0.361249 1.309659 0.994087 -1.343346 0.048629 1.122899 -0.886062 0.076584 0.478948 0.214413 -1.252279 -0.004259 -0.375302 0.775886 -0.034725 -0.418271 0.109126 -0.458165 0.696354 -0.237299 0.077775 0.553929 -0.446910 0.518884 -0.615549 -1.157546 -0.201249 0.379125 -0.534619 -0.359598 -0.501874 -0.024675 0.892254 0.170866 -0.087749 0.723621 0.326013 -0.601664 1.518034 0.419463 -0.582226 -0.045852 0.198571 0.509011 0.892186 0.537994 -0.681158 0.377308 -0.605933 0.241145 -0.642855 0.676710 0.708959 -0.313487 0.819448 
2026 -1.159860 0.628512 -0.484582 -0.652051 -0.179709 0.576662 0.146662 -0.305971 0.527490 0.701631 0.159056 0.303520 -0.857177 -0.532504 -0.154710 0.021299 0.072629 0.542195 -0.149960 0.012795 -0.407950 -1.145076 0.254839 0.043927 0.154557 -1.379223 0.005546 -0.219917 -0.125433 0.465555 -0.087827 -0.276158 -0.128926 0.050254 -0.830686 -1.081898 -0.093724 0.128672 -0.486774 0.301329 1.082216 1.206555 0.053985 -0.408085 -0.222478 0.185433 -0.468466 0.175701 -0.371348 -0.954224 -0.393452 0.464945 0.844102 0.516463 0.252300 -0.174405 -0.081561 0.146730 -0.053534 -1.428989 0.445626 -0.357373 -0.407010 -0.199458 0.375381 -0.363015 -1.140686 -0.185067 -0.569483 0.370460 -0.607067 1.001729 0.262639 -0.267036 -0.347980 1.067608 -0.550964 0.350306 -0.043545 -0.617087 -0.799252 0.407556 -0.014347 -0.077499 -0.111672 -0.850967 -0.039584 0.363940 0.628913 -1.114353 0.525954 0.674047 0.621530 -0.548925 0.033903 0.640950 -0.360921 -0.324248 0.539661 0.509054 
2212 -0.452150 1.159161 -0.051079 0.429610 0.198229 0.751746 -0.953192 0.159484 -0.113121 0.215947 -0.315235 0.014814 -0.065824 -0.704659 -0.307785 -0.036361 -0.396981 0.981578 -0.126033 -0.639034 -0.193279 0.115247 0.325985 0.272785 0.210862 -0.468003 -0.774802 0.030962 -0.426864 0.777336 0.612898 -0.264330 -0.925180 0.911177 -0.450479 0.129207 0.289640 -0.471374 0.429846 0.188940 -1.057970 0.469667 -0.708645 -0.113511 -0.488713 0.327437 -0.592974 0.937417 -0.745048 -0.651450 -1.100274 0.037819 1.005214 0.205360 0.260536 -0.020679 -0.037576 0.732575 0.000658 -0.814333 0.915773 -0.343877 -0.088227 -0.219701 0.558670 -0.077328 0.098020 -0.541508 -0.398277 0.123595 0.198281 -0.090646 0.087789 0.128661 -0.624260 0.972936 0.707109 0.281833 0.608255 -0.165236 0.131427 -0.052597 0.404720 -0.778064 -0.848264 -0.017387 0.940617 0.455374 -0.434830 0.381723 0.750273 0.600571 -0.111688 -0.564353 0.558853 -0.322461 -0.254882 -0.327528 0.294317 0.253084 
1190 0.776801 -1.013270 -0.610633 0.134961 -0.788954 -0.747297 0.185554 0.207556 -0.458889 -0.724616 -0.098935 1.407620 0.791710 0.287231 -0.444001 0.507532 1.282313 0.053937 0.021360 -0.513254 -1.154487 1.148786 1.358693 0.994423 1.754730 0.290276 0.037276 -0.370655 0.122939 -0.325943 -0.234002 0.437124 -0.091363 0.911566 -0.510627 0.318966 -0.666058 0.500986 -0.170334 -0.457787 -0.349272 0.073970 0.705223 -0.392196 1.391468 0.695575 -0.382173 -0.358641 -2.262088 -0.436503 -0.204637 -0.560620 0.312535 0.075119 -0.815658 -1.184716 -0.397653 -0.747091 1.208444 -0.151924 -0.064776 0.795218 -0.035474 0.811310 0.239011 -0.170042 0.159946 -0.476938 0.248668 -0.386692 -0.495166 -0.252577 -0.337951 -0.247965 -0.379555 0.272655 -1.302512 0.763901 -0.280513 0.094896 0.050025 -0.539075 0.423197 1.563760 0.518662 -0.489551 0.436731 0.394956 -0.831514 -0.119890 0.402707 -0.425285 -0.329949 -0.730725 0.367037 0.047769 -0.208685 -0.362579 0.580301 0.902793 
2663 0.261112 -0.863975 0.143463 -0.942053 -0.350074 -0.308939 0.388550 0.923450 -0.030340 -0.643746 -0.131945 0.010586 0.181516 -0.650208 0.502594 0.518051 0.220247 -0.059920 0.247802 -0.231350 -0.730590 -0.735819 0.388499 0.510615 1.406026 0.605363 -0.831691 0.415147 -0.311430 0.409109 0.714460 0.503103 0.394800 -0.250260 -0.933235 0.134438 0.943542 -0.077672 0.351933 -0.609532 -0.496373 -0.885323 0.058946 -0.175311 1.564586 0.623662 0.734326 0.960676 -1.403378 -1.076746 0.049653 0.133743 0.406529 0.881275 0.168284 -0.355638 -0.267427 -0.455176 1.074126 0.567104 0.080439 -0.905815 0.402162 -0.356023 0.581903 0.101179 -0.608764 0.490139 -0.449930 -0.368182 -0.353790 0.152028 1.632475 0.079449 -1.242399 -0.578703 0.369368 0.776507 -0.347447 -0.233130 0.396460 -0.380685 -0.565710 0.660458 -1.720815 0.332802 0.699732 0.455010 -0.379500 0.411692 0.230475 -0.538767 -0.424142 -0.093732 0.361851 -0.755783 0.570831 0.414346 -0.296653 -0.000024 
2079 -0.521535 0.233580 0.006175 -0.703022 -0.442199 -0.010696 0.338210 -0.164852 0.558973 0.539821 -0.634716 0.131759 0.244860 0.408662 -0.184332 -0.840471 0.349370 1.102649 0.094297 -0.758924 -0.473993 -1.212855 -0.699504 -0.075030 -0.066183 0.349669 -0.601778 -0.507161 0.489671 -0.887409 -0.764730 -0.399159 -0.251298 -0.157238 -0.261223 -1.177654 0.286740 1.130951 -0.140233 -0.746719 1.125175 0.950673 -0.936860 0.259824 0.682657 0.752585 0.159573 -0.405227 0.242461 -0.101051 0.816803 -0.662747 -0.400337 1.051265 0.369483 -0.582786 0.184844 -0.181740 0.357829 0.186318 -0.567399 -0.041127 -0.806025 0.321120 0.233038 -0.397405 -0.779144 -1.051306 0.544282 0.406077 -1.209760 0.624562 0.036456 -0.612258 0.531900 -0.204662 -0.099859 0.272471 0.109539 -0.865666 0.118794 0.058200 -0.148651 1.019280 1.242152 -0.268790 -0.370359 -0.764556 0.964093 -0.187190 -0.384723 -0.857444 0.517526 -0.790183 -0.246790 -0.924944 -0.096897 0.368943 -0.188913 1.492265 
112 -0.646357 0.630429 0.109410 0.108300 0.556772 0.639959 -0.262146 -0.071569 0.242501 0.288384 0.023793 -0.094658 -0.228416 -0.358360 -0.239137 0.229346 0.077689 1.005216 -0.118471 -0.602312 -0.339074 -0.313481 0.744812 -0.071037 0.556478 -0.637092 -0.810572 0.171002 -0.602353 1.621998 0.720041 0.301897 -0.164934 0.676870 -0.482688 -0.604120 0.021805 -0.359860 0.564191 0.050000 -0.318127 0.412407 0.014554 -0.028850 -0.312557 0.054225 -0.279015 1.346356 -0.461454 -0.822722 -1.121520 0.745689 1.171181 0.067940 0.436868 -0.314177 0.001031 0.947920 -0.020528 -0.509839 0.677119 -0.660516 -0.142238 -0.246088 0.077285 0.398217 -0.336732 0.030382 -0.566071 0.118937 -0.224640 0.335116 0.005493 0.416425 -0.454980 0.673616 0.442995 0.357848 0.321783 -0.019311 0.071476 0.001462 -0.047749 -0.188979 -1.016529 -0.028025 0.267304 0.676069 -0.290348 0.056474 0.795714 0.307706 0.388343 -0.555530 0.223236 -0.432475 -0.061758 -0.478742 0.163843 0.394785 
2813 -0.357264 -0.066881 -0.118992 -0.153432 -0.518349 0.156791 0.160309 -0.571550 0.363502 0.997729 0.021079 0.591491 -0.811663 -0.296267 0.128167 -0.202349 0.377957 0.017925 -0.652014 -0.209805 -0.160754 -1.198766 0.240273 -0.412132 0.482634 -0.890668 0.368399 -0.262913 -0.406304 0.130063 -0.539103 0.101640 -0.108468 -0.091254 -0.220974 -0.761973 -0.219876 0.198206 -0.473300 0.254431 1.213336 0.558838 0.222202 0.125494 0.016723 0.120777 -0.288076 -0.242430 -0.379015 -0.255419 0.134932 0.227994 0.271584 0.434845 0.464143 -0.094404 -0.110369 -0.253903 -0.288600 -0.796387 0.847902 -0.182404 0.162215 0.083107 0.261771 0.105768 -0.941233 -0.004086 -0.184464 0.300985 -0.922522 0.920976 -0.000308 -0.171727 -0.060907 0.317786 -0.505385 0.390156 -0.302589 -0.346430 -0.355648 0.668097 -0.192911 0.435773 0.138770 -0.610767 -0.418000 0.126707 0.310912 -0.396204 0.704561 0.215703 0.305885 -0.478067 -0.108411 0.837790 0.152329 0.261761 0.572150 0.463822 
666 -0.266680 0.493383 -0.593820 0.035725 0.007374 0.236351 -0.007822 -0.394851 -0.145945 0.699107 0.204016 0.896278 -0.210397 -0.052691 -0.198720 -0.302388 0.295493 0.525611 -0.071144 0.279059 0.242706 -0.434638 0.440828 -0.365514 0.592824 -1.093750 -0.234228 0.007005 0.077263 1.126128 -0.091976 0.586157 -0.535507 0.834213 -0.490485 -0.775938 -0.446789 0.335386 -0.261745 0.708851 0.772853 0.875288 0.045626 0.253983 -0.373554 0.214266 -0.401565 0.382494 -1.254650 -0.163657 -0.792010 0.040410 1.511586 0.253142 0.178642 -0.130541 -0.110465 0.285138 -0.125723 -1.653625 0.451684 -0.239405 -0.369900 -0.108596 0.133928 -0.051114 -0.886075 -0.497136 -0.409633 0.331789 -0.410751 0.457338 0.000781 -0.075165 -0.277331 1.170785 -0.859745 0.069429 0.309557 0.305736 -0.220465 0.585244 -0.150939 0.386208 -0.179837 -0.643996 -0.484346 0.486705 0.704824 -0.322212 0.751507 0.438365 0.147102 -0.275410 0.410015 0.453889 0.261292 0.063282 0.311009 -0.035308 
1948 -0.295190 1.010398 -0.530474 -0.199596 0.215128 0.535243 -1.035892 0.208978 0.075711 0.095357 -0.462075 -0.083749 -0.265086 -0.493207 -0.537440 -0.252632 -0.668387 1.138538 0.304653 -0.378844 -0.021311 -0.002692 -0.002527 0.370581 0.315692 -0.848673 -0.755108 -0.087980 -0.080000 0.659578 0.354319 -0.404075 -0.471097 0.586452 -0.940643 0.306116 0.957912 -0.286618 0.268596 -0.171112 -1.032072 0.984428 -0.756810 -0.367903 0.006149 0.320814 -0.408058 1.016768 -0.918661 -0.807407 -0.784896 -0.522396 0.936838 0.357836 0.447270 0.250079 0.303726 0.364325 -0.078173 -0.861265 0.801840 -0.231390 -0.575667 0.187156 0.604981 -0.320668 0.335351 -0.242651 -0.746213 0.008960 0.405426 -0.305176 0.300862 0.081070 -0.685690 1.156758 0.581531 0.191826 0.555295 -0.478542 -0.268612 0.007046 0.327990 -0.690148 -0.846721 0.132201 0.877331 0.497773 -0.004940 0.271116 0.340806 0.515657 0.287432 -0.613765 0.287829 -0.417119 -0.086531 -0.512556 -0.219030 0.888123 
179 0.273749 -0.936505 0.405033 -0.881733 -0.747981 0.098013 -0.028591 0.987594 0.435610 -0.482459 -0.376065 -0.102604 -0.263084 -0.595112 0.469067 0.573256 0.001227 0.188838 0.388836 -0.501592 -0.483576 -1.463014 0.248392 0.709528 1.339190 0.495618 -0.941318 0.121245 0.010615 0.756210 0.825319 0.119499 0.421792 -0.103426 -0.640566 0.232889 1.224466 0.122424 0.296692 -0.842470 -1.203994 -0.950132 0.155658 0.181879 1.433379 0.778904 0.320047 0.560138 -1.066142 -1.057524 -0.628922 0.470154 0.615786 0.440941 0.545102 -0.023113 -0.485692 -0.509910 0.628028 0.533823 0.697176 -0.892432 -0.046477 -0.381455 0.853291 -0.080633 -0.586563 0.579979 -0.946638 -0.045510 -0.007469 0.090851 1.981524 -0.083163 -1.340524 -0.549414 0.655915 0.241003 -0.219358 -0.243328 0.576833 -0.355813 -0.440746 0.611762 -2.047059 0.416399 0.585487 0.014079 -0.104591 0.350310 0.244052 -0.496581 -0.417456 0.192620 0.366842 -0.360311 0.652891 0.254824 -0.258925 -0.137468 
1745 -0.788570 0.796680 -0.738134 -0.304536 0.024054 0.514512 -0.438043 0.004922 0.083492 0.471226 -0.005856 0.408711 -0.555874 -0.425069 -0.346044 -0.325056 -0.336165 0.793440 0.212644 0.212757 0.062993 -0.578329 -0.004248 0.175689 0.051198 -1.212932 -0.235986 -0.106799 0.183477 0.506655 0.122296 -0.249566 -0.362889 0.269045 -0.897489 -0.526554 0.414656 0.094415 -0.184496 0.282211 0.183179 1.156556 -0.286928 -0.335224 -0.335737 0.236107 -0.548437 0.360083 -0.792131 -0.673468 -0.811043 -0.117653 1.333372 0.525009 0.397341 0.272244 0.124309 0.087978 -0.011531 -1.457101 0.430720 -0.084178 -0.542420 -0.188790 0.414204 -0.629097 -0.505114 -0.476597 -0.774000 0.114197 -0.048622 0.385632 0.332630 -0.199772 -0.481587 1.403734 -0.274861 -0.043274 0.460242 -0.296752 -0.566337 0.416279 0.049629 -0.495348 -0.241770 -0.586676 0.259469 0.431843 0.584276 -0.345942 0.288052 0.720658 0.157236 -0.259816 0.364334 0.266662 -0.173558 -0.467885 0.027581 0.314214 
2730 -0.319754 0.577692 -0.410449 -0.021928 0.228685 0.419179 0.035889 -0.190709 -0.150000 0.708615 0.086113 0.827631 -0.328428 -0.151753 -0.227831 -0.231398 0.312476 0.655959 0.002329 0.142740 0.074964 -0.473411 0.557056 -0.304918 0.674120 -0.965923 -0.488505 -0.033659 -0.007190 1.343057 0.120119 0.606677 -0.493152 1.023453 -0.420134 -0.912933 -0.387016 0.327131 -0.107215 0.642981 0.453394 0.641690 0.052337 0.123074 -0.374234 0.292652 -0.460411 0.587213 -1.240125 -0.243154 -1.097261 0.308509 1.790691 0.284121 0.182664 -0.093344 -0.135526 0.467283 -0.104716 -1.589663 0.492695 -0.361920 -0.317646 -0.271552 0.274642 -0.006146 -1.018652 -0.556114 -0.525903 0.355246 -0.255915 0.525651 0.016178 0.012437 -0.308055 1.155679 -0.675248 0.030006 0.289192 0.282268 -0.126570 0.515326 -0.090044 0.303387 -0.332643 -0.319846 -0.498348 0.492990 0.637038 -0.262131 0.717237 0.452222 0.121276 -0.254070 0.360343 0.260757 0.191952 0.037375 0.413610 -0.190547 
667 -0.129397 0.471178 -0.110001 -0.005505 0.741764 0.544274 -0.380697 0.234389 0.139661 -0.350224 -0.339408 -0.209907 0.550735 0.206426 -0.294148 -0.009524 0.030865 1.291206 0.138621 -0.411271 -0.087850 0.256363 0.381728 0.015469 0.690013 -0.177915 -0.697327 0.156589 -0.163609 1.298138 0.390951 0.343648 -0.167006 0.730819 -0.867672 0.079646 0.678512 0.003524 0.640180 -0.255092 -0.591929 0.583530 -0.379806 -0.065185 0.280824 0.296116 0.103173 1.365206 -0.732228 -0.577219 -0.658956 -0.180290 0.766330 -0.034192 0.575024 -0.533513 0.317017 0.680289 0.324320 -0.242115 0.084354 -0.437117 -0.231794 0.266971 -0.176287 0.363410 0.435776 -0.063979 -0.465540 -0.263907 0.145535 -0.475452 0.111149 0.217261 -0.409084 0.566814 0.767239 0.348928 0.629664 -0.039613 0.020610 -0.109162 -0.152036 0.141580 -0.644026 0.209505 0.495952 0.718253 -0.016125 0.612165 0.443511 -0.069301 0.258405 -0.439304 0.308379 -0.973255 0.402855 -0.299011 -0.515768 0.605720 
1823 -0.486295 0.116181 -0.236090 -0.348238 -0.471562 0.249958 0.316625 -0.611631 0.395654 0.943511 0.058593 0.682790 -0.650574 -0.127821 0.113792 -0.268473 0.450723 0.212403 -0.651303 0.007189 -0.072653 -1.267579 0.149588 -0.415076 0.388809 -0.913040 0.254084 -0.247956 -0.156678 0.154403 -0.613494 0.088328 -0.009797 -0.118010 -0.390397 -0.936471 -0.271109 0.360668 -0.458514 0.370116 1.382473 0.752235 0.068034 0.085586 0.107084 0.271243 -0.360535 -0.173988 -0.538368 -0.385656 -0.078350 0.151424 0.312960 0.539204 0.247739 -0.229810 -0.114538 -0.133539 -0.193326 -1.026494 0.546633 -0.335656 -0.105948 0.099670 0.091998 0.010137 -1.213891 -0.117264 -0.313248 0.311956 -0.974357 0.942423 0.021739 -0.145976 0.125311 0.514984 -0.636057 0.406466 -0.210119 -0.358061 -0.527416 0.567692 -0.237296 0.516158 0.300426 -0.737569 -0.420872 0.122083 0.578566 -0.637821 0.613663 0.139511 0.344040 -0.447411 -0.026159 0.757395 0.086926 0.169440 0.452002 0.469276 
2421 0.794870 -0.341196 0.488015 -0.524088 -0.350675 0.069931 0.879089 0.205899 0.845199 -0.153546 -0.041516 0.459365 0.780508 0.716599 0.505093 -0.095811 0.771104 0.103555 -0.135848 -0.543502 -0.687025 -0.999168 -0.101917 -0.480073 1.105201 0.160554 -0.334932 0.583878 0.374638 0.144930 0.021371 0.163120 -0.507048 0.519919 -0.443694 0.041804 0.545967 1.012544 1.048720 -0.101234 0.530286 0.044151 -0.339805 0.486321 1.273900 0.792661 0.439559 -0.413381 0.095763 -0.249506 -0.129298 -0.231158 -0.178909 0.189878 0.594612 -0.632431 -0.155331 -0.028760 1.226509 0.999184 0.405428 -0.601014 0.029475 0.632011 0.199239 0.629667 -0.580922 -0.321387 -0.155032 -0.090894 -0.414250 0.935898 0.354487 -0.371099 0.304074 -0.455795 0.662939 0.109109 0.630843 -0.194815 0.448988 -0.375564 -0.349696 0.789167 -0.058330 0.530715 0.409068 0.382990 0.900298 -0.030021 0.272645 -1.219762 -0.128250 -0.707592 -0.346071 -0.603371 0.276431 0.966220 -0.321875 0.720855 
1813 -0.288843 0.824200 -0.218070 -0.081848 0.572544 0.623494 -0.684454 0.287054 0.009760 -0.074261 -0.302291 -0.124630 0.125259 -0.183716 -0.261822 -0.007149 -0.314384 1.126583 0.166370 -0.146664 0.055430 0.015077 0.290478 0.032779 0.402546 -0.483179 -0.716083 0.000913 -0.150662 1.158282 0.381334 0.104308 -0.315107 0.575329 -0.813327 0.002540 0.680740 -0.212881 0.495289 -0.037887 -0.821782 0.571698 -0.489704 -0.088194 0.003709 0.320913 -0.209369 1.249792 -0.773521 -0.670760 -0.862158 -0.101889 0.939263 0.195629 0.417354 -0.089039 0.232491 0.580258 0.035943 -0.550052 0.457337 -0.388726 -0.341665 0.019144 0.168325 0.182588 0.240771 -0.080616 -0.677785 -0.116583 0.287769 -0.280356 0.143838 0.231239 -0.515693 0.972685 0.474716 0.254698 0.608554 -0.109554 -0.099970 0.051034 -0.006668 -0.357988 -0.704560 0.076073 0.599212 0.576287 -0.049737 0.425780 0.492452 0.302026 0.188673 -0.362023 0.320365 -0.593666 0.129772 -0.435672 -0.394612 0.465954 
2768 -0.265385 0.907740 -0.422946 0.019126 0.312107 0.452757 -0.874674 0.077043 0.008311 0.142499 -0.349142 -0.044045 -0.176612 -0.438544 -0.606124 -0.309046 -0.477931 1.066838 0.147186 -0.501677 -0.048133 0.127659 0.093396 0.351764 0.335448 -0.823231 -0.668980 -0.047109 -0.194106 0.747356 0.360945 -0.243062 -0.498686 0.723472 -0.756442 0.183159 0.649651 -0.184455 0.320092 -0.052278 -0.786031 0.955500 -0.644845 -0.335195 -0.160944 0.273444 -0.330060 0.897311 -0.811749 -0.686587 -0.881345 -0.404234 1.057127 0.271477 0.495271 0.070984 0.316910 0.470158 -0.037595 -0.804491 0.755572 -0.150885 -0.407423 0.166638 0.472043 -0.259937 0.283402 -0.311537 -0.586989 0.018482 0.329833 -0.219085 0.167234 0.092212 -0.549744 1.014682 0.653869 0.185765 0.583165 -0.262846 -0.206213 0.114881 0.364963 -0.492240 -0.691538 0.054612 0.674777 0.582514 -0.045237 0.303930 0.491691 0.482133 0.201928 -0.596244 0.329780 -0.361804 -0.077152 -0.456530 -0.040264 0.723112 
2539 -0.090017 0.932683 -0.223626 0.068490 0.173391 0.348793 -0.909913 0.000099 -0.002104 0.245155 -0.447581 -0.275128 -0.282993 -0.493977 -0.739482 -0.346533 -0.527763 0.800379 0.076607 -0.812590 -0.191792 0.240933 0.033012 0.396451 0.416617 -0.711787 -0.842849 -0.002934 -0.363492 0.547789 0.378099 -0.379405 -0.546323 0.800112 -0.530720 0.399941 0.649501 -0.330353 0.371607 -0.147544 -0.974323 0.761934 -0.697513 -0.323011 -0.061686 0.173657 -0.290045 0.864642 -0.751155 -0.686430 -0.795125 -0.451959 0.814939 0.154059 0.516989 0.214693 0.342197 0.485689 -0.213226 -0.629151 1.036056 -0.214438 -0.364792 0.282155 0.696003 -0.183214 0.378281 -0.338273 -0.460798 0.088881 0.425144 -0.222233 0.161697 0.192816 -0.592373 0.621529 0.880894 0.297615 0.483590 -0.431370 -0.024414 0.053836 0.474816 -0.454940 -0.849151 0.346401 0.722156 0.577037 -0.261540 0.317341 0.553349 0.409906 0.215485 -0.869533 0.137975 -0.441885 -0.167762 -0.380892 0.156628 0.968672 
2967 -0.358381 0.560173 -0.375986 -0.130680 0.218255 0.476807 -0.003850 -0.189526 -0.086866 0.700822 0.006265 0.586073 -0.353888 -0.083054 -0.279572 -0.286369 0.209749 0.611166 0.016324 0.069509 0.105068 -0.400868 0.466745 -0.296220 0.554256 -0.925623 -0.486637 -0.040949 -0.011033 1.180618 0.093348 0.453447 -0.379784 0.859034 -0.455049 -0.751169 -0.227116 0.301975 -0.116903 0.531474 0.354349 0.623882 -0.011034 0.017090 -0.217999 0.221467 -0.403729 0.593915 -1.118131 -0.264164 -0.986798 0.180459 1.563966 0.181712 0.310099 -0.034507 -0.029506 0.426616 -0.182279 -1.486070 0.476288 -0.401315 -0.303339 -0.186650 0.278817 -0.050241 -0.912220 -0.411320 -0.592320 0.324568 -0.174064 0.452561 0.070384 0.078116 -0.321453 1.043333 -0.495959 0.032502 0.263329 0.118845 -0.208376 0.454507 -0.118245 0.215073 -0.447931 -0.197467 -0.418232 0.517344 0.607098 -0.222745 0.650091 0.451116 0.205836 -0.319846 0.248842 0.229670 0.219077 -0.028723 0.326885 -0.108582 
2021 -0.138338 -0.003031 0.169913 -0.236441 0.250494 -0.115933 0.425040 -0.521266 0.452035 0.501829 0.277606 0.221220 -0.108240 0.095535 -0.215450 -0.470817 0.610146 0.169448 -0.605124 -0.453462 -0.361609 -0.842945 0.141500 -0.464299 0.406305 -0.745263 -0.066598 0.145904 -0.119183 0.507977 -0.304321 0.286367 -0.185038 0.320397 0.139715 -0.588901 -0.336777 0.519477 0.192858 0.269435 1.216407 0.480118 0.124269 -0.031379 0.021789 0.104262 0.313469 -0.046258 0.184779 -0.351001 -0.146493 0.284171 0.381277 0.287064 0.672514 -0.467964 0.083006 0.343594 0.088420 -0.102463 0.432933 -0.201523 0.243728 0.207628 0.125940 0.482580 -0.735296 -0.357443 0.100527 0.059716 -0.758323 1.102803 -0.442887 -0.167231 0.332835 0.046861 -0.077383 0.347244 0.226984 0.156514 0.130840 0.574807 -0.194237 0.609393 0.296425 -0.366741 -0.767707 0.235385 0.496054 -0.351205 0.660526 -0.113105 0.227602 -0.708056 -0.392287 0.216193 -0.159038 0.199245 0.316013 0.587116 
3075 -0.135107 0.967375 -0.338907 0.251611 0.223338 0.183565 -0.569955 -0.307238 -0.033430 0.453120 0.077302 0.263486 -0.257931 -0.646335 -0.575337 -0.386120 -0.195362 0.476555 -0.258962 -0.204688 0.046880 -0.039244 0.220093 0.069318 0.244748 -1.281058 -0.377477 0.015680 -0.300958 0.876640 0.116609 -0.177040 -0.776025 0.886165 -0.365428 -0.008707 -0.057314 -0.056750 0.204819 0.372747 -0.024671 0.764458 -0.438614 -0.182089 -0.624220 0.126971 -0.389495 0.532211 -0.551306 -0.471937 -0.976759 -0.063914 1.192515 0.149825 0.378760 0.024318 0.218523 0.531789 -0.220584 -0.970294 0.998662 0.014018 -0.124712 -0.003221 0.606180 -0.062367 -0.130287 -0.324399 -0.401234 0.125975 0.064244 0.347360 -0.068098 0.069266 -0.340067 1.008367 0.112012 0.046890 0.468961 0.093602 -0.191656 0.411009 0.411293 -0.394674 -0.373344 -0.372464 0.142983 0.595544 0.123121 -0.136227 0.826336 0.637051 0.101700 -0.575764 0.236600 0.351628 -0.246232 -0.366121 0.430037 0.470666 
1186 -0.103173 -0.432665 0.269947 -0.580903 0.136795 0.374601 0.353312 0.862479 -0.263901 -0.773926 -0.548280 -0.137969 0.357745 -0.198476 0.574943 0.647761 0.032407 0.756426 0.425485 -0.521350 -0.951441 -0.352008 0.607244 0.183326 1.371175 0.845973 -0.469665 0.393764 -0.477639 0.602810 0.614560 0.638114 0.486002 -0.103325 -1.165522 -0.100891 0.894756 0.224766 0.549218 -0.611580 -0.792313 -0.635453 -0.144481 -0.152302 1.193998 0.711871 0.371138 1.071893 -1.210980 -0.612902 -0.152838 0.200627 0.282891 0.663329 0.100071 -0.650953 -0.253561 0.042543 1.010981 0.616861 -0.086173 -0.874615 0.421318 -0.259316 0.161268 0.255644 -0.370966 0.081258 -0.527365 -0.556450 -0.239302 -0.394928 1.067133 0.251895 -0.931426 -0.276677 0.571888 0.639172 -0.032458 -0.116379 0.468607 -0.321237 -0.370719 0.492347 -1.206742 0.645192 0.694498 0.527707 -0.354286 0.770818 0.036437 -0.297431 -0.039643 -0.021117 0.295718 -1.017583 0.756077 0.161205 -0.531187 0.021518 
480 0.327312 -0.778249 0.118771 -0.161177 0.230910 -0.082401 -0.124602 0.179253 0.753783 0.369308 -0.144916 0.686711 -0.228107 0.385125 0.075745 -0.461030 0.549272 0.352913 -0.253616 -0.974498 -0.560522 -1.067402 0.323357 -0.677759 1.154610 0.028794 -0.177837 0.315673 -0.161161 0.765033 -0.436211 0.583301 -0.377387 0.295770 0.129881 -0.054027 0.362969 0.370825 -0.024173 -0.015258 0.450155 0.410884 0.400724 0.969537 0.321494 0.229760 0.605929 0.408439 -0.560029 0.208437 0.495486 0.177519 0.225961 0.669295 0.987974 -0.459940 -0.349677 -0.057294 0.380624 0.256397 0.533987 -0.249315 0.448057 0.107211 0.279822 0.808071 -0.349848 -0.536082 0.534641 -0.176945 -0.787729 0.807770 -0.552213 -0.645738 -0.136583 -0.310975 -0.288504 0.899535 0.257176 0.778447 0.807030 0.619808 -0.753258 1.362435 -0.133161 -0.033539 -1.166188 -0.144604 0.098637 0.758208 1.068550 -0.274791 0.039774 -0.567977 0.015919 -0.708305 0.801069 1.076790 0.136640 0.757285 
1839 0.550545 -0.155382 0.198104 0.133592 0.341245 0.350067 0.042011 0.238252 -0.006809 -0.389423 0.012537 -0.134475 0.793239 0.459285 -0.190042 -0.360027 0.716470 0.431188 0.011182 -0.550679 -0.547351 0.381816 0.122610 0.020099 1.169363 0.184178 -0.296790 0.319653 -0.214939 0.537552 0.146720 0.505819 -0.181318 0.654967 -0.408251 0.054404 0.255088 0.565501 0.509632 -0.226195 0.299575 0.419134 0.151796 0.101168 0.429333 -0.035065 0.624282 0.338664 -0.537963 0.152510 -0.312533 -0.126379 0.378424 0.128334 0.583384 -0.725331 0.351550 -0.002622 0.596369 0.200430 -0.315572 -0.118544 0.308436 0.357838 -0.118738 0.260738 0.383597 -0.166476 0.197197 -0.269087 -0.363479 -0.342407 0.272378 -0.013560 -0.439379 -0.239674 0.744642 0.491064 0.323662 0.030245 0.200545 -0.209164 -0.263221 0.956125 0.214021 0.209267 -0.035211 0.419514 0.001264 0.534724 0.464452 -0.662682 -0.056964 -0.399324 0.174678 -0.811872 0.831124 0.075783 -0.145108 0.456471 
1938 -1.091541 0.601510 -0.399701 -0.624926 0.011962 0.646313 -0.040127 -0.371375 0.634576 0.658386 -0.024611 -0.118839 -0.701292 -0.288608 -0.295199 -0.228149 -0.056273 0.566141 -0.253238 -0.158779 -0.195421 -0.836134 0.104376 0.023060 -0.049431 -1.188408 0.016560 -0.191792 -0.122081 0.344826 -0.223325 -0.489994 0.006855 -0.095657 -0.789243 -0.655256 0.133509 0.048313 -0.296782 0.286341 0.846648 1.149869 -0.194394 -0.406381 -0.179327 0.088129 -0.466922 0.385211 -0.054010 -0.928581 -0.324686 0.160110 0.386817 0.281361 0.398594 -0.160722 0.124059 0.186660 -0.295396 -1.158484 0.506700 -0.345419 -0.303487 0.068244 0.321841 -0.377214 -0.772810 0.070791 -0.639848 0.230419 -0.270321 0.662662 0.125019 -0.089292 -0.274503 0.783277 -0.062962 0.438855 0.068750 -0.580654 -0.794571 0.351253 0.112048 -0.222971 -0.244894 -0.530277 0.095807 0.365836 0.544695 -0.815645 0.547176 0.715521 0.713139 -0.662956 -0.141097 0.386318 -0.365526 -0.252743 0.352981 0.631731 
