3974 100
5170 -0.0890533 -0.0839189 -0.0719701 0.0869178 -0.204968 0.031709 0.0489341 0.0524512 -0.0337686 -0.0457863 -0.0449473 0.0686132 -0.0501067 -0.0679305 0.0858591 -0.0884311 -0.0395748 -0.074445 0.0127875 -0.00781648 0.0213155 0.0495111 0.003551 -0.0759016 0.128882 0.0271233 -0.102929 0.0218608 -0.065845 0.187444 0.0841852 0.0337629 0.0436648 -0.0608029 -0.0627878 0.00564408 -0.0222877 -0.0584383 0.0902039 -0.211775 0.0948785 -0.0501479 0.0418447 -0.113801 -0.0148695 -0.0587781 -0.0874568 -0.122236 -0.0400909 -0.0960512 0.0603224 -0.0667373 0.042283 -0.0970485 0.0448092 0.0185635 -0.0190401 0.0286727 -0.0439235 -0.0711262 -0.0870001 -0.0647063 -0.00785664 -0.00102337 0.0164064 -0.041941 -0.0113376 -0.0724901 -0.000266448 0.0502607 -0.072786 -0.0562133 0.0667868 0.081503 -0.0106372 -0.0474865 0.029068 -0.0367003 0.106801 -0.00828169 -0.120838 -0.0255641 0.0776486 -0.14868 -0.137006 -0.0542889 -0.197716 0.0680028 -0.0739444 -0.153026 -0.0112053 -0.0648851 0.0106555 0.0807169 -0.146848 -0.0661379 0.108628 -0.0837073 0.122943 -0.0633671 
5665 -0.123386 -0.0797451 -0.0675547 0.0731031 -0.20348 0.0745378 0.00916584 0.0308486 -0.0388418 -0.00874417 -0.0648037 0.0588972 -0.0128629 -0.061371 0.113898 -0.0953701 -0.0182358 -0.0504132 0.029048 -0.0205131 0.0275729 0.0378112 0.0451845 -0.0790424 0.090177 0.0306736 -0.0845939 0.0303814 -0.0453893 0.197551 0.10474 0.0192729 0.0451931 -0.0395016 -0.0372915 -0.0209536 0.0138728 -0.0640709 0.139333 -0.257833 0.0946524 -0.0710234 0.0207358 -0.0986743 -0.0324346 -0.0286627 -0.0574914 -0.148286 -0.0517754 -0.122507 0.0824548 -0.0916804 0.0953825 -0.0893221 0.0226528 0.021855 -0.0108333 0.0596284 -0.0274947 0.00693433 -0.0472256 -0.0926005 -0.0222398 0.05639 -0.0061099 -0.026231 0.00110421 -0.0732197 0.0390706 0.0473923 -0.0659981 -0.0301705 0.0439313 0.090384 0.0371263 -0.111021 0.0713163 -0.0333693 0.0992651 0.0023719 -0.183648 -0.0217243 0.0684199 -0.116026 -0.149895 -0.0657167 -0.188433 0.0665234 -0.0885871 -0.229178 -0.0669146 -0.0115782 0.0479645 0.0374872 -0.102141 -0.0909947 0.0734721 -0.0599503 0.129941 -0.0879835 
5738 -0.127124 -0.0522235 -0.0802617 0.0720084 -0.166652 0.0726288 -0.00664007 0.0170376 -0.0515189 -0.0120265 -0.0459118 0.0893774 -0.0355292 -0.106945 0.131522 -0.0732036 0.0219071 -0.0398998 0.0472181 -0.00294742 0.0693053 0.0475209 0.00918907 -0.0624785 0.107221 0.0638726 -0.0971681 0.079095 -0.070258 0.243534 0.106827 0.0372037 0.102946 -0.0577268 -0.00944222 -0.0330257 0.0342526 -0.10038 0.121811 -0.262127 0.0873012 -0.0701059 0.0426046 -0.104463 -0.0446547 -0.0403854 -0.0546515 -0.159495 -0.0562957 -0.114982 0.123921 -0.108185 0.134282 -0.0702791 0.0344631 0.0230128 -0.00273737 0.0626189 -0.0129243 -0.00816838 -0.061534 -0.0933127 -0.0124611 0.0994522 -0.0202677 -0.0447502 -0.0280948 -0.0358175 0.0246836 0.0101281 -0.0983103 -0.0334378 0.064792 0.114467 0.00323732 -0.149731 0.0368757 -0.0381986 0.0981545 0.0340528 -0.191473 -0.0119639 0.0514549 -0.11138 -0.17836 -0.0628905 -0.226863 0.0557323 -0.0181937 -0.233032 -0.0405649 -0.0543695 0.0705007 0.0651964 -0.115084 -0.102442 0.121448 -0.10625 0.115773 -0.0662546 
8202 -0.887171 0.468444 0.260393 1.0689 0.254135 -0.0158589 -0.775503 -0.118713 -0.230694 0.654688 0.62653 -0.598792 -0.00885403 0.53535 -1.44952 0.806614 -0.259001 -0.0468861 -0.143544 -0.342533 0.225814 -0.601463 0.51804 0.0783961 0.028734 0.440792 0.911357 0.0110943 0.0727069 -0.862967 0.489802 -0.565994 0.092983 -0.185307 -0.419416 0.714997 -0.308354 -0.21991 -0.569344 0.930347 -1.10117 0.0534664 -0.618945 -0.41469 0.681174 0.59715 0.39447 -0.472002 0.182219 0.212255 -0.481635 -0.655079 0.160582 -0.818185 -0.379236 -0.0807067 -0.887237 -0.300933 0.203668 0.307782 0.27369 0.0694131 0.0359525 0.192867 -1.4399 0.0785052 0.0945246 0.181225 0.0455191 -0.277128 0.228887 1.00481 0.750383 -1.08625 -0.204608 0.109446 0.37223 -0.00484164 0.419616 0.516282 0.79324 0.422033 0.746199 0.2575 -0.204943 -0.309015 0.315329 0.109584 0.0923999 -1.09218 0.0516357 0.825352 0.770674 -0.165265 0.109738 0.322937 -0.680297 -0.733822 -0.613319 0.148831 
8552 -0.207421 0.0617706 -0.42689 -0.187817 0.545738 0.0916791 0.106146 -0.311321 0.605543 0.377556 0.101379 0.172562 0.280484 -0.324572 -0.436723 0.265363 -0.222384 0.107201 0.438898 -0.0935042 -0.423782 -0.301883 -0.0313217 -0.318012 -0.161356 0.312029 0.511043 -0.0643374 0.128592 -0.511931 -0.364466 -0.113379 0.127405 0.328263 0.773797 0.207068 -0.0956706 0.0804469 -0.103247 -0.019612 -0.908714 0.139173 -0.678524 0.483466 -0.91839 0.107633 -0.047155 0.20427 0.0148212 -0.128255 -0.0333074 0.00809588 -0.346365 0.235262 -0.0592257 -0.0582724 0.495343 0.321774 -0.127396 0.363626 0.319514 0.0552386 -0.370631 0.0842721 -0.774902 0.260089 0.153263 0.440427 0.469563 0.267861 -0.102727 0.616548 -0.201418 -0.408688 -0.0511662 -0.848454 0.13808 -0.870785 -0.174368 0.869676 0.266918 0.179601 0.0642238 0.383808 0.0535532 0.32313 0.675954 0.385065 0.358729 -0.638162 -0.0241947 0.102771 0.0843787 -0.510053 -0.248804 -0.458231 -0.583861 0.536801 -0.0834567 -0.280217 
7879 -0.471405 0.593661 -0.105979 0.83503 0.545875 -0.141725 -0.147039 0.0336955 -0.229032 0.520669 0.711131 -0.250319 -0.258061 0.574331 -0.457691 0.473415 -0.179076 0.0170409 -0.0523457 -0.425228 0.0729505 -0.935267 0.345123 0.123849 0.228345 0.357809 0.71906 0.0656449 0.354635 -0.714387 -0.439546 -0.367127 0.318314 0.0598208 0.0465147 0.332989 -0.403109 0.198461 -0.272732 0.230336 -0.646677 0.0498647 -1.08092 -0.00425799 0.193585 0.528884 0.23156 -0.0929532 -0.225568 0.226869 -0.249483 -0.43564 -0.132258 -0.654453 -0.31601 0.447705 -0.299668 -0.250155 0.328602 0.491169 0.0835639 -0.0962984 -0.220494 0.179632 -0.938179 0.0195082 -0.160272 0.572588 0.140224 -0.275675 0.625526 0.764538 0.618246 -0.945481 -0.788153 -0.529283 0.337221 -0.596607 -0.0124224 0.307443 -0.0180947 -0.14292 0.580518 0.0895789 0.639787 -0.120237 0.472463 0.65694 0.0262541 -0.745779 -0.132543 0.388088 0.381188 -0.0215609 -0.122821 -0.032097 -0.163993 -0.145437 -0.550725 0.284956 
8339 -0.251226 0.617777 0.812264 -0.00203825 0.198887 -0.454576 -0.471136 0.570512 0.625132 -0.0575336 0.631385 0.264041 -0.189538 -0.158766 -0.410074 1.18793 -0.0879128 -0.0684194 0.324449 -0.112521 0.440048 -0.0797015 -0.291544 0.246918 1.13986 0.232522 0.973707 -0.352621 0.875165 -0.447349 -0.604158 -1.08577 0.0393459 -0.0862146 -0.132337 0.831462 -0.911805 -0.174744 0.697979 -0.127658 -0.998811 -0.0239438 -0.940055 0.205732 0.226779 0.363474 0.264525 0.677034 0.119482 0.312897 -0.668863 -0.663953 -0.927801 0.115062 -0.296901 0.04946 0.967769 -0.0918105 0.449522 1.57176 0.559578 0.195837 -0.0990104 0.581837 -1.52651 -0.356941 0.424367 0.938534 0.267745 0.299094 0.122896 1.62144 -0.401292 -1.25687 -0.897173 -0.553273 0.491989 -0.781876 -0.395754 0.991186 -0.626953 -0.631425 -0.0809467 1.01455 0.0285029 -0.290156 0.659607 0.489584 -0.140273 -0.458593 -0.42898 0.0684459 0.526694 -0.633398 0.0875762 -0.138645 -0.192547 -1.08131 0.0418105 0.415261 
7599 -0.191936 0.228036 -0.105126 0.31419 0.187925 -0.00470103 -0.0331229 0.00834285 0.0282018 0.201443 0.308188 -0.0810998 -0.0995947 0.1561 -0.283117 0.257844 -0.0662447 -0.0632917 0.0958298 -0.131295 -0.00212955 -0.351455 0.159738 0.0114193 0.198801 0.150424 0.288664 -0.0228513 0.104002 -0.264445 -0.129149 -0.219086 0.146561 0.106827 0.0521815 0.164098 -0.224208 0.0998005 -0.0395358 0.0493719 -0.38754 -0.0205786 -0.470004 0.0494932 -0.0742991 0.168025 0.0212438 -0.09023 -0.115215 0.00165595 -0.0150397 -0.161087 -0.11237 -0.292296 -0.131523 0.199077 -0.0911453 -0.0971393 0.0755461 0.198441 0.00355081 -0.0713636 -0.104767 0.174041 -0.539508 -0.0668213 -0.0173513 0.264704 0.0736474 -0.0296622 0.181944 0.418844 0.308651 -0.373194 -0.376653 -0.347181 0.143707 -0.333893 0.0359377 0.218059 0.0159484 -0.0237524 0.29126 0.0805062 0.134168 -0.0676585 0.187943 0.424235 -0.0485489 -0.468857 -0.10944 0.11874 0.211895 -0.0208209 -0.126315 -0.117534 -0.132373 -0.104039 -0.137401 0.112464 
8232 -0.207925 1.11342 -0.390317 0.616335 1.3116 -0.196929 -0.17811 0.588998 0.570499 0.473155 0.377347 -0.281458 0.413388 0.771941 -0.659653 0.783583 -0.0429684 0.783938 -0.0346416 -0.218953 0.076689 -0.330373 -0.0994518 0.180674 0.191415 0.285412 0.123305 0.421453 0.555397 -1.07964 -0.460742 -1.08251 0.187136 -0.037327 -0.47757 0.875523 -0.754311 -0.549841 0.247501 0.571686 -0.997935 -0.394172 -0.571998 0.150815 0.0408761 0.75423 -0.160344 0.411034 -0.431371 0.128128 -0.279225 -0.67752 0.525443 -0.402802 -0.103624 0.419351 0.399645 -0.756894 0.902675 0.475227 0.507406 0.593752 -0.789519 0.357576 -1.31844 0.0443747 0.38068 0.615432 -0.104016 0.788359 1.08375 0.782092 0.337287 -0.577699 -1.16084 -1.03911 0.163314 -0.37297 -0.0400126 1.01549 0.708889 0.107398 0.447616 0.962362 0.47142 0.0540092 1.08734 0.555528 -0.592631 -1.28664 -0.751265 0.0569419 0.77107 -0.0949361 -0.733063 0.165194 -0.955819 -0.0945617 -0.553201 -0.0825904 
8201 -0.355106 0.597565 0.842825 1.01044 0.788054 -0.222504 -0.32625 -0.0589863 -0.549659 0.409081 0.85824 -0.248787 0.110546 1.02783 -0.480901 0.738382 0.0127594 0.322047 -0.371164 -0.0461144 -0.0751977 -1.70062 -0.0250273 0.374081 0.0135853 0.677001 1.12977 0.465959 0.198988 -1.1689 -0.217157 -0.527799 0.402603 -0.0483479 0.224344 0.810795 -1.01248 0.303683 -0.262943 0.664206 -0.880061 -0.112618 -1.64058 0.223043 0.462487 0.471992 0.315301 -0.511015 -0.685764 -0.0925261 -0.0376916 0.0134448 -0.465423 -0.7967 -0.169316 0.47326 -0.895839 -0.612698 0.922705 0.986193 -0.460092 -0.654921 -0.338707 0.121302 -0.750519 -0.212836 0.00318402 0.336055 0.225857 -0.212153 0.99838 1.10586 0.919605 -0.801315 -0.884877 -1.04775 0.440834 -0.720741 -0.379959 0.426665 0.371791 0.267966 0.628039 0.295334 0.382631 0.588232 0.636615 0.375023 0.309388 -0.957949 -0.587515 0.731603 0.226331 -0.219337 0.429595 -0.0920498 0.0368257 -0.434623 -0.501089 0.367818 
7880 -0.358073 0.410641 -0.0453911 0.506751 0.343274 -0.125039 -0.0711822 0.104535 -0.0850703 0.324626 0.472065 -0.154589 -0.0824865 0.396312 -0.405424 0.382966 -0.0736969 -0.134784 -0.0218944 -0.308957 0.0953718 -0.595983 0.196729 0.0588174 0.262625 0.215045 0.533337 0.0607497 0.189744 -0.533793 -0.152588 -0.259354 0.13848 0.105842 -0.00762737 0.398922 -0.342049 0.0295008 -0.11495 0.164917 -0.599526 -0.0402555 -0.675164 0.0187218 0.0594741 0.340476 0.0536409 -0.0811475 -0.237126 0.161559 -0.204783 -0.276874 -0.0679059 -0.434466 -0.188944 0.327279 -0.206683 -0.209812 0.256773 0.440287 0.00853841 -0.0975524 -0.193642 0.129288 -0.766248 -0.077077 -0.00545292 0.48657 0.0774289 -0.0580311 0.356482 0.544746 0.505386 -0.690683 -0.634197 -0.41302 0.176072 -0.403404 0.0374515 0.330069 0.0814956 -0.063934 0.4284 0.0909882 0.265547 -0.0457286 0.308847 0.49282 -0.0312511 -0.671779 -0.158952 0.237606 0.295262 -0.10072 -0.0983966 -0.0324139 -0.185884 -0.184904 -0.274927 0.128045 
7598 -0.0778958 -0.0208907 -0.0739135 0.16127 -0.0387556 0.0370755 0.0530786 -0.0147049 0.0166171 0.0461557 0.0437039 0.0336052 -0.0335766 0.00501309 -0.0595368 -0.000570089 -0.0414955 -0.0757567 0.0129059 -0.0333483 -0.00718825 -0.0863687 0.0419786 -0.0553348 0.126382 0.0992282 0.047601 -0.0140378 -0.0144821 0.0280811 0.0340046 -0.0605883 0.0575555 -0.00268745 -0.0231652 0.0574567 -0.100273 -0.00234672 0.0371814 -0.085577 -0.0813472 -0.0262212 -0.109593 -0.0119066 -0.0500962 -0.019339 -0.0429633 -0.0427557 -0.0712098 -0.0893387 0.0244218 -0.0878288 -0.0109152 -0.0788637 0.00262578 0.0635412 -0.0321817 -0.0369585 -0.0413648 -0.0115136 -0.0458689 -0.0650809 -0.02898 0.00572482 -0.144428 -0.0577657 0.0161211 0.0105133 0.0199017 0.0452139 0.0150553 0.0909794 0.121498 -0.0498553 -0.142682 -0.124042 0.0213642 -0.142433 0.0626011 0.0502442 -0.0262125 -0.00826464 0.125743 -0.0814382 0.00741225 -0.0111292 -0.0319089 0.151647 -0.0547645 -0.188472 -0.071515 -0.0104367 0.0255466 0.0377206 -0.103136 -0.0728447 0.0185038 -0.0563219 0.0490729 -0.0194584 
5903 -0.0170875 0.0125207 -0.0260338 0.0552984 -0.0149818 0.00609648 0.0182857 -0.0144203 -0.0176735 0.000242549 0.00675287 0.0232231 -0.0120696 0.00108846 -0.0299514 -0.00953922 -0.0129752 -0.0250907 0.00276747 -0.0278023 -0.0242683 -0.0082036 0.0303272 -0.0139687 0.0377228 0.0284519 -0.000528025 -0.00718821 0.00418967 0.00960851 0.00662316 -0.00746472 0.0187115 0.00544495 -0.0199323 -0.0202343 -0.0273078 -0.00633767 0.0229745 -0.0398247 -0.0194453 -0.0255899 -0.0166358 -0.00521761 -0.0028789 -0.0216247 -0.0114447 -0.0364322 -0.0284977 -0.0105604 0.0161307 -0.0477902 -0.00416972 -0.0308142 0.0114127 0.0111951 -0.015637 -0.0150914 -0.0119472 0.00196599 -0.0261893 -0.00831602 0.00536253 -0.00228599 -0.0432782 -0.0285344 0.00881989 -0.000516697 -0.0157003 0.0219421 0.000781788 0.0132316 0.03527 -0.011269 -0.0401404 -0.0254831 0.0010375 -0.0182752 0.0233382 0.0012279 0.00966686 -0.0149815 0.0353178 -0.0403534 0.0043243 -0.0116935 -0.00480627 0.0291056 -0.0185062 -0.0571085 -0.0149291 -0.00599411 0.0113478 0.00892806 -0.0472755 -0.0164984 0.0130721 -0.0104687 0.0206142 0.00557818 
6248 -0.0448499 -0.034179 -0.0701457 0.0867827 -0.0279232 0.0301845 0.0473923 -0.0357718 -0.00219226 0.0412651 0.0140888 0.0222755 -0.00626186 -0.00552579 -0.0479732 -0.0203034 -0.0262295 -0.0397975 0.00779865 -0.0228313 -0.0303056 -0.0455879 0.0207328 -0.0292691 0.0763913 0.0639605 0.0109427 -0.0272149 -0.0148989 -0.00173744 0.0261607 -0.0331975 0.0197664 0.0191874 0.00207534 0.0435598 -0.038679 -0.0114684 0.0266197 -0.0548263 -0.0444208 -0.00738712 -0.0893379 -3.18995e-05 -0.0241721 -0.0132785 -0.0462919 -0.0534803 -0.0248653 -0.0621618 0.0560373 -0.0249345 -0.0219966 -0.0566968 -0.0228321 0.0299393 -0.0125802 -0.0114453 -0.0155613 -0.0197297 -0.0232827 -0.0416983 0.000975029 0.00824817 -0.102433 -0.0308777 0.00943319 0.00200265 0.0242317 0.0478205 0.0065358 0.0546647 0.0547216 -0.0406586 -0.0695187 -0.0959045 0.0336021 -0.0724655 0.0285309 0.0539023 -0.0193698 0.00561131 0.0893886 -0.0418326 -0.0253272 -0.000225309 -0.0183699 0.104644 -0.0256067 -0.127907 -0.0279251 -0.0211668 0.00753265 0.0241825 -0.0892607 -0.0570061 -0.0052757 -0.0177784 0.0500175 -0.0368508 
4610 -0.048458 -0.0854593 -0.104704 0.0723777 -0.223639 0.0540179 0.139449 0.050268 -0.0495369 0.0333818 -0.0916423 0.0985256 -0.0355415 0.0516329 0.116947 -0.086846 -0.0209783 -0.0897942 -0.0853879 0.0461996 0.0345545 0.0315051 -0.0223697 -0.0644179 0.124339 0.0302463 -0.118027 -0.0604054 -0.0795437 0.263224 0.16601 0.0469149 -0.019471 -0.139077 -0.163363 0.0274368 -0.0800028 -0.0130893 0.0886069 -0.200223 0.124311 -0.0329192 0.0528143 -0.114542 -0.0303767 -0.0697836 -0.124737 -0.133112 -0.0822233 -0.131229 0.0331002 -0.122931 0.0102193 -0.223875 0.0512908 0.0357301 0.00716732 0.0155979 -0.0219971 -0.0802962 -0.0821867 -0.03367 -0.0583462 0.0350533 0.0676204 -0.0806438 -0.0576204 -0.118461 0.0139253 0.0766093 -0.160091 -0.135564 0.0461909 0.0453833 -0.0579459 -0.0564266 0.00522657 -0.0569252 0.0771374 -0.0417052 -0.100195 0.0476087 0.136208 -0.249445 -0.141473 -0.0664041 -0.260882 0.0876193 -0.0159821 -0.154069 -0.0293165 -0.0764149 -0.0105768 0.0655626 -0.157724 -0.0629526 0.163072 -0.107225 0.186619 -0.133325 
8236 0.481341 -0.4274 -0.372958 -0.0799771 -0.0161946 -0.423617 -0.277768 0.204074 0.0595176 -0.0919834 -0.206352 -0.088693 -0.567073 0.0281118 0.282684 0.0834361 -0.038225 -0.179931 0.777419 -0.233382 -0.394786 -0.203972 0.341522 0.392642 0.159447 -0.56432 0.494677 0.223501 0.453747 -0.476607 -0.0688305 0.124892 0.0776596 -0.288179 0.0248703 0.247732 -0.165134 -0.279313 -0.335282 0.55546 -0.133355 -0.0663923 0.0786627 -0.069256 -0.0077236 0.0672859 -0.134156 -0.191655 -0.189595 -0.417632 -0.303945 -0.0535592 -0.235731 -0.122905 -0.227884 -0.49275 0.0573955 0.520667 -0.0662031 -0.397533 -0.123188 0.0670435 -0.530392 -0.126656 0.259634 -0.222964 0.181415 0.199669 -0.0016293 -0.172722 0.0206493 0.185187 -0.320956 -0.279975 0.507996 0.0948374 -0.0956124 0.194999 -0.100145 0.100417 -0.217635 -0.0460316 -0.441229 0.188298 0.28493 0.338129 0.444761 -0.0381168 -0.0383511 0.141574 0.623731 0.429938 -0.170745 0.356839 -0.11208 0.137857 0.181243 -0.257795 -0.340786 0.232583 
8571 -0.282147 0.191776 0.221673 -0.627704 0.353713 -0.189823 0.265525 -0.127697 0.574187 0.337267 0.655451 -1.11149 0.279179 -0.415024 -0.0831118 -0.32339 -0.428624 0.59585 -0.898193 0.0375042 -0.615759 0.258317 0.133045 0.00287932 -1.03617 0.603266 0.0794464 -0.241019 0.209844 -0.216586 -0.0464661 -0.280392 -0.369365 0.882259 0.230799 0.0293399 0.241945 0.921487 -0.638302 0.615719 -0.655425 0.396337 -0.0596699 0.0455845 -0.772581 -0.248934 -0.249314 0.417491 0.166524 0.00252471 -0.443767 -0.600203 0.408273 0.201304 0.760552 0.294086 -0.668298 -0.0188867 0.152781 0.439374 0.422342 0.0984507 -0.431026 0.900689 -0.254942 0.221412 -0.414211 -0.234973 0.873831 -0.0612691 1.16043 -0.138237 0.126083 -0.241697 -0.784421 -0.387167 0.328861 -0.654399 -0.394388 0.282229 0.589424 0.263682 -0.280795 0.0186188 -0.431616 0.173487 1.4022 -0.585337 -0.10451 0.128243 -0.729386 -0.214857 0.489071 -1.0552 0.569003 -0.28276 -0.344513 0.392246 -0.644287 -0.196488 
8237 0.355192 -0.400108 -0.251968 -0.11854 -0.120233 -0.360666 -0.241823 0.232024 -0.00640781 -0.023054 -0.00883063 -0.179801 -0.710499 0.0285425 0.36617 -0.0455897 -0.0691503 -0.228044 0.79355 -0.239033 -0.254095 -0.132164 0.378743 0.424455 0.056208 -0.398939 0.359379 0.170974 0.444273 -0.219465 -0.0762445 0.123827 0.0588795 -0.110751 0.0656747 0.229809 -0.154124 -0.0773718 -0.263845 0.504542 -0.175191 -0.0837217 0.0856223 -0.163469 -0.0792248 -0.0816674 -0.0700168 -0.272742 -0.18475 -0.399151 -0.365239 -0.278336 -0.311249 -0.0740574 -0.219528 -0.455721 0.113522 0.460179 -0.0224394 -0.0935993 -0.174359 -0.0386399 -0.47368 -0.0252761 0.21704 -0.329175 0.174277 0.0311463 0.139589 -0.103571 -0.0110707 0.254467 -0.232986 -0.0691455 0.481321 0.271936 -0.0929192 0.0944548 -0.0550144 0.15431 -0.157044 0.00917589 -0.459406 0.216083 0.208401 0.336782 0.460164 -0.16397 -0.00142123 -0.00588428 0.475445 0.338467 -0.0624487 0.502905 0.00847818 -0.0150527 0.184798 -0.378034 -0.33303 0.336075 
6723 -0.217648 -0.090515 0.112375 -1.06375 0.0742501 0.505391 -0.0771767 0.125297 0.430423 -0.0533303 0.0609056 -0.379945 -0.532933 0.951784 0.233453 -0.102088 -0.120136 0.404287 0.521147 -0.985653 -0.497219 -0.199803 0.558869 0.796089 0.978562 -0.445973 0.607501 -0.0272156 -0.299014 -0.46912 -1.11082 -0.460631 -0.272321 -0.00959436 -0.442491 0.0130423 0.0795999 -0.51167 0.0597377 0.405362 -0.0438386 -0.116064 0.698828 -0.0517829 0.455647 -0.390454 0.846936 0.999582 0.581528 -0.165793 -0.0180724 -0.445191 -0.108119 -0.449675 0.328052 -0.436672 -0.755414 0.126356 0.610145 0.205865 -0.66669 -0.595974 0.344616 -1.03494 0.0824554 -0.270851 -0.0289885 -0.346848 -0.805628 -0.109687 -0.171789 0.41232 0.0354149 0.110955 0.637782 -0.319363 -0.929829 0.462197 -0.305536 0.25361 0.178767 -0.604891 -0.37319 0.0356695 0.35512 0.521671 0.8111 -0.127269 0.176296 0.684042 0.0101227 1.05881 -0.226905 0.77699 0.805729 0.0447618 0.864653 -0.182511 -0.232615 0.250917 
7161 0.0932752 -1.0772 -0.19041 -0.357044 0.0520176 0.517142 -0.610997 0.823788 0.140141 0.616251 -0.0847882 0.249521 -0.256493 -0.0502799 0.639492 0.110692 -0.186922 -0.538236 0.0358267 -0.202359 -0.0119542 0.0320018 0.614324 -0.0112695 -0.660312 -0.399203 0.468495 -0.363944 0.0417915 -0.573065 -0.11065 -0.187211 0.276645 -0.346189 0.555984 0.0556974 -0.360215 -0.111965 -0.514803 1.51647 -0.147937 0.0199001 0.183872 -0.0452516 0.182977 -0.250638 0.330447 0.341813 -0.787156 -0.108838 -0.306379 0.395789 0.664977 -0.53105 0.0695557 -0.274718 0.165781 -0.0604517 -0.704895 -0.224971 -0.139256 0.636046 0.0948157 -0.496564 -0.41363 -0.314233 0.190082 0.130292 -0.21185 -0.130434 0.205097 0.286022 -0.307322 -0.305528 0.00160618 0.00163343 -0.454282 -0.873488 -0.696798 -0.0931358 -0.215134 0.06134 0.19463 0.38226 0.704789 0.170644 0.398048 -0.377951 0.575951 -0.181829 0.0928568 0.358519 -0.108427 -0.00592698 0.107452 0.744343 0.0448106 -0.063562 -0.285668 0.483146 
6807 -0.120964 0.263279 0.370259 -0.357676 0.163165 0.540283 -0.283707 0.276985 0.58211 0.187533 -0.34401 -0.224216 -0.470444 0.785179 -0.0125029 0.134035 -0.171061 -0.239827 0.893104 -0.538278 -1.02154 0.00632444 0.0461838 0.545673 0.156718 -0.490713 0.627691 -0.164666 -0.0208714 -0.55045 -0.105368 0.414877 0.0415745 -0.298264 0.691893 0.455965 0.083718 0.556808 -0.239108 0.70079 0.292509 0.589266 0.680824 0.031794 0.0425925 -0.247299 0.487143 0.125848 -0.262793 -1.09741 -0.915045 0.154565 0.0444418 -0.3502 0.406847 -0.183294 -0.257463 -0.446339 -0.265926 -0.407636 0.00417427 0.497354 -0.188055 0.373469 -0.478771 -0.0310079 0.377549 0.124939 -0.731008 -0.0333888 0.396297 0.00719416 -0.185535 -0.3131 0.191577 -0.185091 -0.83358 0.0968643 -0.652265 -0.566328 0.283629 -0.314224 -0.275442 -0.571938 0.297175 0.0638673 0.301698 -0.109047 0.396694 0.272912 0.356904 0.894773 -0.317181 0.714825 0.356244 0.116237 0.226058 0.0919872 -0.557657 0.566802 
7974 0.267752 -0.395485 -0.0395708 -0.682025 -0.0110864 -0.0657111 -0.606911 0.543523 -0.472928 -0.24631 0.161885 -0.24145 -0.342439 -0.582368 0.350591 0.400655 0.126977 -0.287714 0.830251 -0.485116 -0.318499 -0.200588 -0.609509 -0.423513 0.144554 0.671287 1.04456 0.104754 1.02893 -0.668811 0.193926 -0.185331 -0.305195 -0.194653 0.586365 0.0518941 0.470903 -0.32384 0.23761 1.58725 -0.978615 0.33012 0.474179 -0.769138 -0.897838 0.0318726 0.0308307 0.138488 -0.152871 -0.195069 -0.496166 0.155832 -0.140973 0.76131 -0.527238 0.0987447 -0.263669 0.391697 0.185616 0.429045 -0.0935246 0.643701 -0.405144 -0.349109 -0.538068 -0.602631 -0.561242 0.236004 0.889787 0.457927 0.685233 0.253294 -0.110611 -0.10401 -0.420637 0.293817 0.375278 -1.01442 0.143633 0.569168 -0.412253 0.192673 -0.544153 0.0623658 0.624792 0.845323 1.14655 -0.51074 -0.0377077 0.146723 0.6311 0.14596 0.349954 -0.0898727 0.628292 0.353375 0.583607 -0.840038 -0.558387 0.0619066 
6722 -0.21897 -0.127903 0.22602 -1.09514 -0.0257114 0.610003 -0.0823727 0.245025 0.61927 -0.0788609 -0.0406662 -0.215552 -0.46657 1.03752 0.226998 0.0655826 -0.0631994 0.323131 0.448377 -1.05791 -0.478501 -0.26224 0.561029 0.823188 1.07592 -0.39994 0.600319 0.0562433 -0.393887 -0.605362 -1.13388 -0.304798 -0.258357 -0.089658 -0.414701 0.0422729 0.105466 -0.527564 0.187714 0.452719 -0.0141831 -0.0477114 0.607058 0.0845261 0.626506 -0.218002 1.00784 1.11666 0.47971 -0.12192 0.197542 -0.330964 -0.0662161 -0.493919 0.16787 -0.50848 -0.710712 0.132632 0.673132 0.132529 -0.587906 -0.44678 0.526786 -1.26818 0.0363074 -0.246117 -0.04879 -0.196892 -1.09541 -0.0860413 -0.10274 0.440291 0.0696615 -0.0182509 0.556768 -0.429266 -0.88403 0.519587 -0.357583 0.321266 0.210138 -0.505678 -0.276612 -0.00489138 0.466341 0.434702 0.597538 -0.187448 0.207851 0.608975 0.139095 1.10612 -0.214526 0.774139 0.815948 0.115171 0.858279 -0.0759388 -0.199294 0.164454 
8209 0.00426883 -0.337942 -1.40464 0.00192153 0.251545 -0.116925 0.0778589 -0.169893 -0.389437 -0.568756 0.604598 -0.619065 -0.099827 -0.271231 0.251331 0.148153 -1.04483 -0.565546 0.181113 -0.715408 -0.0246171 -0.243076 -0.20272 0.060752 -0.471466 0.78189 0.621198 0.204938 0.712634 -0.434092 -0.0358031 0.882448 -0.693537 -0.280067 -0.0782805 0.0293551 -0.0477274 -0.049546 -0.362695 0.891077 -0.887428 0.943721 0.310147 -0.587539 -0.35456 -0.358955 -0.355086 0.293849 0.064936 0.311714 -0.596801 -0.72165 -0.146257 0.50337 -0.502247 -0.855119 0.475788 0.361881 -0.0103553 0.20619 0.11383 -0.381329 -1.34766 0.241885 0.147769 -0.464284 -0.629304 0.519253 1.04842 -0.447688 0.335895 -0.0684658 -0.0433568 0.183577 -0.170788 0.882875 -0.160937 -0.878334 -0.826155 0.391418 0.241043 -0.0969799 -0.00260759 1.01675 0.546414 0.932742 1.55871 -0.692211 -0.322233 0.00126739 0.147965 0.364231 0.177403 -0.926942 -0.501958 0.544747 0.356665 -0.56933 -0.385446 0.330888 
8562 0.304119 0.599271 0.254349 -0.50064 0.957518 -0.290173 0.820464 -0.331721 0.109483 0.385244 0.39117 -0.574803 0.146769 1.11689 0.49246 0.730034 -0.203384 0.484748 -0.789684 0.305608 -0.0681141 -0.0083245 -0.279715 -0.489332 -0.711029 1.08581 -0.159645 -0.243532 -0.1024 0.0542438 0.220229 0.329431 -0.0746993 0.824563 0.944655 0.0182537 0.32822 -0.0418201 -0.677765 0.0764017 -0.696629 -0.0677596 -0.123238 0.116695 0.188304 0.511196 0.650568 0.436267 -0.0709559 0.367177 -0.661373 -0.00852698 0.399964 0.278665 0.112229 0.50083 0.295509 -0.271438 0.523385 0.422431 0.517113 0.598746 -0.113839 -0.38887 -0.281003 0.524973 -0.570056 0.205658 0.253944 0.23779 0.812338 0.313567 0.27778 0.297511 -0.394655 0.218602 -0.328711 -0.0227742 -0.451102 0.266386 0.595575 -0.222875 -0.142002 0.358885 -0.0685816 0.286764 0.572808 0.468367 0.102019 0.176252 0.0877277 0.296441 0.00350746 -1.23776 -0.0173564 0.0824031 -0.491993 0.761505 -0.46133 -0.496042 
8238 0.497202 -0.349182 -0.510864 0.079381 -0.0591825 -0.37744 -0.240317 0.0882735 -0.115467 -0.0832691 0.0108117 -0.45378 -0.706228 0.179638 0.307793 0.291718 -0.221365 -0.0368004 0.861731 -0.211349 -0.386365 -0.431047 0.131074 0.406085 0.00661058 -0.32125 0.504789 0.24741 0.50778 -0.274233 0.0307505 0.15973 -0.0180631 -0.120781 0.180982 0.186753 -0.228114 -0.20557 -0.483333 0.53911 -0.326603 -0.0634792 0.148463 -0.0877814 0.0387517 -0.0216144 -0.32444 -0.174092 -0.17185 -0.305078 -0.177058 -0.185513 -0.165095 0.0330094 -0.463611 -0.488215 0.125109 0.525823 -0.0438123 -0.157863 -0.0760821 0.0260276 -0.561705 -0.105539 0.175067 -0.119674 0.0334746 0.284665 0.152669 -0.317347 0.172769 0.204748 -0.236847 0.0556044 0.251152 0.417651 0.0907513 0.133123 -0.170027 0.245193 -0.13372 -0.0277914 -0.564633 0.180129 0.287694 0.439703 0.323588 0.0796596 -0.234653 0.313413 0.606011 0.438113 -0.0967042 0.0607883 -0.330402 0.240854 0.0567709 -0.290129 -0.365641 0.104735 
8526 -0.0090105 -0.0694155 0.267507 0.461634 0.48482 0.0494115 -0.368856 -0.551355 0.315136 0.408207 0.37082 -0.590387 0.946583 -0.190439 0.67862 0.58226 -0.221698 -0.318038 -0.38724 0.482467 -0.546214 -0.198733 0.362675 0.118922 -0.357749 0.511304 -0.00482879 -0.245663 0.467564 0.316434 -0.330351 -0.179461 0.298155 0.0390414 0.127344 0.467743 0.160013 0.326914 -0.0473013 0.013741 -0.221968 -0.0485185 -0.338257 0.239198 0.246519 0.144657 0.102077 0.535276 0.0150867 0.642267 -0.0121968 -0.0928273 0.0288816 0.0415467 -0.725364 -0.157383 0.417042 0.378541 0.490088 -0.231604 0.255016 0.296951 -0.103412 -0.165544 -0.0149436 0.430369 0.0127859 0.0726625 -0.173557 -0.137212 0.284141 -0.347013 0.0492726 -0.392044 -0.432975 -0.342528 -0.0904885 0.033795 -0.337825 0.567186 -0.0819291 -0.336817 -0.183596 0.153959 -0.0391969 0.029357 0.531871 0.145989 0.0879236 0.417488 -0.274973 -0.330115 0.534747 -0.661537 0.44981 0.0445986 -0.832685 0.309536 -0.980506 -0.189839 
6724 -0.181379 -0.178315 0.0699827 -0.924658 0.0655845 0.63625 -0.0573941 0.11809 0.39451 -0.187995 0.202138 -0.446674 -0.623081 0.798418 0.311377 0.0554376 -0.203341 0.311627 0.737053 -0.898028 -0.647631 -0.250174 0.448447 0.71676 0.946791 -0.325435 0.827248 -0.115818 -0.380236 -0.457637 -0.949459 -0.430768 -0.201939 0.0113234 -0.284497 0.0671619 0.076623 -0.605239 0.0222553 0.599807 -0.0699904 -0.148157 0.682762 -0.0996796 0.368146 -0.564773 0.861579 1.09699 0.343875 -0.354829 -0.0116417 -0.550431 -0.134369 -0.328592 0.123104 -0.620378 -0.609617 0.107671 0.578959 0.191354 -0.675323 -0.531027 0.430534 -1.06348 -0.0410844 -0.392196 -0.0582232 -0.17225 -0.726323 -0.175507 -0.0232968 0.576241 0.0792076 0.0899438 0.432215 -0.471797 -0.874882 0.236478 -0.34544 0.29391 0.170436 -0.491727 -0.361119 0.0125277 0.432473 0.52942 0.819325 -0.184336 0.15718 0.679674 0.109841 0.978151 -0.0864956 0.720989 0.67042 0.113307 0.887435 -0.371427 -0.313724 0.230478 
8574 -0.404145 0.0661389 0.298166 -0.703882 0.739593 -0.180237 0.385916 0.0137952 0.377439 0.435034 -0.544428 -0.474231 0.600468 -0.47591 -0.0501197 -0.441197 -0.702935 0.720043 -1.09479 -0.155964 0.367916 0.563087 -0.223563 -0.283206 -1.59285 -0.501288 0.0266288 0.11879 0.113998 -0.478618 -0.0402508 -0.254219 -0.0112904 0.548388 0.268272 -0.0244922 0.677426 0.620238 -0.175442 0.23861 -0.333558 0.573725 0.723158 0.182788 -0.124147 0.442029 0.0907463 0.0343358 0.383454 0.752472 -1.08871 0.462011 -0.23676 -0.224989 0.679233 0.861777 0.0940151 0.204687 -0.242682 0.30949 0.387058 -0.0242391 0.289635 0.0676627 -0.392837 0.545175 -0.487131 -0.782477 0.366242 -0.179386 0.328168 0.173216 0.276422 -0.271188 -0.513079 0.459229 0.0345958 -1.14336 -0.617247 0.316478 0.130111 -0.639843 0.225865 0.279139 0.0588302 0.0974648 0.33483 0.208582 0.512539 0.0757543 -0.638554 0.357896 0.385339 -1.22954 0.800356 0.138118 -0.30341 0.120606 -0.386421 -0.157446 
8533 -0.0526204 -0.151417 -0.599114 0.339316 0.878119 0.012369 0.18974 -0.202046 -0.0471943 0.227679 0.454126 -1.01267 0.427461 0.0802744 0.5102 0.548666 0.0731502 -0.701162 -0.650268 -0.126805 0.406989 -0.257439 -0.395903 -0.202626 -0.63623 1.07379 0.287753 0.24028 0.421829 -0.449975 -0.197581 0.330311 -0.170193 0.121093 0.425239 0.275994 -0.334107 0.260555 -0.42755 0.5265 -0.0876802 0.925668 0.574447 -0.0844694 0.135356 0.51716 -0.103569 0.228893 0.604977 0.359981 -0.51861 -0.0827861 0.194162 0.478793 0.0145028 0.372828 -0.537152 -0.193468 -0.487729 -0.235321 0.332132 -0.0823921 -1.19499 -0.31893 -0.109346 0.0767388 -0.871568 0.107998 0.419622 0.519916 0.507728 -0.162572 -0.190247 0.24356 -0.944333 0.273915 -0.365465 -0.385533 -0.278552 0.0689102 0.112599 -0.661137 -0.0651223 0.288634 -0.580754 0.21621 1.2667 -0.131632 -0.320075 0.563424 -0.232714 -0.177441 0.778897 -0.815828 -0.300959 0.2945 0.027021 0.110454 -0.482469 -0.230103 
8537 -0.481496 0.0502947 0.293862 -0.735753 0.222535 -0.0145599 0.30715 -0.310653 0.313816 0.463084 0.646648 -0.43129 0.778441 0.586279 0.0664594 -0.00428208 0.718252 -0.00313421 -0.679202 0.086788 0.388572 -0.49978 0.547246 -0.225173 -0.568169 0.959075 0.0671772 0.178282 0.728793 0.0853144 -0.437689 0.150045 0.364873 0.448097 0.60396 0.306968 0.153917 0.767195 -0.161021 0.251513 0.298483 0.227381 0.0523959 0.619904 0.0988922 0.771058 0.115016 0.058192 -0.0124804 1.36936 -0.351375 -0.309806 -0.283598 0.47202 0.16862 0.0207749 0.152417 0.135906 -0.345168 0.4929 0.50337 1.05357 -0.0236052 0.169099 0.0148201 0.411009 -0.158847 0.397417 0.47324 -0.121454 -0.0683366 -0.340121 0.234406 -0.383135 -0.289113 0.465737 0.232715 -0.527277 -0.52659 -0.165191 -0.0200673 0.0892943 0.120797 0.525812 0.364546 -0.069997 0.523448 -0.487407 -0.530448 -0.0755151 0.183774 0.0890664 0.0802505 -0.797433 0.110011 0.143581 -0.351279 0.392926 -0.418024 0.059508 
6815 -0.229431 0.000108089 0.148945 -0.0807098 -0.188418 0.420658 -0.0459385 0.0814366 0.287603 0.0253798 -0.0138849 -0.247918 -0.528789 0.248867 -0.0754228 -0.0682512 0.274792 -0.0116179 0.811007 -0.626816 -0.555891 -0.314816 0.0620949 0.513662 0.34693 -0.0398891 0.538729 -0.0829245 0.00623336 -0.777277 -0.229561 0.448951 0.0669552 -0.489623 0.42431 0.548722 0.115943 0.233343 0.0976895 1.00751 0.414469 0.493181 0.38474 0.0615043 -0.0923691 -0.13861 0.451277 0.244566 0.0379555 -0.764028 -0.445244 -0.100968 0.00399597 -0.31914 -0.398418 -0.444284 -0.0176531 -0.0972962 0.00372385 -0.362689 0.314625 0.551731 -0.169781 -0.447819 -0.166989 0.014826 0.1512 -0.0611575 -0.694886 0.0761918 0.496964 0.38067 0.248117 -0.0300921 -0.122118 0.13778 -0.666761 0.190295 -0.734535 -0.136037 0.240642 -0.553421 -0.20931 -0.411724 0.758962 0.474005 0.418079 -0.234187 0.129494 0.665334 1.03383 0.572025 -0.148415 0.690272 0.321304 0.0507698 0.615912 -0.11732 -0.449362 0.579809 
6791 -0.0781421 -0.0569049 0.0706867 -0.387898 -0.369044 0.232457 -0.259323 0.0635685 0.815571 -0.12249 -0.0823181 -0.327041 -0.468952 0.555196 0.0715816 0.163301 0.197066 0.339115 0.412102 -0.913431 -0.292909 -0.537263 0.403114 0.758267 0.431751 0.151181 0.761026 -0.118375 -0.193456 -0.600552 -0.373178 0.61786 -0.169706 -0.469995 0.0827933 0.223217 0.0499221 0.298657 0.335881 0.666287 0.413786 0.429701 0.0877957 -0.0269649 0.120234 0.0808566 0.152954 0.423503 -0.075645 -0.627109 -0.478978 -0.0264069 -0.0018448 -0.679549 -0.0910079 -0.442959 -0.536178 -0.352893 0.00485427 -0.0255313 0.468619 0.363596 0.239082 -0.731883 -0.307292 0.150945 0.209517 -0.100787 -0.879602 -0.0921074 0.584955 0.166117 0.143795 -0.0880339 0.139817 0.215351 -0.51089 -0.0734685 -0.684149 0.0579065 0.0174699 -0.186773 0.191246 -0.0635732 0.611905 0.810068 0.543648 -0.257009 0.0560991 0.818369 0.813037 0.4816 -0.111219 0.529009 0.499211 -0.250002 0.332757 0.153082 -0.729003 0.52364 
8556 -0.304316 0.215997 0.120757 -0.729156 0.949435 -0.030816 -0.679767 0.0973028 -0.0276682 0.491026 0.604786 -0.614163 0.360703 0.60065 -0.0834558 0.0851356 0.0514572 -0.128337 -0.501967 -0.309683 -0.092091 -0.37481 -0.0323501 -0.25197 -0.762075 0.694412 -0.19859 -0.653827 0.374455 0.319924 -0.380397 0.293717 -0.46254 0.24745 0.75143 0.48667 -0.0841032 0.410834 -0.210187 0.866397 -1.2645 0.302807 -0.322587 -0.340581 0.202109 0.928101 0.571585 0.788512 0.106034 0.428521 -0.358323 0.127924 0.298095 0.506053 0.0602373 0.495508 -0.0358753 -0.196958 -0.0130653 0.621607 0.0706765 0.657962 -0.866522 0.516334 -0.177008 0.149646 -0.10244 -0.315708 0.401331 -0.0781742 0.542068 -0.491383 0.154892 0.0420605 -0.517401 0.577654 -0.0654164 -0.623081 0.391186 -0.41048 0.0439469 0.230206 -0.252701 0.478336 -0.300646 0.0027082 0.911291 -0.465537 0.152798 -0.211086 -0.721735 -0.340054 -0.181065 -0.388511 0.548664 0.119785 -0.706241 0.470393 -0.228718 -0.578218 
6749 -0.303722 -0.213798 0.401351 -0.868134 0.16385 1.10956 0.103401 -0.0451475 0.463005 -0.0900128 0.0463862 -0.236147 0.00435891 0.853153 0.19341 0.14723 0.24183 -0.164452 0.491653 -0.769904 -0.511581 -0.320486 0.356872 0.736267 0.806786 0.223925 0.617569 -0.242405 -0.299272 -0.618581 -0.892409 0.169255 -0.702622 -0.536251 0.0501972 0.215272 0.0957445 0.135397 0.155005 0.601715 0.00213274 0.276063 -0.246643 -0.811627 -0.0343823 0.0936496 0.386936 0.693708 0.519391 -0.330903 -0.250603 -0.23033 -0.355175 -0.369999 -0.337229 -0.146506 -0.555043 -0.0899714 0.0663817 0.14534 0.166085 0.109054 0.332439 -1.00517 0.152098 -0.140868 0.176611 -0.225404 -0.719689 -0.218793 -0.0122797 0.498155 0.17575 0.165855 0.123229 0.129995 -0.62865 -0.132543 -0.146094 -0.0252339 0.410723 -0.471767 0.117682 -0.00925029 0.678505 0.778735 0.7388 -0.0318057 0.325349 0.557058 0.249591 0.460761 -0.413022 0.473538 0.38539 -0.630224 0.806055 -0.171662 -0.285622 0.688951 
7752 0.411134 -0.878236 -0.0117517 0.0813935 -0.609149 -0.394608 -0.602174 0.542238 0.00314427 -0.192953 0.49113 -0.303968 0.111423 0.364101 0.462652 0.207326 0.151606 -0.724369 0.128234 -0.053137 -0.535626 -0.0696988 -1.11201 0.314928 0.27777 0.375788 0.494609 -0.0437274 0.675719 -0.300393 0.338308 0.219395 -0.415745 0.136123 0.184002 0.22757 0.784276 -0.26654 -0.276901 1.06289 -0.552605 -0.292464 0.19831 0.275274 -0.214053 0.458173 0.365728 0.432509 0.0138924 0.303948 -0.744959 0.143524 0.459432 -0.0052415 -0.134557 -0.177497 0.259571 0.202847 -0.103909 -0.392785 0.763196 0.30885 -0.479482 -0.468865 -0.436398 0.299987 0.559999 -0.169933 0.254044 0.393829 0.710072 0.308734 -0.142782 -0.822062 0.0432307 0.159308 -0.511326 -0.081792 -0.153408 0.15481 -0.497183 0.80091 -0.683184 0.101317 0.786419 -0.413414 0.417007 -0.530151 -0.312595 -0.5549 0.144416 0.876142 -0.392666 -0.302409 0.387194 0.349133 -0.163239 -0.512606 -0.353385 0.607388 
6839 0.662114 -0.810553 0.929915 0.0672307 -0.0452443 0.644137 -0.169383 0.152635 0.112417 0.0427169 0.0496069 -0.352987 -0.0455876 0.132679 0.474945 0.316467 0.0249234 -0.515423 0.861566 -0.306817 -0.976736 -0.306503 0.171147 0.464167 -0.0508007 -0.339984 -0.529021 -0.586787 0.185868 -0.739102 0.00667187 0.172274 -0.146487 0.822798 -0.508116 0.628479 -0.271363 0.226042 -0.0740103 0.642928 -0.256979 0.225707 -0.164798 -0.155525 -0.203646 0.530664 0.519038 -0.135316 -0.19193 -0.27338 -0.311705 -0.0696664 0.1404 0.153647 -0.48759 -0.236424 0.430726 0.0244922 -0.521795 0.0303624 0.225791 0.535205 -0.693832 -0.596201 -0.105563 -0.189448 0.134738 0.28527 0.419567 0.156023 0.63519 0.234174 0.126336 -0.266125 0.016991 -0.252226 -0.753513 -0.126467 -1.21356 -0.0982591 0.203815 0.674056 0.491724 0.268295 0.886288 -0.142218 0.277806 -0.810687 -0.477633 0.484019 0.763192 0.277657 0.166881 0.513369 0.863806 0.176819 0.365404 0.57777 -0.131094 0.479088 
7366 0.273917 -0.858123 -0.799644 -0.471656 -0.0575029 0.261705 0.108547 0.259224 -0.0117492 -0.832545 0.493731 -0.0167562 -0.341973 -0.249482 0.432638 0.486892 0.119438 -1.12458 0.748799 0.511459 -0.327028 -0.441715 -0.13607 0.309294 -0.491905 0.0924706 0.571734 0.492791 1.28096 -0.738279 -0.340412 -0.0432026 -1.14376 -0.00724099 -0.399934 0.162812 0.212809 -0.626884 -0.272063 1.21769 -1.18144 -0.346773 0.913747 -0.0219319 -0.44272 -0.734025 -0.392294 0.246403 -0.0775909 0.119203 -0.248398 -0.32707 0.0476824 0.660785 -0.182058 -1.05578 -0.28968 0.120113 -0.412221 0.111354 0.503236 0.588292 -0.705255 -0.283209 -1.01049 0.501095 0.465444 1.50756 0.789648 -0.0637789 1.09751 -0.846325 -0.160612 -0.114591 -1.03555 -0.123835 -0.537538 -0.040949 -0.71353 0.253664 0.502599 0.341905 -0.0861495 -0.0856235 0.782102 0.917363 1.07638 -0.650468 0.148172 -0.598904 0.15648 0.713269 -0.259628 0.163817 0.0641346 0.221879 0.437121 -0.367272 -1.03726 -0.480927 
8239 0.19542 -0.47546 -0.318194 -0.205714 0.293994 -0.368652 -0.467885 0.0728423 -0.332009 -0.44202 0.0700029 -0.366612 -0.161486 0.130238 0.045086 0.262108 0.125964 -0.242549 0.659898 0.047696 0.158555 -0.184443 0.242912 0.129754 -0.133665 -0.0356841 0.346256 0.554665 0.625713 -0.351357 -0.24677 0.240459 -0.115023 -0.519011 0.202162 -0.0575743 -0.177933 -0.126784 -0.0252533 0.548879 -0.237621 -0.0712844 0.0749123 -0.18431 0.0759611 0.55039 -0.328778 -0.0301867 0.00858375 -0.0277975 -0.305231 0.0233886 -0.216079 0.377838 -0.5938 -0.395401 0.0557734 0.42221 -0.126313 0.0952125 0.106229 0.329416 -0.685458 -0.310697 0.238846 0.143144 -0.00411072 0.317144 0.355046 -0.36038 0.0434544 -0.0649209 -0.204337 0.392192 -0.0927306 0.705315 -0.0908673 -0.0316331 -0.205206 0.307401 -0.353449 -0.26867 -0.393807 0.44192 0.336608 0.0906827 0.275286 0.190775 -0.0556207 0.33796 0.259119 0.0877519 -0.0731286 -0.59393 -0.23345 0.290037 -0.203722 0.022139 -0.131654 0.21295 
8217 0.200761 -0.505632 -0.836924 -0.177941 0.770608 -0.682861 -0.0277501 -0.3978 -0.120706 0.403528 0.296971 -0.791243 0.153591 0.28999 -0.0367682 0.236132 -0.440097 0.351119 0.337357 0.307615 -0.194611 -0.328412 0.0907676 0.0211886 -0.509945 0.338684 0.514467 0.621473 0.689222 -0.451412 -0.626709 -0.0753717 0.0132547 0.262852 0.592505 0.207661 -0.237061 0.159732 -0.589323 0.854988 -0.5474 0.63848 0.639697 -0.0086848 0.143493 -0.344082 -0.457717 0.350468 -0.316166 0.46976 -1.06956 -0.327224 -0.0561375 0.866302 0.0762801 -0.493248 -0.393644 -0.0938298 -0.52319 0.279457 -0.346619 0.180492 -0.963514 0.33942 0.0462746 0.0425367 -0.48452 0.474899 0.837746 -0.166125 0.111621 0.00352544 -0.532894 0.79067 -0.500677 0.540129 -0.0563489 -0.487331 0.0231043 0.231622 -0.679239 -0.0856805 -0.489514 0.113169 -0.234627 0.291317 0.876415 0.138955 -0.152537 0.668245 -0.637495 0.109674 0.015818 -0.924284 -0.432916 0.356409 -0.831153 -0.345397 -0.582974 -0.00737611 
7730 0.305669 -0.351187 -0.629001 0.163041 0.189792 0.113848 0.33825 0.0034245 0.40561 0.501855 -0.191533 -0.323885 -0.243548 -0.488037 0.285421 0.263459 -0.0295535 -0.933715 0.533321 -0.525894 -0.00691935 -1.17426 0.127731 0.399204 0.112804 -0.108525 1.021 -0.14442 0.647356 -0.292828 -0.370878 -0.157942 -0.240698 -0.0801203 0.652197 0.148603 0.722282 -0.769998 -0.00124512 1.22396 -1.27465 -0.654741 -0.400162 -0.696075 0.0293715 -0.0596423 0.00353272 0.119694 -0.445044 0.431408 -0.508011 -0.629708 -0.124038 0.244068 -0.23648 0.188509 0.284496 0.725715 -0.752662 0.219647 0.00470655 0.374452 -0.320347 -0.00253714 -0.783557 0.578329 0.254143 0.0723431 0.492925 -0.17384 0.524312 0.380105 -0.153927 -0.0381419 -0.174183 1.04096 -0.267112 0.241503 -0.81727 0.611009 -0.259205 -0.0737983 -0.107802 -0.20128 0.420349 -0.144551 1.11567 -1.22626 -0.11003 -0.503518 0.442908 -0.00156853 0.54209 -0.147022 0.662093 0.443081 0.390601 -0.0987486 -0.0402995 0.626924 
7233 -0.091052 -1.11754 0.0534402 0.0198314 -0.722656 -0.16236 -0.133337 0.308022 0.392707 0.319767 0.0174377 0.277526 -0.0052828 -0.12413 0.99821 0.718668 0.0478727 -0.873774 0.599529 -0.404802 -0.137603 0.167544 0.291008 0.0294459 -0.642077 -0.274681 0.460921 0.421419 0.106838 0.0573629 -0.34104 0.437512 -0.779085 0.0267702 0.278466 0.399579 0.0648397 0.583552 -1.04358 1.13227 -0.436441 -0.157585 0.0667714 0.243765 -0.0508126 0.412514 0.118627 0.286015 -0.1751 -0.615816 0.215926 -0.229333 -0.339558 0.040605 0.0501725 -0.225358 -0.288871 -0.267732 -0.423094 0.369423 0.512614 0.846462 -0.000680017 -0.752807 -0.767026 0.22708 0.128635 0.528227 0.651373 -0.554944 0.727661 0.262478 0.24002 -0.826197 -0.0836496 -0.455064 -0.118201 0.650725 -0.796386 -0.342481 0.182195 0.49032 0.0500909 0.215292 0.806986 0.0883595 1.29312 -0.484937 1.14728 0.162793 0.407149 0.430955 0.399773 -0.0715288 0.443291 0.421663 0.270595 -0.270756 -0.1342 -0.0938652 
8240 0.15983 -0.250847 -0.299477 -0.0979199 0.603883 -0.690704 -0.278794 -0.143624 -0.533498 -0.251319 0.278069 -0.201868 0.0119285 -0.226257 0.164116 0.317815 -0.227161 -0.0638825 0.375326 0.355318 -0.0649859 -0.257741 0.280614 0.317256 0.0211083 0.198245 0.487287 0.375138 0.686268 -0.239665 0.10242 0.270181 0.0097483 -0.173133 0.376568 -0.0350808 -0.498317 -0.304825 -0.306348 0.138397 -0.655322 0.0408653 -0.292764 -0.445163 0.0672017 -0.0419142 -0.269035 0.0688284 -0.224698 -0.228143 -0.213233 0.258013 -0.131691 0.697003 -0.582853 -0.504337 -0.0277409 0.0153604 -0.07053 0.0377043 -0.0955871 0.39886 -0.835948 0.194539 0.405952 0.201957 0.0540875 0.30168 0.564084 0.0542446 0.23864 -0.0709708 -0.155761 0.0121246 -0.172087 0.532222 -0.127441 0.24259 0.113939 -0.000373633 -0.267942 -0.0111687 -0.439616 0.424916 0.490654 0.000315792 0.496599 0.0551399 0.140379 0.0948969 0.321011 0.0283857 0.0991355 -0.450324 -0.149749 0.377265 -0.268288 0.0767513 -0.316847 0.220016 
6831 0.111188 -0.271795 0.372701 0.198196 -0.626336 0.522628 -0.112034 0.104502 0.664649 0.114344 0.0960248 -0.10841 -0.0614225 0.173885 -0.157611 0.0690439 -0.314092 -0.368678 0.52559 -0.0800091 -0.873581 -0.455576 0.393532 0.394589 0.510414 -0.704499 0.475947 -0.573681 0.270636 -0.641616 -0.0312195 0.289034 -0.35948 -0.272419 -0.0135824 0.680228 -0.251464 0.395802 -0.0119267 0.674241 -0.251752 -0.309441 -0.0860578 -0.0642055 0.139316 0.0726776 0.583301 -0.0379809 -0.466836 -0.478662 0.0315918 0.0794954 -0.134328 0.0191001 -0.345146 -0.535259 0.0127493 -0.327637 -0.18431 -0.515804 0.207985 0.729146 -0.617826 -0.602185 -0.220434 0.438317 0.744738 0.372117 -0.136184 -0.435261 0.51541 -0.147872 0.26715 -1.04435 0.140357 -0.174994 -0.640845 0.405091 -0.923211 -0.514549 0.38757 0.228298 -0.00505631 -0.190933 0.699677 -0.245087 0.407443 -0.543582 0.47548 0.024903 0.929277 0.863153 -0.10858 0.446952 0.586928 0.176914 0.42531 0.382681 -0.0515454 0.428111 
8535 -0.285358 -0.245313 -0.366753 -0.311997 0.296717 0.0132075 -0.273392 -0.127678 -0.456362 0.17059 0.772727 -0.000270975 0.757703 0.623809 0.115883 0.356625 0.134647 0.11599 -0.577156 0.0555534 0.0175222 -0.409536 -0.142844 -0.162455 -0.762571 0.547357 0.47677 -0.268152 0.563063 0.13671 -0.256074 -0.2086 -0.465934 0.5513 0.456784 0.488141 -0.37227 -0.000773835 -0.229249 0.294471 -0.633753 0.193331 -0.0280663 -0.0344011 -0.0815396 0.490267 -0.131974 0.385309 0.389454 0.925742 -0.769985 -0.182192 0.102539 -0.234973 -0.0513837 0.702771 -0.0649937 -0.419712 0.0933221 0.100123 0.0597835 0.669269 -0.0459642 0.609858 0.434637 0.367131 -0.717711 0.0759072 0.608417 0.37641 0.537075 -0.200066 0.825593 0.00860643 -0.51804 0.108364 -0.134365 -0.0315858 0.0500871 0.741788 0.173138 0.126915 0.76389 0.648982 0.158234 0.436183 1.24654 -0.0892112 0.646179 0.314218 -0.330839 -0.175568 0.309709 -0.663503 0.215635 0.539372 -0.539679 0.343297 -0.238914 -0.338288 
6725 -0.11534 -0.456273 0.0724616 -0.913508 0.187827 0.637446 0.164958 0.126025 -0.17645 -0.132864 0.453162 -0.451307 -0.13042 0.748596 0.152419 -0.0986297 -0.0751908 -0.191114 0.32752 -0.407732 -0.378283 0.0464315 0.556256 0.85813 0.670215 -0.290651 0.504843 0.0193802 -0.368985 -0.365815 -1.23955 -0.0445521 -0.584053 -0.000598897 -0.101046 0.0424142 0.231651 -0.543711 0.169238 0.426574 -0.281231 -0.51462 0.519505 -0.328851 0.204667 -0.218658 0.59511 0.665879 0.467536 -0.0454628 -0.0530352 -0.449095 -0.0332301 -0.122839 -0.129648 -0.696193 -0.668053 -0.0248755 0.157289 0.450382 -0.440481 -0.205379 0.186358 -0.862868 0.0863733 0.0972718 0.256467 -0.187223 -0.225797 -0.277665 0.231631 0.346122 0.146171 0.228336 0.198046 0.0429327 -1.15421 0.701968 -0.413675 -0.220078 0.103861 -0.484857 -0.201668 0.193167 0.567336 0.162759 1.16256 -0.365522 0.446547 0.672498 0.00266509 0.960833 -0.0145085 0.594806 0.672095 0.14363 0.955926 -0.0719913 -0.0397595 0.402525 
6824 -0.106097 0.221504 0.294337 0.331541 -0.542721 0.631765 -0.748653 0.214733 0.0498815 -0.0907009 -0.163934 -0.638753 -0.316736 -0.0953505 -0.321232 -0.229959 0.353344 -0.0584273 1.0515 -0.390761 0.0620702 -0.394767 -0.0631414 0.214588 0.0115982 -0.0967512 -0.0345444 0.334802 0.358763 -0.69912 0.442226 0.30642 -0.579308 -0.326979 -0.122138 0.935175 -0.135076 0.406699 -0.742672 0.680357 -0.859569 -0.146165 0.247081 -0.252042 0.204407 0.0339334 0.632171 0.0170708 -0.0898152 -0.11207 -0.0673151 0.0698797 -0.480373 0.0934289 0.0156675 -0.418167 0.0373017 -0.518401 -0.204137 -0.269068 0.0225929 0.820306 -0.857367 -0.696475 -0.36714 0.12274 0.137209 0.499169 -0.393976 -0.511419 -0.284698 0.126628 0.585636 -0.207911 0.0715386 -0.367471 -0.43685 0.861595 -1.32768 0.0701868 -0.12974 -0.297333 -0.391079 -0.153246 -0.309129 -0.197984 0.66078 -0.552739 0.137338 -0.353385 0.645088 0.369304 -0.176308 0.257478 0.892727 0.0318568 -0.107244 0.318005 -0.13302 0.644931 
6833 0.256708 -0.374356 -0.10133 0.403074 -0.128806 0.699658 0.0589241 0.809197 -0.0586603 0.299636 -0.410955 -0.471812 -0.151019 0.21651 0.094434 0.200774 0.362221 -0.33507 1.15985 0.279128 -0.437587 -0.118655 -0.38362 0.29937 -0.348249 -0.79357 0.246097 0.147341 0.115739 -0.637422 -0.199058 0.301112 -0.913363 0.0685369 0.150589 0.56576 -0.151794 0.24954 0.24795 0.77163 -0.213296 -0.0407264 0.248477 0.322788 -0.395296 -0.384619 0.848469 0.14031 -0.134444 -0.194975 -0.343687 0.0497763 -0.480688 -0.46591 0.334147 0.288858 -0.0669051 -0.289517 -0.236783 -0.318144 0.148529 0.644617 -0.455157 -1.12436 -0.0372648 -0.180881 0.468406 0.359136 -0.0622251 0.203889 0.17443 -0.384914 0.222044 -0.566512 -0.115629 0.603746 -0.483139 0.237293 -1.05881 -0.0896198 0.549991 0.61339 -0.185557 0.357838 0.18322 0.0165429 0.491204 -0.68717 0.645413 0.094991 0.527178 0.190216 0.233427 0.00287564 0.557879 0.346143 -0.317198 -0.312869 0.223602 0.789341 
8241 0.161988 -0.339633 -0.316507 -0.345513 0.385653 -0.778404 -0.205317 -0.243854 -0.498908 -0.280595 -0.017387 -0.39826 0.30247 -0.291758 -0.292579 0.303672 -0.143617 -0.0997566 0.513966 0.400303 -0.149555 -0.136496 0.110203 0.292631 -0.458431 -0.135317 0.574818 0.377638 0.475673 -0.507977 0.0258834 0.0378686 0.298526 -0.545842 0.00110408 -0.103236 -0.173603 -0.329184 -0.456025 0.422573 -0.415438 0.061934 -0.2414 -0.478727 -0.415369 -0.192676 -0.26834 -0.236992 0.15385 0.0905023 -0.344428 0.307177 -0.136595 -0.00469985 -0.641311 -0.0843624 0.112684 -0.0227341 0.11132 -0.0313476 -0.334659 0.554439 -0.664523 -0.0818752 0.271878 -0.0260804 -0.165506 0.277914 0.1485 -0.222417 0.446741 -0.335206 0.079797 -0.245105 0.248822 0.227148 -0.00845169 0.0387291 -0.0215229 0.357796 -0.287526 -0.223262 -0.511269 0.367248 0.0682368 0.0120977 0.72325 0.251909 0.0876437 0.249379 0.274987 0.399876 0.126054 -0.673157 0.00493246 0.26099 -0.199856 0.145741 0.0290011 -0.103267 
6809 -0.167239 -0.151714 0.32501 0.00910086 -0.253065 0.265554 -0.121318 0.0714777 0.330206 -0.00335432 -0.0305082 -0.119245 -0.109343 0.393634 -0.567109 -0.0874077 0.135923 -0.117897 0.891221 -0.237099 -0.549405 -0.151257 -0.0151435 0.71538 0.252678 -0.310067 0.379696 -0.0334349 0.0493188 -0.723181 -0.335067 0.51622 -0.365829 -0.689366 0.228689 0.704762 0.0333589 0.222386 -0.0807575 0.912878 0.189178 0.0539281 0.248566 0.014345 -0.107762 -0.162034 0.573435 0.135018 0.226423 -0.639802 -0.281123 0.0565083 -0.262265 -0.116064 -0.331436 -0.459822 -0.238664 -0.47076 -0.22906 -0.159882 0.362349 0.735749 -0.556335 -0.339597 0.0467225 0.207344 0.609904 -0.0117387 -0.393523 -0.019755 0.76117 0.129752 0.30872 -0.207345 -0.0823496 -0.0252431 -0.936379 0.842838 -1.22121 -0.543253 0.325026 -0.257205 -0.14405 -0.342339 0.688762 -0.043945 0.52659 -0.444951 0.649533 0.276443 0.657534 0.874441 -0.0519103 0.418637 0.541777 0.0652432 0.419088 0.3974 0.0862082 0.676513 
6843 -0.243517 -0.405556 -0.0237515 0.761219 0.18657 0.706406 -0.259158 -0.0183108 0.0777258 -0.427025 -0.151404 -0.63203 -0.72035 -0.215992 0.455939 0.245147 -0.298206 -0.24664 1.30941 -0.657496 -0.300388 -0.368051 -0.0900949 0.681275 -0.210418 -0.203163 1.12163 0.162223 0.395405 -1.08526 0.39642 0.392078 -0.586305 -0.0103601 -0.931403 -0.172912 -0.764942 -0.417426 -0.934827 1.41261 -0.282449 0.719394 -0.254983 -0.217017 -0.305259 -0.744786 0.180566 0.0459379 -0.286312 -0.486422 -0.621623 -0.694249 -0.0104994 1.01469 -0.250744 -0.558529 -0.48459 0.595848 -0.117282 -0.0505937 -0.152505 0.583171 -0.436762 -0.704992 -0.641818 0.301731 0.524958 1.08853 0.592256 -0.345373 0.329988 0.175213 0.328901 -0.287315 -0.525766 -0.169143 -0.820029 -0.953982 -0.77856 -0.207618 -0.403277 1.30693 0.107887 -0.217489 0.365671 -0.176284 0.463118 -0.710689 0.465145 0.760996 0.479959 1.28492 0.388895 -0.231521 0.186647 0.405737 0.0467277 -0.197382 -0.703337 1.03977 
8563 -0.762963 0.30151 0.695842 -0.585733 0.470149 -0.172082 0.179233 -0.506026 0.517225 1.0975 -0.111575 -0.0739933 0.816115 0.088856 0.568264 0.232488 -0.162617 -0.120191 -0.757605 0.151645 -0.497601 -0.71967 -0.294825 -0.484929 -1.77889 0.958263 0.279106 -0.637987 0.000530346 -0.0744942 0.281581 0.213748 0.43157 0.422957 0.313074 0.231503 0.138216 0.916131 -0.565695 0.986623 -0.667343 0.387063 0.1352 0.41129 0.610438 0.0468115 0.46925 0.690116 -0.13401 0.353887 -1.38093 0.169097 0.0355821 0.132485 0.486547 0.569818 0.129827 0.404797 0.116069 0.392733 0.334469 0.346152 0.246663 0.00989486 -0.266007 0.105971 -0.424001 -0.295539 0.210049 -0.14598 0.281714 0.0443255 -0.370762 0.165852 -0.3002 -0.678172 -0.469944 -1.02799 0.0299194 0.32088 0.436117 -0.120052 -0.289203 0.471308 0.211856 0.551267 0.388636 -0.425892 -0.217976 0.61637 -0.68838 -0.113805 -0.159985 -0.582493 0.536493 0.163433 -0.988176 0.0700096 -0.272408 -0.358973 
8242 0.117568 -0.301933 -0.16881 -0.372984 0.133249 -0.85975 -0.291344 -0.254198 -0.408368 -0.0763367 0.0255123 -0.293008 -0.00854483 -0.0606214 -0.370922 0.107092 -0.122437 -0.0571153 0.711741 0.0425953 0.382072 -0.263436 0.214607 0.569302 -0.835902 0.0235573 0.323341 0.369092 0.547008 -0.488354 -0.256509 0.245314 0.105734 -0.520377 0.279255 -0.268829 -0.00379941 -0.155396 -0.357987 0.341779 -0.634835 -0.199004 0.145703 -0.0286228 0.0786855 0.409791 -0.270944 -0.12661 -0.0491092 0.363437 -0.571241 0.395073 -0.119499 0.065381 -0.327254 -0.332924 -0.0965011 0.458763 -0.0272575 0.159078 0.218439 0.272154 -0.442481 -0.0501151 0.693499 -0.296095 -0.083135 0.564399 0.368928 -0.208754 0.210071 -0.424102 0.302197 0.261777 0.406896 0.439535 -0.0330586 0.0489827 -0.0131942 0.119766 -0.0992251 -0.37219 -0.362088 0.450201 -0.0355405 -0.0341659 0.369863 -0.0113103 -0.0181921 0.265721 0.139758 0.188148 0.210647 -0.623948 0.0328703 0.428589 -0.464241 -0.0864436 -0.669359 -0.182657 
6793 -0.137732 -0.0249584 0.242975 -0.0530255 -0.392104 -0.0404184 -0.139093 -0.133494 0.6056 -0.0174434 -0.169434 -0.277687 -0.379526 0.218378 -0.225954 -0.0631189 -0.0301832 -0.314291 0.663327 -0.47086 -0.290879 -0.449185 0.434787 0.872926 0.27347 -0.22257 0.381864 -0.405178 -0.152045 -0.758242 -0.237567 0.433735 -0.60812 -0.556385 -0.197102 0.326614 -0.193579 0.0996888 0.134269 0.669856 -0.117241 0.157911 -0.447336 -0.00499841 0.226032 0.0370869 0.304762 0.195847 -0.348204 -0.684371 -0.451385 0.438112 0.213123 -0.708404 0.0247839 -0.146818 -0.387586 -0.597797 -0.500229 0.0518252 0.379489 0.507938 0.043502 -0.599986 -0.0152365 0.210148 0.472795 0.0970037 -0.464702 0.0208599 0.719928 0.00370208 0.363952 -0.249559 0.14644 0.0106166 -0.988414 0.450603 -1.0579 -0.481149 0.209312 -0.0593927 -0.0905387 -0.0817531 0.31071 0.26818 0.859497 -0.153034 0.436855 0.919031 0.908176 0.758553 -0.147721 0.152024 0.659779 -0.129509 0.167248 0.37 -0.530076 0.798491 
8538 -0.223454 -0.312382 0.604179 -0.810363 0.910266 -0.120724 -0.374698 0.0168929 0.386655 0.801518 0.19822 -0.832629 0.338576 0.0567884 -0.112061 -0.267562 0.220454 -0.309186 -0.391683 -0.627296 -0.184173 -0.251141 0.332985 -0.942017 -0.663927 0.484605 0.285779 -0.229296 0.629979 0.428311 0.149171 0.0433953 -0.516716 0.459851 0.702128 0.247341 -0.408621 0.745538 0.00628217 0.569652 -0.0477576 0.618892 0.27454 0.434277 0.533661 0.319537 0.339762 0.108723 0.390456 0.907472 -0.943689 -0.471478 0.483073 0.512367 0.475549 0.68417 0.218006 0.0965722 0.647302 0.22478 0.540514 0.87858 -0.228129 0.227671 -0.395435 0.280253 -0.6121 0.0956711 0.627742 -0.0224129 0.807673 0.249665 -0.443728 -0.52003 -0.431619 -0.278289 0.240387 -0.849569 -0.0634636 0.481456 0.329225 0.199308 0.0337958 0.658352 -0.524236 0.509322 0.674683 0.395087 0.314395 0.650811 -0.582088 -0.228092 0.471707 -0.785153 0.226434 -0.149119 -0.147677 0.496957 0.0248695 -0.372788 
6818 -0.21267 -0.177837 0.689637 -0.0895132 -0.261048 0.168323 0.397062 0.145517 0.213732 0.300176 -0.333728 -0.255332 -0.134763 -0.0387649 -0.35863 0.0766996 -0.121639 -0.0471188 0.979151 -1.15129 -0.851638 -0.0111079 -0.485976 0.476473 0.298019 -0.143786 0.464006 -0.360754 0.153859 -0.552877 -0.356965 0.987797 0.146288 -0.425538 0.00951396 0.82753 -0.291447 0.265551 -0.184656 1.09166 0.00798343 0.684174 0.495686 0.0906906 0.206792 -0.489168 0.779597 -0.756512 -0.0510238 -0.631508 -0.32015 -0.107161 -0.182122 -0.285096 -0.472567 -0.366418 0.0345425 -0.390209 -0.0831305 -0.0316744 0.524957 0.892913 -0.34386 -0.0133391 -0.590368 0.249542 0.361185 0.476116 -0.301377 -0.393001 0.831672 0.221406 0.689352 -0.137326 0.198495 -0.12961 -0.915419 0.295795 -1.03708 -0.385802 0.426801 -0.298174 0.0177595 -0.33068 0.687685 -0.148604 0.31929 -0.454342 1.0081 0.700952 1.03843 1.03616 -0.135648 0.0757379 0.717142 0.0159434 0.499596 -0.100124 -0.358715 0.573698 
6788 0.0666247 -0.2102 0.578169 0.116557 -0.532715 -0.520361 -0.302517 0.122104 0.611833 0.235002 -0.123712 -0.453451 -0.362575 0.441586 -0.278189 0.376321 0.277034 -0.170189 0.606631 -0.879964 0.0156028 -0.576206 0.290072 0.598142 -0.0940373 0.483694 0.514243 -0.454646 0.0216534 -0.605615 -0.305146 0.453273 -0.477024 -0.780519 -0.283465 -0.155174 -0.249267 0.242617 0.381007 0.25341 -0.171377 0.630949 -0.677087 0.0886597 0.365251 0.0361633 0.102017 -0.140792 0.0775191 -0.325769 -0.639488 0.334771 0.074884 -0.631134 -0.00838689 0.0148715 -0.775354 -0.676892 0.042936 0.347631 0.469371 0.749013 -0.152628 -0.313775 -0.15115 0.173047 0.287523 0.103888 -0.779654 -0.671529 1.13732 -0.388098 0.302321 -0.479707 0.280147 0.0642907 -0.719591 0.316854 -1.20843 -0.552494 0.131012 0.160069 0.557797 -0.181273 0.374487 0.676577 1.0012 -0.264537 0.616699 0.940812 0.561071 0.929172 0.287723 0.289244 1.15232 -0.179049 -0.0120083 0.357363 -0.231817 0.821642 
6726 -0.453192 -0.252419 0.442837 -0.740725 0.258319 0.610071 0.388259 -0.211798 0.108265 0.333108 0.192661 -0.638293 -0.234269 1.02858 -0.200745 -0.0943068 0.0315934 -0.346106 0.456765 -0.568372 -0.320206 -0.403174 0.398068 0.896266 0.448263 -0.0165463 0.556428 -0.36593 -0.444835 -0.398288 -1.04214 0.247072 -0.46906 -0.284061 -0.370216 0.162345 -0.237237 0.0889578 -0.0183738 0.198846 -0.203281 0.0622918 0.221776 -0.168139 0.55484 -0.330351 0.705818 0.519572 0.6191 0.0733792 -0.184498 -0.328216 0.169961 -0.128059 0.0824531 -0.227211 -0.736465 -0.274891 0.223734 0.407207 -0.3506 -0.130183 0.392549 -0.735022 0.293704 -0.0886479 0.146692 0.11921 -0.360485 -0.382586 0.344609 -0.0290291 0.62766 0.189624 0.439877 -0.223 -1.22086 0.424765 -0.818687 -0.244942 0.286981 -0.320991 -0.151656 0.249263 0.263542 0.0173101 1.02807 -0.157285 0.537731 0.838574 -0.0272214 0.985508 0.335599 0.398391 0.980737 -0.158465 0.606985 -0.104972 -0.22403 0.427056 
6771 0.335608 -0.00112963 0.0153905 -1.13309 -0.303954 0.205183 -0.295024 -0.685443 1.06156 -0.165041 -0.182336 -0.294788 0.0409552 0.595298 -0.48704 -0.00971752 0.263608 0.149551 0.680454 0.0715541 0.0452366 0.0278868 0.174118 0.799933 1.06843 -0.165992 0.534209 -0.621164 -0.32915 -0.419306 -0.330633 0.212499 -0.176807 -0.00671881 -0.643932 0.141978 -0.143804 0.715655 -0.492796 0.979598 -0.259486 0.413601 -0.596389 -0.00626893 0.461667 -0.259434 0.627679 -0.132989 0.0314903 -0.16823 -0.422215 -0.50266 -0.620931 -0.938734 -0.197178 -0.16382 -0.607139 -0.424222 -0.166 0.746742 1.39545 0.697926 0.0578548 -0.374097 0.0297262 0.347465 0.267544 -0.0364994 -0.350641 -0.00223475 0.279414 -0.0691245 0.0252772 -0.110429 0.597443 -0.391708 -1.38128 0.37316 -0.781393 -0.344648 0.198028 0.0302799 0.540995 -0.813365 0.58525 0.48662 0.445328 -0.382493 0.528538 0.0314739 0.648916 0.304731 0.4611 -0.00916749 0.646041 -0.718483 -0.582555 0.0947227 -0.236666 0.576118 
6727 -0.45241 -0.163842 0.443398 -0.862159 0.162459 0.563828 0.198342 -0.274225 0.274995 -0.100036 0.0940563 -0.700409 -0.22399 0.818496 -0.374151 -0.374103 0.162752 -0.26323 0.381547 -0.666452 -0.183541 -0.195685 0.419746 0.879688 0.601997 0.0623432 0.590932 -0.304038 -0.225061 -0.757665 -1.10498 0.0702488 -0.616852 -0.232449 -0.473926 0.183251 -0.309742 -0.0717316 0.216059 0.228396 -0.284518 0.0178232 0.214305 -0.0839811 0.89404 -0.39939 0.354656 0.607328 0.594433 -0.0190583 -0.347271 -0.449416 0.158012 -0.634054 0.1406 -0.235208 -0.810522 -0.0466691 0.0404798 0.610076 -0.195434 0.186931 0.277717 -0.63928 0.393041 0.14332 0.330026 -0.0568519 -0.406737 -0.401479 0.262244 0.0528224 0.532628 0.159644 0.265514 -0.0948339 -1.22328 0.382929 -1.00587 -0.100897 0.110479 -0.249997 -0.241321 0.138505 0.218927 0.184758 1.13719 -0.12051 0.77459 0.77986 -0.0630052 0.931015 0.328728 0.292959 0.498707 0.0524823 0.401419 0.00843008 -0.191 0.571846 
6840 -0.0684652 -0.975675 0.667809 0.175968 -0.249663 0.280412 0.162412 -0.340071 0.143557 -0.100665 -0.407421 -0.17432 -0.0721455 -0.197521 0.413935 -0.117197 -0.0675796 -0.348398 0.604337 -1.2824 -0.530391 -0.203281 -0.412378 0.284844 0.308714 -0.594536 0.77092 -0.432134 -0.0488179 -1.28387 0.0148888 -0.0856486 0.184155 0.269095 0.136642 0.68595 -0.639281 -0.137925 0.0843691 1.12467 -0.159007 0.568519 -0.391516 -0.556398 0.317775 -0.786812 0.307957 -0.0108997 -0.793476 -0.448369 -0.283329 0.0334075 -0.347789 -0.0118289 0.530306 -0.416694 -0.192486 0.131024 0.247393 -0.124529 0.0599283 1.10632 -1.27374 -0.637211 -0.691098 0.48097 0.584071 0.956363 0.0641434 0.144741 0.564759 1.1445 0.332227 0.402149 0.284333 -0.981341 -0.758052 0.204693 -0.875448 0.0646655 -0.0775784 1.06188 0.283418 0.593621 0.805373 -0.482776 -0.0646893 -0.325578 1.38175 0.254439 0.740065 1.01147 0.202673 0.117909 0.276692 -0.412351 -0.597941 0.487839 -0.438787 0.993629 
8243 -0.15754 -0.0211315 -0.128565 -0.372108 0.571564 -0.593019 -0.176029 0.0807491 -0.508355 0.0886206 -0.123511 -0.213716 0.222971 0.292087 0.165455 0.0987905 0.000317376 0.294957 0.392614 -0.318174 -0.0667538 0.139047 0.279677 0.426536 -0.0552801 -0.240457 0.178877 0.361956 0.592236 -0.29431 -0.220789 0.119904 -0.468429 -0.012381 0.484414 -0.133255 -0.358773 0.049683 -0.438942 0.165623 -0.603681 -0.304299 0.208447 -0.157068 -0.222946 0.370715 -0.452357 -0.133868 0.42139 0.471935 -0.69898 -0.118034 -0.456628 0.0644227 -0.0631025 -0.0514579 0.0683554 0.567105 0.352011 0.212652 0.202667 0.435096 -0.755209 0.532123 0.158767 -0.279615 -0.238926 0.137106 0.333555 -0.203212 0.403702 -0.0741101 -0.520147 0.28172 0.0467684 0.149337 0.076868 -0.507722 0.268419 -0.0328287 0.145145 -0.179753 -0.675225 0.0960981 0.521836 0.266919 0.576343 0.205184 0.0365502 0.241258 0.571797 0.210044 0.184571 -0.847497 0.0300068 0.106715 -0.518305 0.0330058 -0.109932 -0.178743 
8517 -0.238058 0.135802 0.708014 -0.51164 0.456928 0.372395 -0.57545 0.21275 0.256091 0.630654 0.0792237 -0.181075 0.174622 0.208232 0.667456 -0.0141883 0.0856553 -0.0907116 -0.232005 0.136439 0.549533 -0.120346 0.263886 -0.0795814 -0.369175 0.415409 0.0828383 0.449865 0.207671 0.12661 -0.0886818 0.00889384 0.174871 0.391927 0.472453 0.270356 -0.327047 0.119498 -0.183183 0.0608487 -0.276907 -0.206989 -0.482564 0.404219 0.21864 0.675184 0.457253 0.278514 -0.165211 0.879555 -0.911102 0.225031 -0.296499 0.809458 -0.290338 0.291867 0.354222 0.221908 0.193827 0.00485382 0.439562 0.236571 0.0114699 0.439742 -0.0534232 0.174613 -0.495553 0.035898 0.22826 0.0795539 0.344531 -0.285301 0.152109 -0.244418 -0.138462 -0.52011 -0.301576 -0.0811257 0.195334 -0.0349746 0.222473 -0.152612 0.288686 0.51622 -0.0611686 -0.00723518 0.589689 0.339349 0.173977 0.193156 -0.141361 -0.406752 1.05951 -0.0868121 0.403467 -0.310132 -0.630814 0.0357701 -0.32101 0.383801 
6772 0.15556 -0.141456 0.34622 -0.534829 0.173771 0.457358 -0.0418927 -0.190148 1.05457 -0.188815 -0.496304 -0.753037 -0.109701 0.699068 -0.24099 0.00914286 0.240435 0.0423771 0.347292 -0.971155 -0.0743618 -0.258333 0.579786 0.422008 0.763997 -0.0247141 0.513198 -0.616827 0.194298 -0.475357 -0.390293 -0.110416 -0.802824 -0.361058 -0.29362 0.173257 -0.148373 0.52542 -0.0827504 0.810237 -0.0555516 0.209185 -0.367336 -0.298661 0.600857 -0.176552 0.134392 0.269521 0.279134 -0.682437 -0.730243 -0.0674151 -0.12045 -0.739184 -0.0299024 -0.43839 -0.536667 -0.524861 0.0118647 0.104198 1.20721 0.429056 0.12531 -0.0463147 0.167076 0.540699 0.0941373 0.240678 -0.902303 -0.0267846 0.0983486 0.122382 0.184582 0.031266 0.0576233 0.112178 -0.877849 0.295029 -0.748906 -0.624278 0.205153 -0.234436 0.0680082 -0.078112 0.125128 0.6131 0.701214 -0.362156 0.832476 0.894504 0.767328 0.867329 0.0329861 -0.0275866 0.349455 0.0686308 -0.113938 0.182307 -0.266059 0.860163 
8244 -0.126676 0.325824 0.0557279 -0.420602 0.779805 -0.37894 -0.128892 -0.120101 -0.206324 0.51862 0.0843659 -0.287316 0.0860638 0.179711 0.273173 0.590455 0.0229155 0.0820587 0.146821 -0.0809027 0.0914833 -0.174079 0.1334 0.25635 -0.509811 -0.389573 0.0886218 0.873189 0.626258 -0.00458191 0.157455 0.480322 -0.0626116 -0.0225127 0.45743 0.171115 -0.251629 0.153193 -0.115396 -0.0473861 -0.259581 -0.0840575 -0.300432 -0.122548 0.0648553 0.751031 -0.00925603 -0.0898641 0.136901 0.601883 -0.452314 0.157037 -0.584632 0.674302 0.22302 -0.431645 0.175581 0.612588 -0.0826362 0.511889 -0.165041 0.419987 -0.321652 0.553652 -0.154256 0.00586568 -0.420584 0.0297195 0.446829 0.0254975 0.822043 -0.00873603 -0.354184 0.40229 0.0897341 -0.396473 -0.285277 -0.221815 0.161642 0.0552078 -0.387104 -0.170523 -0.241954 0.587905 0.423115 -0.0025483 0.360289 0.216286 0.599931 0.2775 0.361345 0.412258 0.120391 -0.30437 -0.0807017 -0.271116 -0.575818 -0.102336 0.208529 0.366036 
6846 -0.188334 -1.22396 -0.376149 0.185449 0.301786 0.630302 0.0982806 0.485825 0.20205 0.634487 -0.352115 -0.0136855 0.321347 -0.111519 0.806676 0.350335 0.117498 -0.0117147 0.131712 0.0882682 -0.417185 0.0578035 0.0119217 0.230387 -0.28763 -0.787149 0.877046 0.105594 0.349252 -0.0749972 -0.0804319 0.641593 -0.43627 0.389164 0.350434 0.988685 0.0603274 -0.316719 -1.26255 0.916004 0.0334759 0.23657 0.0728459 0.0732618 -0.417121 0.139928 0.409192 -0.00525905 -0.375849 -0.111241 0.853663 0.12026 0.0800849 -0.20631 -0.437885 -0.036512 -0.0530901 -0.0944123 0.293158 -0.469644 0.109785 0.936173 -0.025462 -0.196085 -0.564615 0.60908 0.346742 0.121133 -0.657753 -0.952914 0.0303049 0.685333 -0.567209 -0.419133 0.210461 -0.90848 -0.778375 -0.185459 -0.29529 -0.233478 -0.17777 0.295162 0.244977 0.434213 0.725371 -0.101717 0.186898 -1.11937 1.10054 -0.224126 0.463634 -0.151647 -0.343895 -0.193345 0.318098 0.113151 0.0341604 -0.062376 -0.623315 0.410732 
6773 -0.0333978 -0.154236 0.312932 -0.375221 0.364903 0.321808 -0.0851019 -0.0244057 1.18622 0.0556442 -0.78016 -0.630956 0.33395 0.658636 -0.00219759 0.0071966 0.0801282 0.186289 0.178002 -0.877394 -0.423411 -0.292462 0.386575 0.381399 0.839479 -0.258347 0.650627 -0.553303 -0.0165545 -0.453688 -0.0893701 0.0189657 -0.76036 -0.50786 0.0391253 0.0906837 -0.34925 0.604796 -0.132265 0.764414 0.0645727 0.327538 -0.357171 -0.199689 0.779014 0.144886 0.287788 0.354841 0.160552 -0.847072 -0.506359 0.0551877 -0.0496586 -0.700256 -0.100591 -0.399132 -1.02579 -0.675595 -0.00899885 -0.106882 0.882039 0.426243 0.0866426 -0.0880706 -0.0555472 0.426031 0.186261 -0.060107 -0.894183 -0.1689 -0.0943063 0.407125 0.0545677 4.44212e-05 0.399669 -0.196684 -0.912495 0.0941984 -0.627466 -0.834998 -0.0677155 -0.402008 0.0645509 -0.0136653 0.392437 0.766262 0.426415 -0.463227 1.12222 0.676607 0.743747 0.708198 0.0113495 -0.278686 0.40356 -0.145404 -0.100877 0.324836 -0.379058 0.657535 
8564 -0.240821 0.32746 -0.213222 -0.374987 0.22886 -0.0830585 -0.0970226 -0.670387 0.213088 0.189923 0.696462 -0.182519 0.634522 0.426192 0.0832633 -0.137466 -0.921767 -0.161045 -1.16265 0.63819 -0.420005 -0.201317 -0.128618 -0.489392 -1.01088 1.19769 -0.262801 -0.661567 0.576229 -0.0632244 -0.383986 -0.11584 -0.238492 0.800814 0.398128 0.277421 0.60753 0.788061 -0.397187 1.21021 -0.370203 0.251327 0.409909 -0.183577 0.244063 -0.0633345 0.769583 0.643964 -0.170804 0.274842 -1.1606 -0.23579 0.484908 1.13458 0.660454 0.383586 0.0685715 -0.190172 -0.372524 0.128933 -0.20251 0.491612 -0.459815 -0.622567 -0.419362 1.05936 -0.37176 0.418194 0.858809 0.627216 0.3599 0.456859 0.363281 0.0152847 -1.06185 0.664607 -0.0115509 -0.881183 -0.275402 0.50549 0.398513 0.483325 0.439553 0.0471211 -0.209737 0.764401 1.31659 -0.675101 -0.407696 0.161535 -0.45408 -0.0840462 0.469857 -0.442793 0.691469 0.477269 0.217913 0.636143 -0.744318 0.315711 
8245 0.192059 0.0530068 0.101927 -0.461744 0.340671 -0.441907 -0.448211 -0.0285574 -0.471133 0.35531 0.127982 0.14299 -0.126184 -0.130926 -0.000310489 0.0669249 0.274687 0.215751 0.0384517 -0.249804 0.03535 -0.0869363 0.242156 0.469391 -0.412862 0.178021 0.533773 0.579333 0.660566 0.00268061 -0.164492 0.410076 -0.156835 0.385736 0.201078 0.253922 -0.240553 -0.0151596 -0.277595 0.113889 -0.416624 -0.534849 -0.045235 -0.333049 0.202649 0.189553 0.250826 -0.00127064 -0.103889 0.49416 -0.539205 0.269513 -0.0951432 0.590987 -0.535226 -0.066695 0.23651 0.656428 -0.0318846 0.275201 0.214595 0.266053 -0.385678 0.217746 0.101122 -0.132636 -0.0632364 0.376301 0.544629 -0.523976 -0.113106 0.183129 -0.243286 0.0424689 0.340752 -0.0994579 -0.4002 -0.297419 0.393164 0.545979 -0.224302 0.0696139 -0.275198 0.293774 0.173989 -0.0323425 0.50627 0.0738987 0.0820926 -0.0652296 0.0978481 0.152693 0.989635 -0.526946 -0.0467502 -0.150591 0.152715 0.0373836 -0.286855 0.0381833 
6728 -0.250509 -0.210047 0.379627 -1.24168 0.346755 0.661897 0.0524494 0.122344 0.270693 0.15408 -0.314646 -0.608882 0.075212 0.879786 -0.197146 -0.128466 -0.136578 -0.403645 0.372044 -0.688782 -0.244629 -0.31212 0.414064 0.650511 0.461413 -0.323579 0.697142 -0.539008 0.00553173 -0.592471 -0.866179 0.279828 -0.905945 -0.597801 -0.11639 0.183573 -0.35489 0.0692897 -0.235821 0.455053 -0.282334 0.132507 0.453449 -0.276617 0.62748 0.128442 0.706677 0.803029 0.589747 -0.202599 -0.324998 0.000834191 0.355265 -0.267304 -0.106432 -0.253452 -0.594948 0.0356095 0.596552 0.428621 -0.414397 0.0465704 0.196266 -0.391876 0.319103 0.378564 0.127888 0.00513052 -0.32427 -0.548985 -0.0822483 0.0870758 0.3321 0.696824 0.286723 -0.0439658 -1.22078 -0.107051 -0.66039 -0.263668 0.148717 -0.474628 -0.115284 0.275059 0.654989 0.418536 0.865658 -0.0637027 0.643566 0.943268 0.371461 0.645827 0.174974 0.215495 0.823599 0.388728 0.689043 0.0118891 -0.330751 0.0630102 
6787 -0.827877 -0.221488 -0.266626 -0.736161 -0.148193 -0.454415 0.0713701 -0.428964 0.305643 0.0831951 -1.03823 -0.958142 -0.550226 0.612981 -0.225991 -0.0962981 0.318221 0.375654 0.585537 -0.66651 -0.183233 -0.679416 0.571158 0.452284 -0.162148 0.178885 0.20743 -0.253505 0.0497778 -0.620294 0.233072 1.00858 -0.871002 -0.110459 0.34518 0.365709 0.244333 -0.09795 0.292813 0.493153 0.440933 0.238771 -0.611894 -0.456748 -0.074109 -0.0154683 0.110684 0.944169 -0.927198 -0.538715 -0.329406 0.115126 -0.111062 -0.0913093 0.785774 -0.814314 -0.497432 -0.525298 0.0902236 -0.286772 0.952526 0.787539 0.301001 -0.268136 -0.684353 -0.00349155 0.554937 -0.0277426 -0.697292 -0.494924 0.97618 0.272193 -0.107551 -0.00868966 0.637676 -0.0230388 -1.06342 -0.252431 -1.20263 0.401258 0.615826 0.331547 -0.0837625 0.229349 0.551139 0.435614 0.675791 0.141625 0.390738 0.830984 0.819018 0.32591 0.33797 0.270974 1.3495 -0.148302 -0.358127 0.159509 -0.178389 0.967626 
8246 -0.382578 0.152701 -0.326126 -0.615504 0.487418 -0.33551 -0.0225353 -0.181098 -0.655529 0.211658 0.0324969 0.0551366 -0.148408 0.199435 0.11658 0.310288 0.238093 0.0471754 0.0819523 0.0435132 -0.198702 0.0384399 -0.283186 0.049171 -0.335952 0.344587 0.526889 0.213749 0.688933 -0.515774 -0.567248 0.467371 0.280716 -0.392895 0.331194 0.619282 -0.0454368 -0.160191 -0.488014 0.420084 -0.460526 0.257532 0.182693 0.167697 0.205991 0.235672 -0.518422 -0.244473 -0.355161 0.490977 -0.663094 0.387804 -0.339814 0.621424 0.110531 -0.471626 0.155817 0.451017 -0.349885 -0.14018 0.441034 0.312001 -0.438364 0.618737 0.0446151 0.139084 -0.183669 0.332706 0.3207 -0.123965 0.0423345 0.367893 0.178857 -0.136923 0.0939745 -0.31662 0.0235945 -0.464665 0.00754714 0.361105 0.0318574 0.159506 -0.331942 0.458457 0.391773 0.35897 0.7449 0.140274 -0.00409909 -0.0354584 0.0605481 -0.150168 0.268104 -0.109566 -0.104425 0.197036 -0.196667 0.318812 0.250137 0.361542 
6836 -0.660432 -0.723903 -0.225629 -0.128206 -0.0615319 0.562622 0.183515 -0.133247 -0.251304 0.253901 -0.261067 -1.11785 -0.324223 -0.0693619 0.573475 -0.443583 -0.120013 -0.293133 1.07738 -0.727687 -1.16803 -0.220315 -0.113287 0.378878 0.111118 -0.54089 0.67163 -0.513759 0.46111 -1.10352 -0.0445354 0.323987 -0.765889 0.38257 -0.0555025 1.18158 -0.999235 0.282519 -0.430844 0.939554 -0.0184114 0.298294 -0.208446 -0.267985 0.0825175 0.058847 0.0950764 -0.195626 -0.224543 -0.0178512 0.217872 0.0861983 0.045004 0.870034 -0.16178 -0.521357 -0.0350768 -0.0200787 0.0189583 0.340494 0.205609 0.585265 -0.778682 -0.590485 0.0627045 0.320926 0.14742 1.19483 0.170799 -0.0861173 0.206757 0.980695 0.359048 -0.026886 0.308721 0.163855 -0.319373 -0.46419 -0.334167 -0.392647 0.281835 0.77516 -0.155677 0.433439 1.56803 -0.455041 0.283783 -0.976384 0.470666 0.56991 0.997428 1.11982 0.209187 0.461166 0.152263 0.304446 -0.137535 0.458763 0.00993245 1.36624 
8247 0.0143666 -0.258309 -0.727 -0.0451493 0.347719 -0.557675 0.149909 -0.23083 -0.206017 -0.080992 0.123425 -0.0569884 0.158254 0.279389 0.155764 0.507288 0.270146 0.0196921 0.425913 0.31312 -0.011088 -0.103267 0.297717 0.159402 -0.0397263 0.0303143 0.254872 0.779588 0.452612 -0.143081 -0.146087 -0.0304262 -0.064154 0.035215 0.594187 0.172887 0.0972543 -0.159649 -0.488242 0.652993 0.0919065 -0.0977338 0.125143 -0.284283 0.312613 0.0531405 0.142813 -0.0531704 -0.132485 0.365722 -0.699718 0.740964 0.000783608 0.520851 0.0156427 -0.844138 -0.0200581 0.307783 0.264821 0.490899 0.143794 0.28641 -0.0996807 0.269725 -0.545696 -0.193209 -0.641374 0.490638 0.961351 -0.357805 0.237559 0.0510459 0.166291 0.0531374 0.168409 0.580666 -0.155303 -0.290675 -0.0166118 0.444261 -0.159437 -0.127737 -0.202007 0.575123 0.334073 -0.0322431 0.67067 0.227769 -0.0942888 -0.0908479 0.243983 0.510891 0.513154 -0.677112 0.120659 0.238862 -0.219146 -0.345484 -0.48944 0.0558779 
8248 -0.121529 -0.135309 -0.245624 -0.137274 0.316436 -0.593001 -0.103899 -0.442246 -0.35371 -0.289357 -0.256539 0.0851935 0.337257 -0.235405 0.22563 0.70288 -0.156673 0.306948 0.378721 -0.223653 -0.275583 -0.401338 0.142768 0.0792853 -0.273438 -0.0470284 0.608603 0.317487 0.235335 -0.397172 -0.107671 0.429754 -0.0974764 -0.118327 0.271393 0.200377 -0.143123 -0.142264 -0.29267 0.44694 -0.32691 -0.201951 -0.0248798 0.0352325 0.11805 0.110173 0.339433 0.660032 -0.193044 0.153041 -0.765739 -0.00976454 -0.754467 0.438092 -0.322411 -0.47313 0.465938 0.44802 0.374334 -0.12456 -0.0134787 0.279968 -0.488103 0.146445 -0.329702 0.334557 -0.13284 0.552114 0.384356 -0.299322 -0.343217 0.0238225 0.108344 -0.0839024 0.306363 0.0359645 -0.327314 -0.60309 0.263488 0.73755 -0.40617 -0.172445 -0.524007 0.142579 0.578244 0.504676 0.620538 0.472845 0.145695 -0.416565 0.166881 0.299067 0.618059 -1.07463 -0.0300628 0.400238 -0.710901 -0.314589 -0.445138 -0.118208 
8249 -0.0596142 -0.100756 -0.0387965 -0.166513 0.516875 0.156517 -0.0476245 -0.346555 -0.27822 -0.202998 0.0738192 -0.214348 0.489904 0.115002 0.364829 0.928143 0.151423 0.228202 0.405916 -0.404921 -0.192227 -0.455048 -0.147599 -0.217658 -0.786562 0.127643 0.408809 0.706258 0.237866 -0.233844 -0.313194 0.252489 0.266602 0.261954 0.230301 0.239629 0.333039 -0.757753 -0.546092 0.187654 -0.540358 0.175474 0.396682 -0.153633 -0.0286937 0.0558077 -0.142218 0.142524 -0.442949 -0.0325389 -0.487088 0.349254 -0.374347 0.969683 -0.317832 -0.662876 -0.00739144 0.546983 -0.0093158 -0.362987 0.35614 -0.0998889 -0.627737 -0.0590193 -0.214577 -0.116146 -0.795171 0.391316 0.532461 -0.499568 0.202031 0.0324996 0.214157 -0.366941 -0.0658244 0.372578 -0.249366 -0.130706 0.168012 0.0903724 -0.210248 -0.0443417 -0.0149704 -0.044782 0.423644 0.531295 0.41398 0.214396 0.322182 0.292107 0.181662 0.0462836 0.465332 -0.515903 0.163789 0.225176 -0.490631 -0.0851917 -0.478552 0.279476 
6838 -0.168644 -0.91272 0.00457144 0.0659567 -0.0716088 -0.0144088 -1.19124 -0.682463 -0.221869 0.127719 -0.442698 0.151191 -0.184896 0.0721025 0.152565 0.588571 0.216855 -0.273784 0.578722 -0.733192 -1.05152 -0.355407 0.147327 0.0835091 0.167087 -0.612151 0.364836 -0.144083 0.437455 -1.6929 -0.307196 -0.252472 -0.280559 0.48225 -0.39963 0.509153 -0.243664 0.27296 -0.464127 1.52212 -0.177367 0.92097 -0.43237 -0.49894 -0.11617 0.285929 -0.098366 -0.675689 0.28003 0.121609 0.0844962 0.227421 0.0898896 0.108045 0.0227443 0.36758 0.26328 0.227952 -0.156472 -0.510157 -0.14069 1.66892 -0.721894 -0.891829 0.0747855 -0.233317 0.1544 0.403338 0.425929 -0.471443 0.459173 0.177394 -0.299137 -0.643436 -0.0434067 -0.649881 -1.59212 0.13695 -0.875342 0.0276917 0.525607 0.546158 -0.174469 -0.136966 0.789338 -0.693899 -0.0903678 -0.952224 0.96499 0.813238 0.398917 1.0352 0.332329 0.236091 0.252174 0.265338 -0.749122 0.357121 -0.350783 0.906924 
8250 0.0421132 -0.158322 -0.314297 -0.156713 0.885732 -0.420274 -0.100803 -0.0371809 -0.327229 -0.185199 -0.471149 0.0977149 -0.00842389 0.266139 -0.206164 0.0282777 -0.279344 0.427772 0.355751 0.0483614 -0.226676 -0.113521 -0.209039 0.110191 -0.556916 0.45964 0.73572 0.799445 0.203997 0.0615872 -0.287883 0.214372 -0.0926615 0.156602 -0.150409 -0.0184597 -0.389246 -0.256639 -0.44784 0.3508 -0.222665 -0.0223017 0.0481315 -0.666972 -0.0700864 -0.287955 -0.149851 0.287688 -0.672856 0.56771 -0.8115 0.26823 -0.640173 0.87227 -0.938757 -0.463183 0.071717 0.388949 0.363323 -0.163397 0.182645 0.261514 -0.493121 0.390509 -0.392559 0.0376443 -0.263318 0.464901 0.649588 -0.454021 0.0943106 0.277036 0.0933063 -0.213989 -0.40301 -0.17883 0.0317234 -0.139379 0.0479128 0.334672 -0.519092 0.31264 -0.270775 0.2536 0.590965 0.489181 0.271607 -0.0501601 0.228501 0.0020541 0.424331 0.480661 0.479958 -0.919535 0.110056 -0.218312 -0.159222 -0.102982 -0.524506 0.239773 
8251 -0.0330398 -0.0775183 -0.739191 -0.221961 0.854447 -0.427976 -0.169628 -0.603505 -0.120404 -0.444901 -0.195622 0.00894415 -0.0112842 0.0847429 0.520564 0.370396 0.0553611 0.0773982 0.0870077 -0.0264359 0.0512956 -0.184789 -0.0208774 -0.023485 0.200677 0.441348 0.915963 0.0954801 0.844184 -0.22788 -0.230432 -0.0386073 -0.588136 0.226509 0.914753 0.206774 0.0306573 -0.115781 -0.450849 0.32203 -0.406607 -0.145785 0.301066 -0.833313 -0.123306 0.312974 0.0807079 -0.070561 -0.504987 0.366794 -0.510654 -0.200711 -0.154475 0.815805 -0.339366 -0.409015 -0.41798 0.581732 -0.0487173 0.0927142 0.287782 0.159027 -0.923001 0.436241 -0.327218 -0.0454455 -0.173715 0.606631 0.593864 -0.911706 0.304419 0.0628709 -0.219186 -0.089292 0.0530524 -0.00760416 0.0879087 -0.137101 -0.115102 0.760848 -0.173348 -0.212116 -0.105814 0.000277667 0.739149 0.324807 0.441818 -0.256419 0.365517 0.634763 0.149412 -0.114783 -0.353798 -0.851356 -0.0947003 -0.0813909 -0.466146 -0.270552 0.17205 0.575983 
8252 -0.29875 -0.338743 -0.273786 -0.292745 0.896979 -0.234256 0.386016 -0.0537012 -0.630101 -0.26691 -0.0654787 -0.250353 -0.187779 -0.0289589 0.302391 0.342826 0.226907 0.129586 0.0401401 -0.322539 -0.165043 -0.175779 0.0253219 -0.0377384 -0.230376 -0.17931 1.11682 0.714734 0.567421 -0.431791 -0.40473 0.0120484 -0.0477618 -0.243281 0.361978 -0.121261 0.0472138 -0.446363 -0.581191 0.70622 -0.160096 0.483684 0.4099 -0.165542 0.122413 -0.291813 0.0565679 -0.284226 -0.241495 0.254037 -1.12108 0.12538 -0.460598 0.902738 -0.376764 -0.708346 0.17093 0.496376 -0.00444123 0.147945 0.111604 -0.278098 -1.04654 0.645889 -0.261457 -0.403423 -0.221239 0.567891 0.995113 -0.18113 0.405036 0.196843 0.296566 -0.0774287 -0.172759 0.592076 -0.679906 -0.822624 -0.0254728 0.379557 -0.00544065 -0.236985 -0.271604 0.0198778 0.204129 0.886137 0.414461 0.13533 0.0496179 0.0698124 0.0683029 -0.00357137 0.402528 -1.28526 0.270951 0.0863566 0.212569 -0.493078 -0.77881 0.015494 
8253 0.214568 0.00712554 -0.404389 -0.320329 0.676221 -0.319373 -0.00345424 -0.323172 0.0612408 0.120103 -0.22404 0.0457326 0.352942 -0.250524 0.300196 0.00416808 -0.235015 0.406041 0.436679 -0.126877 -0.240545 -0.255695 -0.280629 -0.174925 -0.406612 0.313407 0.874262 0.443279 0.255915 -0.598424 -0.129796 0.104577 -0.172054 0.100252 -0.102969 0.21473 -0.151557 -0.703462 -0.239275 0.396193 -0.213145 0.0941266 -0.216801 -0.354572 -0.0590187 0.0186284 -0.71439 -0.0193915 -0.245695 -0.257677 -1.05325 0.552448 -0.290427 0.876635 -0.383674 -0.651291 -0.424295 0.0120265 -0.480967 -0.138509 0.0348639 -0.14095 -0.636717 0.445476 -0.181831 -0.08325 -0.625908 0.858771 0.440996 -0.0657304 -0.150199 -0.208868 -0.416942 -0.113168 0.040598 -0.018964 -0.143941 -0.480037 -0.284997 0.750483 -0.27614 -0.232827 -0.519666 0.340514 0.972898 0.210075 0.690221 -0.546699 0.329724 0.250377 0.223548 0.232406 0.373429 -0.753728 -0.279087 0.523905 0.0366228 -0.915539 -0.730001 0.473831 
6794 -0.205449 -0.141899 0.146246 -0.730956 -0.0267097 -0.513126 -0.426165 -0.0620336 0.670655 0.174574 -0.872597 -0.319582 -0.318099 0.16537 -0.20843 0.153357 -0.183041 -0.0414816 0.187721 -0.898037 -0.940831 -0.281359 0.177388 0.93355 0.357114 -0.286268 0.991883 -0.169759 -0.0352173 -0.901916 -0.471565 0.672104 -0.763261 -0.461873 0.270199 0.512211 -0.252946 0.503806 -0.044821 0.532531 0.295579 0.09263 -0.0108555 -0.322333 0.20831 0.194631 0.178001 0.50016 -0.43267 -0.497173 -0.80302 0.992459 0.35388 0.256276 0.0978007 -0.00303041 -0.304364 -0.248348 -0.079555 0.16854 0.19804 0.829404 -0.254468 -0.360862 -0.473108 0.336584 -0.118476 0.330016 -0.302036 -0.703825 0.611704 0.124539 0.226195 -0.0226809 0.28648 0.354458 -0.691148 -0.00884864 -0.67508 -0.109006 -0.0640891 0.411497 -0.381186 0.0911086 0.856512 0.334666 0.943708 -0.276631 0.999136 1.2915 1.19446 0.503047 0.561833 -0.0428405 0.426269 -0.45171 -0.435923 -0.192856 -0.606265 0.903685 
6822 -0.344923 -0.207022 0.219176 -0.506943 -0.0290121 0.0521576 -0.423888 -0.220573 0.461378 0.186859 -0.205664 -0.520315 -0.443576 0.223626 -0.446652 0.069787 -0.101267 0.30513 0.419221 -0.63457 -0.857311 -0.661683 0.42301 0.55378 -0.0187731 -0.432279 0.689264 -0.324327 0.335089 -1.01878 0.154805 0.788085 -0.61487 -0.297981 0.49788 0.753269 -0.342311 0.319564 -0.418033 1.24442 -0.322591 0.164177 0.187877 -0.457856 0.0788899 0.28534 0.54366 -0.222397 -0.463409 0.0641943 -0.342442 0.613146 -0.500162 0.170493 -0.596898 -0.600944 0.161216 0.410075 0.112484 0.377961 -0.0416944 0.873937 -0.906409 -0.432211 -0.16121 0.283675 0.329308 0.762352 0.0451671 -1.05221 -0.444598 0.435713 0.940798 -0.169595 0.273535 -0.109353 -0.963764 0.153556 -0.90675 -0.0888646 -0.231735 0.18492 -0.395327 -0.141688 0.418957 -0.180739 -0.467868 -0.543897 1.16266 0.765755 0.898045 0.827108 0.514847 0.348452 0.490571 -0.255079 -0.185893 0.118023 -0.252408 0.815578 
8254 0.156879 -0.142642 -0.340234 -0.209906 0.849954 -0.703969 -0.454355 -0.303379 -0.203274 -0.167241 0.0998235 -0.420903 0.248767 0.0766342 0.0515388 0.381769 0.163844 -0.0232439 0.459109 -0.304176 -0.350032 -0.539491 -0.135197 0.145598 -0.799227 0.453406 0.726326 0.395944 0.136969 -0.200401 -0.310367 0.176636 0.185253 0.0261923 0.289933 -0.0962814 0.344211 -1.1031 0.314622 0.626735 -0.760364 0.455859 0.0490242 -0.0363433 -0.333587 0.227436 -0.0796194 0.214542 -0.402222 0.295507 -0.824814 -0.0327863 -0.55122 0.551178 -0.549226 -0.937147 -0.282057 0.25903 0.359037 0.722916 0.180672 -0.193238 -1.17762 0.796109 -0.27648 -0.130094 -0.145836 0.29478 0.891549 -0.277227 0.0606639 0.657831 0.163929 0.0210881 -0.830096 -0.0509051 -0.124129 -0.353591 0.131453 0.0881144 -0.308639 -0.3331 -0.0149345 0.175571 0.752717 0.446471 0.399677 -0.461189 0.392077 -0.0176111 0.666756 0.0607533 0.239316 -0.741946 -0.739386 0.698246 -0.378802 -0.296568 -0.840698 0.691193 
8539 -0.344993 -0.137584 -0.244238 -0.79943 0.920272 0.0385805 -0.205946 -0.0226352 0.11648 0.462859 1.12454 -0.965093 0.835997 0.517474 -0.209311 0.26449 -0.103551 -0.0748841 0.251539 0.394534 -0.334974 -0.0881778 0.220286 0.372519 -0.205345 1.10506 -0.315563 -0.350886 0.739669 -0.380947 -0.234139 -0.230045 -0.352767 0.824655 0.575078 -0.135507 0.503284 0.657816 -0.472881 1.21943 -0.170831 0.73648 -0.481208 0.350668 0.299749 0.328425 0.130143 -0.29316 0.11348 0.203867 -0.68646 -0.0129091 0.382724 0.262929 0.602626 0.064921 0.427833 -0.333531 0.178288 0.323314 -0.083072 0.774973 -1.1745 -0.195044 -0.31565 0.108338 -0.556868 -0.139894 0.163903 0.0398781 0.290656 -0.332873 0.160115 -0.0222749 -0.6343 0.347659 -0.0821567 -0.238103 -0.28294 0.209652 0.866093 -0.209667 -0.0135822 1.42778 -0.454367 0.511585 1.089 0.819346 -0.436047 0.0395796 -0.721471 0.178047 0.121349 -0.818446 -0.290008 0.709317 -0.638675 0.29583 -0.0512177 -0.181822 
8255 0.0597629 0.0358194 -0.317663 -0.306371 1.23412 -0.16432 -0.154996 -0.279399 -0.460069 -0.0289262 -0.126462 0.0268902 0.103045 0.0398151 0.666911 0.396448 -0.204808 0.562102 0.812074 0.0700606 0.0250029 -0.256469 0.149549 -0.245987 -0.36761 0.52252 1.25521 1.16705 0.395304 -0.566452 -0.288533 0.233505 -0.886147 -0.177035 0.0735692 -0.101819 -0.19291 0.0395532 -0.418632 0.698444 0.0999325 0.116541 0.327686 -0.0739617 -0.297757 -0.369526 -0.294914 -0.0396156 -0.168398 0.353686 -0.866613 -0.0406454 -0.527537 0.983187 -0.275513 -0.805888 -0.0285725 0.42158 0.172303 0.591458 0.406995 -0.0878489 -0.979269 0.166423 -0.389485 -0.236817 -0.310044 0.244085 0.764146 -0.417106 0.0420311 -0.31239 -0.523632 -0.179335 -0.472876 0.576364 0.0671177 -0.76862 0.0944697 0.522754 -0.101021 -0.282264 -0.218663 0.179273 0.453299 0.381397 0.788334 -0.0913692 -0.0408109 0.0444489 -0.119128 0.409977 0.444623 -1.11494 -0.392073 0.933173 0.148048 -0.575927 -0.227475 0.760387 
8256 0.190748 -0.014091 -0.48467 0.157183 1.12895 -0.57125 0.108012 -0.164445 -0.565956 -0.109999 0.0506355 0.257046 0.1589 -0.178107 -0.0640252 0.439693 0.134497 0.354557 0.596732 -0.0468777 -0.560689 -0.588723 -0.289581 -0.378681 -0.193776 0.185103 0.928176 0.467341 0.430686 -0.423833 -0.479135 0.0744699 -0.405218 0.0675261 0.457899 0.439336 0.0272009 -0.93871 -0.223908 0.131778 -0.450095 0.528979 -0.388703 -0.481891 0.388047 0.00678991 -0.411315 0.399087 -0.299072 0.584262 -0.993262 0.113644 -0.217891 1.13799 -0.233624 -0.83928 0.0129891 0.355606 0.319116 0.100826 0.321116 0.181642 -0.679842 0.484906 -0.547601 -0.0522871 -0.144381 0.828559 0.686482 -0.252578 -0.0515205 0.352318 -0.0182749 -0.452343 -0.273925 -0.130719 -0.223847 -0.302505 -0.128298 0.0224437 -0.610157 -0.524241 0.0995479 0.441682 0.541378 0.215251 0.664322 -0.0865101 0.520148 0.339271 0.36414 0.186106 0.664582 -1.43001 0.0199886 0.42211 0.295882 -0.850395 -0.444808 0.220802 
8257 -0.0404618 0.000387684 -0.761187 -0.167568 1.22215 -0.0877762 -0.091374 -0.447948 -0.771035 -0.188747 -0.332928 0.168977 0.0160028 -0.143485 0.15772 -0.0748345 -0.407129 0.409979 0.701051 0.230225 -0.176786 -0.384891 -0.215282 0.444874 -0.686013 0.195465 1.35289 1.19191 0.532486 -0.808114 -0.127268 0.558617 -0.185912 -0.192373 0.505615 -0.0116675 -0.0219396 -0.757255 -0.302452 0.600475 -0.451384 0.0153571 -0.18958 -0.265114 -0.0683007 -0.339096 -0.0620251 -0.152137 -0.30049 0.188055 -1.26144 0.200036 -0.0167035 1.08106 -0.520673 -0.711378 0.0382896 0.0589211 0.462417 0.322078 0.223414 -0.470249 -0.702558 0.0519746 -0.254764 -0.0271234 -0.440054 0.6306 0.921057 -0.733053 -0.0579858 -0.0648217 0.258538 0.273335 -0.394203 -0.119824 -0.144955 -0.548998 0.122619 0.370816 -0.100424 -0.116519 0.0460996 0.536336 0.46321 0.700304 0.603943 -0.140493 -0.0315066 0.133963 0.354885 0.4601 0.615149 -1.12385 -0.209629 0.459637 -0.526796 -0.63879 -0.683324 0.664914 
6753 0.0814385 -0.49705 0.463566 -1.58155 0.477438 0.0822883 0.0847918 -0.246406 0.468178 0.323563 -0.774191 -0.588332 -0.13023 0.765462 -0.219256 -0.181364 0.247566 0.160458 0.488833 -0.728976 -0.561634 -0.872477 0.203786 0.888581 -0.163055 -0.289719 0.764888 -0.2941 0.141813 -1.09232 -0.771703 0.113848 -1.16386 -0.804355 0.424071 0.295842 -0.194198 0.552466 -0.488652 0.862005 0.306982 0.547124 -0.37995 -0.622041 0.416934 -0.268688 -0.0669428 0.438131 0.0554518 -0.50475 -1.20459 0.399534 -0.490098 -0.416728 -0.245989 -0.363098 -0.388361 -0.263754 0.470888 0.385344 0.484998 0.842554 -0.21065 -0.75007 0.430092 0.139473 0.347039 0.144821 -0.334725 -0.723679 -0.61696 0.0991364 0.521051 0.166655 0.230381 0.599662 -0.925891 0.364309 0.44954 0.168025 0.224255 -0.546754 -0.245313 0.523748 0.522656 0.158286 0.770618 -0.499456 0.893609 0.942716 0.450679 0.726504 0.330505 -0.134026 0.514091 0.134788 0.223008 -0.309417 -0.042682 0.858476 
8554 -0.869444 -0.663096 -0.897151 -0.496366 0.864847 0.501271 0.185373 -0.0226112 -0.000845758 -0.0374899 0.567373 -1.01592 0.718717 0.188894 -0.13016 0.336018 -0.331857 -0.0717867 -0.184249 0.646319 -0.49287 -0.982147 -0.2671 -0.0639646 -0.35418 2.08971 0.216935 -0.128987 0.232161 -0.220573 -0.911524 0.0977225 -0.731618 0.161983 0.346183 0.392374 -0.196931 0.163532 0.271202 0.88241 -0.810729 1.19606 -0.158486 0.426517 -0.537381 0.546962 0.387623 0.672523 0.441676 0.919195 -0.678384 -0.810742 1.49333 1.266 -0.164049 -0.125351 0.573299 -0.707656 -0.0939963 0.646142 0.14761 1.37166 -0.932099 -0.505531 -1.06275 -0.211957 -0.91138 0.630952 0.839366 0.393725 0.539849 -0.444707 -0.846116 0.0522365 -1.21997 0.340176 0.28513 -0.0458144 -0.837143 0.291839 0.345987 -0.231786 0.317471 0.238269 -0.148283 1.22848 1.24309 -0.658547 -0.40043 -0.223254 -0.408978 0.392467 0.0348412 -1.01846 0.372848 1.51059 -0.245867 -0.0341546 -0.208182 -0.24362 
8022 0.487621 -1.00381 -1.26524 0.543043 1.41093 -0.285251 0.116314 -0.846832 -1.2857 -1.57974 0.760315 -0.170035 0.170968 -0.17335 0.811749 0.780908 -0.175094 0.000507638 2.12127 -1.11925 -0.0189759 -0.614625 -0.0702296 0.616015 -0.211889 0.627702 1.75263 0.639201 -0.107914 -1.01182 -0.980573 0.950535 -1.17601 0.0655789 0.773604 0.0553322 0.00415488 -1.18543 0.301477 1.14804 -0.879484 0.898156 0.524622 -1.42318 -0.537526 0.0822671 0.132786 0.0353053 0.0974583 0.913591 -0.512798 0.346583 -0.158885 1.2191 -0.898051 -1.41089 -0.255659 -0.258501 -0.822065 0.140691 0.472624 -0.534802 -1.12319 0.24572 -1.02611 -0.924099 -0.700355 1.18559 1.63483 -0.00942887 1.05082 -0.0619849 0.319719 -0.721272 -0.934722 0.374569 -0.77731 -1.40013 -0.530645 -0.129376 -0.139529 -0.701638 -1.23689 0.388676 0.719622 0.786911 1.29376 -0.136591 -0.692597 0.698674 0.504675 0.269038 0.442069 -1.53093 -0.475072 0.486007 -0.0801162 -0.774746 -0.576858 0.917701 
8527 -0.339507 -0.116455 -0.52261 -0.541268 1.30252 0.294839 0.000445263 0.331216 0.304386 0.0890616 0.989088 -0.845156 1.16552 -0.162909 -0.0133131 0.663616 -0.0951302 -0.228358 -0.517792 -0.0133203 0.289186 -0.876187 0.414441 -0.0915489 -0.367062 1.03879 0.0486887 0.187198 0.274867 -0.804306 -0.269384 0.456136 -0.512639 -0.278697 0.87827 -0.202856 -0.401485 0.35341 0.0134909 1.16811 -0.368201 -0.202421 0.229105 0.32541 -0.133945 0.701366 0.25138 0.412365 0.483548 0.670083 -1.17701 -0.298505 0.577658 0.735866 -0.714794 -0.39908 0.226509 0.386676 -0.22155 0.348349 0.242121 0.68727 -1.29865 -0.143811 -0.425037 -0.236924 -0.753917 0.700509 0.518443 -0.236282 0.660695 -0.097353 -0.30413 -0.566693 -0.974804 -0.223657 -0.148633 0.305844 -0.897964 0.195291 -0.273338 -0.879107 0.606603 0.126841 -0.0215415 0.253869 0.961944 -0.284615 -0.133577 0.31152 -0.52231 -0.88752 0.761203 0.126846 0.838101 0.1056 -0.930389 -0.507414 -0.868984 -0.0261885 
6778 -0.187184 -0.253767 0.160642 -0.652253 0.633417 0.0297398 -0.175654 0.305655 0.452621 0.29121 -0.711147 -0.687441 0.469194 0.973981 -0.0503231 -0.163351 0.165366 0.560766 0.537124 -1.6863 -0.491488 -0.463373 0.208443 0.394262 0.313781 -0.262415 1.17058 0.0788772 0.303054 -1.369 -0.39552 0.528074 -0.489747 -0.145878 0.282503 0.234461 0.249226 0.571172 -0.331833 1.20348 0.479954 -0.046465 -0.615073 -0.255307 0.0925283 0.327807 0.124204 -0.0282358 0.0264711 -0.537199 -1.11684 0.354234 0.243852 -0.527857 0.534876 -0.695561 -0.601527 -0.157455 -0.269573 0.185675 0.425922 0.799767 -0.0759592 -0.20295 0.217283 0.117526 -0.0800558 0.406647 -0.145561 -0.651798 0.176226 0.0088762 -0.0112198 -0.45133 0.519932 -0.0944363 -0.908288 0.317949 -0.422112 -0.492866 -0.338761 -0.401593 -0.54637 -0.319006 0.739225 1.07619 0.521994 0.243753 0.654905 0.874187 1.08879 0.301541 0.158798 -0.46424 0.455345 0.335579 -0.68296 -0.0854009 -0.785381 0.71949 
6834 0.515932 -0.551742 0.668321 -0.114279 0.753809 0.560768 -0.0303939 -0.267977 0.252166 -0.298451 -1.38964 -0.319264 0.0525249 -0.0565422 0.293462 0.621277 0.436237 -0.156727 0.809899 -1.08423 -1.20302 0.00997256 0.405961 0.665808 0.0880942 0.15044 0.233123 -0.336073 0.377385 -1.19431 -0.234586 0.596793 -0.651841 0.214694 -0.350835 0.808942 -0.915192 0.185836 -0.708479 1.08973 0.354021 0.0703462 0.0907315 -0.669366 0.0167268 -0.0661847 0.310343 -0.389846 -0.0597317 -0.0348969 -0.267056 0.21985 0.325081 1.14565 0.0743896 -1.02349 0.462934 -0.230015 -0.207702 0.407069 -0.165824 -0.065421 -0.368392 -0.200516 0.536753 0.302751 0.609048 0.645964 0.767797 -0.216625 0.375277 0.583078 -0.0172972 -0.0274392 -0.295718 -0.341219 -0.0977671 0.191652 -0.167688 -0.25409 -0.0630852 0.502004 0.246433 0.150119 0.328581 0.125182 0.470601 -0.741326 0.545644 -0.0657639 0.51701 0.515422 1.31331 0.275422 0.505694 -0.186779 -0.887953 0.384702 -0.517881 0.963969 
8258 0.0428265 -0.497194 -0.643778 -0.637897 1.06497 -0.742068 0.128977 -0.13207 -0.170441 -0.125915 0.0353507 -0.190825 0.486791 -0.0933844 0.0757285 0.661119 0.244033 0.552378 0.489308 -0.19503 -0.680247 -0.633971 0.278238 0.0260912 -0.167347 0.669278 0.759964 0.251743 0.303009 -0.778938 -0.621489 0.462796 -0.375849 -0.0478824 0.743767 -0.0528814 -0.0665493 -0.700278 0.0599422 0.644458 -0.725715 0.0703173 0.728673 -0.327682 0.0293227 0.150187 -0.30029 0.332414 -0.227785 0.250648 -0.575774 -0.0790881 -0.304219 0.851906 0.190264 -0.416476 0.203173 0.230905 0.0109596 0.296993 0.515022 0.0241108 -0.874155 0.822456 -0.652413 0.256561 -0.299512 1.07743 0.869862 -0.294967 0.0324737 0.414706 -0.169737 -0.86618 -0.608 0.156586 -0.382152 -0.337439 -0.119408 0.19242 0.490648 0.0849218 0.119616 0.586402 -0.257812 0.424431 0.728415 -0.266473 0.247771 -0.148859 0.029018 0.0723722 0.715459 -0.83601 -0.39164 0.0694719 -0.229735 -0.869201 -0.147111 0.226848 
6829 -0.0855428 0.0314899 -0.13828 -0.0283881 -0.199667 0.682344 0.104203 0.0330347 0.45957 0.236004 0.0322402 -1.00119 0.528423 0.788864 0.251124 0.357275 -0.0195072 0.797675 1.3238 -0.53229 -0.652189 -0.896563 0.246489 1.08099 -0.655802 -0.645569 0.930684 -0.346217 0.277053 -0.951611 -0.119068 0.828128 -1.0793 0.330134 0.489543 0.94265 -0.0865287 0.237924 0.0500057 1.02974 -0.535087 -0.0380601 -0.332683 -0.326647 -0.440198 0.912328 0.112986 0.295256 -0.108819 -0.418243 -0.243315 0.760718 0.0137591 0.305845 -0.532859 -0.60274 -0.152771 -0.285492 0.24766 0.268985 -0.0774247 1.12174 -0.938663 0.0205327 0.0585162 0.509151 0.185928 1.2587 0.525436 -0.443009 -0.210333 -0.114351 0.31895 -0.326127 -0.0329705 -0.076414 -0.21995 0.204007 -0.175645 -0.343192 0.155595 0.387505 0.482847 0.70437 -0.111726 -0.361074 -0.251091 -0.206942 1.41213 0.265654 1.26744 1.57066 0.949368 0.472453 0.529345 0.37957 -1.11881 -0.337573 -0.512962 0.542621 
8259 -0.595893 -0.587161 -0.76031 -0.664225 1.4095 0.194895 0.155847 -0.207567 -0.287354 -0.104711 0.494586 -0.0121243 0.216116 -0.494118 0.346327 0.31245 -0.119932 0.77469 1.01352 0.168 -0.130089 0.0589133 -0.272154 0.757991 -1.00168 0.434534 0.773415 -0.0742502 0.234944 -0.318172 -0.922316 0.0129113 -0.225465 -0.0547685 0.561369 -0.013304 -0.309562 -0.307442 -0.421937 0.891975 -0.680945 0.443991 -0.3167 -0.623238 0.0677759 0.25479 0.356911 0.230737 0.0055198 0.370175 -1.03357 0.21104 -0.0859219 0.779243 -0.158948 -0.397395 0.310724 0.302617 0.298537 0.171605 0.271626 0.413018 -1.05642 0.66719 -0.197925 -0.248648 -0.256997 0.289201 1.02003 -0.549977 0.137867 -0.0956901 -0.114232 -0.138748 -0.397533 0.0790313 0.00100259 -0.584839 -0.0237091 0.616552 -0.122494 -0.0673156 -0.212776 0.323588 -0.118291 0.751214 0.91031 -0.537486 0.599803 0.410278 0.175635 0.412354 0.455174 -0.933634 -0.511919 0.425695 -0.254509 -0.883278 -0.542649 0.548656 
7979 0.381252 -0.385283 -0.258483 -0.263456 0.0556029 0.110669 -0.3095 -0.200099 -0.894743 -0.794728 0.318269 -0.129093 -0.0706722 -0.707155 0.296319 0.674146 -0.329378 0.290757 1.57503 0.744322 -0.239924 -0.813262 0.782233 0.320829 -0.287409 0.314936 0.713812 0.975311 0.864035 -1.11013 -1.07487 0.0604273 -0.237364 0.00208343 0.501244 0.60134 0.640326 -0.00121778 0.23914 1.69977 -1.32408 0.102278 -0.0247017 -1.02403 -0.0943834 0.731641 0.0203664 0.360112 -0.745952 0.391431 -0.871617 0.118257 0.337885 1.29982 -0.594704 -0.882136 0.401716 0.865133 0.0483521 0.2033 0.99555 0.870609 -1.22178 -0.212671 0.363421 -0.164676 -0.718591 0.802185 0.000528056 -0.611853 1.09453 0.550836 0.367354 -0.308948 0.315314 -0.290572 -0.626669 -0.308505 -0.508785 0.685419 0.431414 -0.108911 -0.648978 1.0032 0.498172 0.621437 1.6503 -0.17242 0.281015 -0.01915 0.767909 1.01683 0.510665 -0.74387 0.0388397 -0.0364511 -0.419651 -0.496035 -0.546441 0.0115076 
6844 0.194711 -0.0890186 -0.350791 -0.538234 0.852577 0.202101 0.00894083 -0.299097 -0.0812677 0.490886 -0.133318 0.128949 -0.324747 0.0193854 0.782456 0.177551 0.116234 0.176239 0.613411 -0.0775603 -0.6108 -1.26603 0.599207 0.633204 -0.902242 -0.338595 0.53701 0.000718157 0.659362 -1.17998 -0.58339 0.600764 -0.572226 0.0792229 0.209856 0.527111 -0.629294 0.554224 -0.610609 1.48395 -0.863786 -0.470694 -0.604738 -0.748048 0.12891 0.331777 0.34495 0.154778 -0.353736 -0.391713 -0.889421 -0.291198 -0.129867 0.666878 0.121563 -0.619442 0.162207 0.226249 0.221995 0.317892 0.652062 0.929307 -0.0482919 -0.0255341 0.308843 0.403079 -0.115194 0.863528 -0.245057 -0.622242 0.405336 -0.0942663 -0.284738 -0.966671 -0.168371 -0.623466 -0.988115 -0.216906 -0.122868 -0.498051 -0.306459 0.0235968 0.270147 0.397539 0.477409 -0.0791715 0.684275 -0.559958 0.724749 0.387402 1.0892 1.08904 0.598336 -0.365156 0.258663 1.15667 -0.133647 0.0256451 -0.828154 0.68551 
6799 -0.617038 -0.212295 -0.353133 -0.0680378 -0.156068 0.449444 -0.161798 -0.05729 -0.0027545 1.04715 0.0258207 0.0773023 -0.12387 -0.252346 -0.0430596 0.72093 0.351418 0.165894 0.870138 -0.351849 -1.0135 -0.657492 1.00604 0.908458 -0.411696 0.18159 0.260002 -0.290681 0.0449897 0.0677045 -0.532885 0.818362 -0.782822 0.45984 0.00181593 0.253856 0.525283 1.26391 0.0125124 1.05599 0.240242 0.319761 0.0123236 -0.278576 0.217313 0.767212 0.414983 -0.504501 0.0813576 -0.604554 -0.224655 0.990246 0.124784 1.09476 -0.0726337 -0.314168 -0.577202 0.463039 -0.178858 -0.0946679 0.494109 0.809673 -1.22385 0.0308379 -0.312256 0.268203 0.456865 0.349456 -0.324979 -0.299828 0.887137 0.0402368 0.110871 0.859318 0.519259 -0.313672 -0.694985 0.623982 -0.286255 0.0295441 0.201322 0.258487 -1.1659 1.10769 0.205904 0.355388 0.749859 -0.747211 0.546427 0.766838 1.11997 0.591423 0.74918 -0.955345 0.409707 0.551518 0.232209 -0.296997 -1.30702 1.15389 
8260 -0.334359 0.263442 -0.314936 -0.481104 0.693012 0.0675741 -0.271891 -0.109795 0.1326 0.466879 -0.13687 0.251495 0.332758 0.379523 0.733509 0.300923 -0.104827 0.891213 0.144353 0.635066 -0.037579 -0.773102 -0.438678 -0.00861866 -1.00432 1.22597 0.655178 0.619471 0.511035 -0.518357 -0.889825 -0.0441355 -0.176056 0.0884831 0.598547 0.452409 0.310562 -0.408171 -0.287754 0.889839 -0.531876 -0.183346 -0.366759 -0.420074 0.00530111 0.385994 0.339329 0.367525 -0.114319 0.106566 -1.42235 -0.0258704 -0.0253677 0.63755 -0.1093 -0.928357 0.0863842 -0.0171793 0.553152 0.524295 0.642378 -0.0327396 -1.11805 0.732095 0.111678 0.280247 -0.482628 0.952121 0.79584 0.179365 0.407589 0.115459 -0.089799 -0.604255 0.148609 0.0598408 -0.0474139 -0.139454 0.0578846 0.755542 -0.2949 -0.203641 0.0163759 0.682777 -0.354882 1.22032 0.859936 -0.0732591 0.606066 0.245929 0.305822 0.578459 0.759585 -0.565842 0.38602 0.561433 -0.464126 -0.611983 -1.03415 0.320848 
6810 -0.130843 0.447801 0.311289 -0.59896 0.653952 0.216159 -0.0247707 0.150575 0.170079 0.445867 -0.242445 0.264258 -0.396879 0.644375 0.0138603 -0.0362454 -0.0242119 0.17088 0.75536 -0.531908 -0.857401 -0.437629 0.137251 0.792177 -0.66471 -0.0180782 0.322599 0.0155971 0.522711 -0.983487 -0.311414 1.34024 -0.613284 -0.511603 0.870321 0.862534 0.071854 0.481662 -0.725466 1.23196 0.123006 0.414804 -0.208909 -0.563102 0.654343 0.734297 0.882722 0.0854532 0.180733 -0.123323 -1.68771 0.173361 -0.35966 0.471042 -0.363745 -0.18874 0.09019 0.463019 -0.0354857 0.0727984 0.608654 0.94413 -1.02116 0.0409065 -0.120788 0.504759 -0.279199 0.48484 -0.440607 -0.102565 0.527257 0.339305 0.849287 -0.0946319 0.457434 -0.298006 -0.752566 0.234766 -0.134867 -0.299618 0.223163 -0.167108 -0.0544124 0.021451 0.370413 0.0480188 0.517213 -0.0587036 0.899823 0.55496 0.893684 1.32415 0.912891 -0.0322421 0.379476 0.240697 -0.218978 0.15461 -0.934484 0.850581 
6847 -0.33562 -0.479264 -0.211767 -0.0533371 0.641383 0.304477 -0.111278 0.37518 -0.0600783 0.473137 -0.752919 0.33741 -0.0216109 0.780839 0.605482 -0.0769301 -0.169803 0.0875785 0.619923 -0.197395 -0.627551 -0.450272 0.482017 1.15107 -1.0816 -0.28527 0.505894 0.27384 0.577364 -1.00919 -0.590173 0.651579 -0.161597 0.0759183 0.534539 0.40826 0.0473124 0.318513 -0.925514 1.63962 -0.56232 -0.546795 -0.837554 -0.461509 0.321675 0.616228 0.716554 -0.370765 -0.538805 -0.0455653 -1.10697 0.578899 0.0559198 0.455883 -0.0200593 -0.631025 0.327364 0.620596 0.0429835 0.531694 0.363646 1.0459 -0.41591 -0.273084 -0.147851 0.341127 0.255674 0.402849 0.0492265 -0.372683 0.667021 0.450554 0.0520056 -0.578815 0.91112 -0.963405 -0.552976 -0.0981791 0.0176072 -0.366271 -0.353863 0.709713 0.358257 0.857592 0.399328 -0.0513578 1.17105 -0.915626 1.32762 0.480881 0.610769 0.656904 0.822893 -0.206869 -0.119397 0.264243 -0.480961 0.428351 -0.534114 0.451236 
